{"learner":{"attributes":{"scikit_learn":"{\"_estimator_type\": \"regressor\"}"},"feature_names":["aqi_lag_1h","aqi_lag_6h","aqi_lag_12h","aqi_lag_24h","aqi_lag_48h","aqi_roll_mean_24h","aqi_roll_mean_7d","aqi_prev_day_max","wind_speed","wind_dir","temp","humidity","target_wind_speed","target_wind_dir","target_temp","target_humidity","industrial_pct","construction_pct","green_cover_pct","residential_pct","water_pct","nearest_dist_km","is_estimated","target_month","target_hour","target_weekday","target_is_winter","target_is_summer","target_is_crop_burn","target_is_festival"],"feature_types":["float","float","float","float","float","float","float","float","float","float","float","float","float","float","float","float","float","float","float","float","float","float","float","float","float","float","float","float","float","float"],"gradient_booster":{"model":{"cats":{"enc":[],"feature_segments":[],"sorted_idx":[]},"gbtree_model_param":{"num_parallel_tree":"1","num_trees":"250"},"iteration_indptr":[0,1,2,3,4,5,6,7,8,9,10,11,12,13,14,15,16,17,18,19,20,21,22,23,24,25,26,27,28,29,30,31,32,33,34,35,36,37,38,39,40,41,42,43,44,45,46,47,48,49,50,51,52,53,54,55,56,57,58,59,60,61,62,63,64,65,66,67,68,69,70,71,72,73,74,75,76,77,78,79,80,81,82,83,84,85,86,87,88,89,90,91,92,93,94,95,96,97,98,99,100,101,102,103,104,105,106,107,108,109,110,111,112,113,114,115,116,117,118,119,120,121,122,123,124,125,126,127,128,129,130,131,132,133,134,135,136,137,138,139,140,141,142,143,144,145,146,147,148,149,150,151,152,153,154,155,156,157,158,159,160,161,162,163,164,165,166,167,168,169,170,171,172,173,174,175,176,177,178,179,180,181,182,183,184,185,186,187,188,189,190,191,192,193,194,195,196,197,198,199,200,201,202,203,204,205,206,207,208,209,210,211,212,213,214,215,216,217,218,219,220,221,222,223,224,225,226,227,228,229,230,231,232,233,234,235,236,237,238,239,240,241,242,243,244,245,246,247,248,249,250],"tree_info":[0,0,0,0,0,0,0,0,0,0,0,0,0,0,0,0,0,0,0,0,0,0,0,0,0,0,0,0,0,0,0,0,0,0,0,0,0,0,0,0,0,0,0,0,0,0,0,0,0,0,0,0,0,0,0,0,0,0,0,0,0,0,0,0,0,0,0,0,0,0,0,0,0,0,0,0,0,0,0,0,0,0,0,0,0,0,0,0,0,0,0,0,0,0,0,0,0,0,0,0,0,0,0,0,0,0,0,0,0,0,0,0,0,0,0,0,0,0,0,0,0,0,0,0,0,0,0,0,0,0,0,0,0,0,0,0,0,0,0,0,0,0,0,0,0,0,0,0,0,0,0,0,0,0,0,0,0,0,0,0,0,0,0,0,0,0,0,0,0,0,0,0,0,0,0,0,0,0,0,0,0,0,0,0,0,0,0,0,0,0,0,0,0,0,0,0,0,0,0,0,0,0,0,0,0,0,0,0,0,0,0,0,0,0,0,0,0,0,0,0,0,0,0,0,0,0,0,0,0,0,0,0,0,0,0,0,0,0,0,0,0,0,0,0,0,0,0,0,0,0],"trees":[{"base_weights":[5.807041E-2,-3.972876E1,5.6774166E1,-6.183819E1,-1.2386923E1,3.5294106E1,1.2479693E2,-7.486109E1,-5.245305E1,1.17671795E1,-1.9079868E1,1.8504646E1,5.497733E1,9.677441E1,1.7768681E2,-9.1192085E1,-7.147569E1,-5.7932682E1,-4.212313E1,2.5125122E0,3.7528687E1,-3.1280783E1,-7.0243053E0,6.3974752E0,3.247776E1,4.1393093E1,8.212996E1,8.107888E1,1.2822124E2,1.9176762E2,1.2001058E2,-9.848548E1,-8.411052E1,-7.453184E1,-6.0126766E1,-6.3033916E1,-5.1570873E1,-3.8122547E1,-6.023482E1,-1.5992795E1,1.2025049E1,5.7765743E1,1.8937906E1,-2.2817966E1,-4.0397743E1,-1.8937178E-1,-2.2884398E1,-7.8885617E0,1.3201555E1,4.814843E1,2.365641E1,5.3371174E1,2.4070417E1,6.3944214E1,1.19384605E2,9.903287E1,6.532268E1,1.1203964E2,1.4737659E2,1.7672464E2,2.2571796E2,9.776636E1,1.412727E2,-5.1972327E0,-4.6284137E0,-4.469994E0,-3.9528306E0,-3.9442391E0,-3.4506052E0,-3.411637E0,-2.673789E0,-3.0141687E0,-3.620526E0,-2.7568836E0,-2.3203256E0,-7.306026E-1,-2.0172946E0,-3.500017E0,-2.5574634E0,-3.7698546E-1,-1.5173734E0,1.1489843E0,-1.3800007E-2,2.3687944E0,4.5072393E0,6.739504E-1,3.2126024E0,-1.3971112E0,-4.1949782E-1,-1.8343706E0,-2.6494606E0,-3.8565233E-1,5.4588914E-1,-8.387516E-1,-2.122028E0,-9.2667353E-1,3.0683964E-2,7.4688196E-1,-1.2631196E0,2.0369072E0,3.7973862E0,1.544591E0,-3.7583107E-1,2.2481978E0,3.5124872E0,3.0509346E0,8.4723824E-1,3.4775612E0,1.9064604E-1,6.900712E0,4.17759E0,2.7410338E0,5.924995E0,4.7006583E0,1.5263172E0,5.7885475E0,1.3083366E0,7.7198257E0,5.203518E0,6.110699E0,9.064667E0,1.0096532E1,1.1930426E1,3.6741643E0,5.830995E0,7.4930925E0,4.4128795E0],"categories":[],"categories_nodes":[],"categories_segments":[],"categories_sizes":[],"default_left":[1,0,1,0,0,0,1,0,1,1,0,0,0,0,0,1,1,0,0,0,0,0,0,0,0,0,1,0,0,0,0,0,0,0,0,0,0,0,0,0,0,0,0,1,0,1,0,0,0,1,0,1,0,0,0,0,0,0,0,0,0,0,0,0,0,0,0,0,0,0,0,0,0,0,0,0,0,0,0,0,0,0,0,0,0,0,0,0,0,0,0,0,0,0,0,0,0,0,0,0,0,0,0,0,0,0,0,0,0,0,0,0,0,0,0,0,0,0,0,0,0,0,0,0,0,0,0],"id":0,"left_children":[1,3,5,7,9,11,13,15,17,19,21,23,25,27,29,31,33,35,37,39,41,43,45,47,49,51,53,55,57,59,61,63,65,67,69,71,73,75,77,79,81,83,85,87,89,91,93,95,97,99,101,103,105,107,109,111,113,115,117,119,121,123,125,-1,-1,-1,-1,-1,-1,-1,-1,-1,-1,-1,-1,-1,-1,-1,-1,-1,-1,-1,-1,-1,-1,-1,-1,-1,-1,-1,-1,-1,-1,-1,-1,-1,-1,-1,-1,-1,-1,-1,-1,-1,-1,-1,-1,-1,-1,-1,-1,-1,-1,-1,-1,-1,-1,-1,-1,-1,-1,-1,-1,-1,-1,-1,-1],"loss_changes":[2.2958835E9,3.614716E8,6.129001E8,4.0404224E7,4.3219772E7,1.0535402E8,1.4918643E8,7.648896E6,1.0873792E7,1.3829598E7,3.0791224E7,2.910632E7,5.4126496E7,3.2470208E7,2.8291072E7,1.21952E6,3.973696E6,4.071072E6,4.823512E6,7.5127275E6,5.766778E6,8.026464E6,1.1414582E7,8.960404E6,1.1039808E7,2.0295424E7,3.3146656E7,1.2412256E7,6.774176E6,1.4270848E7,3.223136E6,3.68488E5,3.15536E5,2.1656E6,1.308536E6,1.79248E6,1.026672E6,2.851112E6,1.06538E6,1.7580065E6,3.7984385E6,2.465004E6,1.9760778E6,3.989106E6,2.337904E6,6.149501E6,3.788101E6,2.691647E6,4.170045E6,5.92272E6,1.1526948E7,8.203024E6,1.0527556E7,1.1087472E7,1.0703344E7,1.765208E7,2.3341928E7,3.803552E6,3.032832E6,4.81472E6,2.588864E6,1.52422E6,1.579144E6,0E0,0E0,0E0,0E0,0E0,0E0,0E0,0E0,0E0,0E0,0E0,0E0,0E0,0E0,0E0,0E0,0E0,0E0,0E0,0E0,0E0,0E0,0E0,0E0,0E0,0E0,0E0,0E0,0E0,0E0,0E0,0E0,0E0,0E0,0E0,0E0,0E0,0E0,0E0,0E0,0E0,0E0,0E0,0E0,0E0,0E0,0E0,0E0,0E0,0E0,0E0,0E0,0E0,0E0,0E0,0E0,0E0,0E0,0E0,0E0,0E0,0E0,0E0,0E0],"parents":[2147483647,0,0,1,1,2,2,3,3,4,4,5,5,6,6,7,7,8,8,9,9,10,10,11,11,12,12,13,13,14,14,15,15,16,16,17,17,18,18,19,19,20,20,21,21,22,22,23,23,24,24,25,25,26,26,27,27,28,28,29,29,30,30,31,31,32,32,33,33,34,34,35,35,36,36,37,37,38,38,39,39,40,40,41,41,42,42,43,43,44,44,45,45,46,46,47,47,48,48,49,49,50,50,51,51,52,52,53,53,54,54,55,55,56,56,57,57,58,58,59,59,60,60,61,61,62,62],"right_children":[2,4,6,8,10,12,14,16,18,20,22,24,26,28,30,32,34,36,38,40,42,44,46,48,50,52,54,56,58,60,62,64,66,68,70,72,74,76,78,80,82,84,86,88,90,92,94,96,98,100,102,104,106,108,110,112,114,116,118,120,122,124,126,-1,-1,-1,-1,-1,-1,-1,-1,-1,-1,-1,-1,-1,-1,-1,-1,-1,-1,-1,-1,-1,-1,-1,-1,-1,-1,-1,-1,-1,-1,-1,-1,-1,-1,-1,-1,-1,-1,-1,-1,-1,-1,-1,-1,-1,-1,-1,-1,-1,-1,-1,-1,-1,-1,-1,-1,-1,-1,-1,-1,-1,-1,-1,-1],"split_conditions":[1.3452E2,9.388E1,2.3512314E2,6.726E1,2.39E1,1.7141498E2,2.4679E2,4.639E1,8.6224976E1,1.4161E2,1.113E2,1.512E2,1E0,1E0,2.76E1,3.78E1,7.22E1,1.58E2,8.8E1,1.98E2,2.82E2,6.7E1,6.4E1,1.1830118E2,2.74E1,4.7E1,2.1004E2,2.71E1,3E2,3.0277E2,3.0533514E2,3.579E1,1.42E2,1.58E2,1.51E2,9.1E1,8.02E1,2.54E1,2.67E1,5E0,2.8E2,1.8099E2,1.9867E2,1.096E2,8.9E1,1.254E2,8.7E1,1.1663531E2,8.6E1,1.7889E2,5.4E1,1.9887808E2,1.93E1,8.4E1,2.74E1,2.04E1,3.3E1,9.1E1,2.86E1,1E0,3.406E2,2.58019E2,9.5E0,-5.1972327E0,-4.6284137E0,-4.469994E0,-3.9528306E0,-3.9442391E0,-3.4506052E0,-3.411637E0,-2.673789E0,-3.0141687E0,-3.620526E0,-2.7568836E0,-2.3203256E0,-7.306026E-1,-2.0172946E0,-3.500017E0,-2.5574634E0,-3.7698546E-1,-1.5173734E0,1.1489843E0,-1.3800007E-2,2.3687944E0,4.5072393E0,6.739504E-1,3.2126024E0,-1.3971112E0,-4.1949782E-1,-1.8343706E0,-2.6494606E0,-3.8565233E-1,5.4588914E-1,-8.387516E-1,-2.122028E0,-9.2667353E-1,3.0683964E-2,7.4688196E-1,-1.2631196E0,2.0369072E0,3.7973862E0,1.544591E0,-3.7583107E-1,2.2481978E0,3.5124872E0,3.0509346E0,8.4723824E-1,3.4775612E0,1.9064604E-1,6.900712E0,4.17759E0,2.7410338E0,5.924995E0,4.7006583E0,1.5263172E0,5.7885475E0,1.3083366E0,7.7198257E0,5.203518E0,6.110699E0,9.064667E0,1.0096532E1,1.1930426E1,3.6741643E0,5.830995E0,7.4930925E0,4.4128795E0],"split_indices":[5,6,0,6,10,3,6,6,0,6,5,0,28,28,10,0,0,13,15,9,13,15,15,4,10,15,6,10,7,6,0,6,13,13,13,15,6,10,14,25,13,6,6,0,15,0,15,0,15,6,15,4,10,15,10,14,15,15,10,28,0,3,8,0,0,0,0,0,0,0,0,0,0,0,0,0,0,0,0,0,0,0,0,0,0,0,0,0,0,0,0,0,0,0,0,0,0,0,0,0,0,0,0,0,0,0,0,0,0,0,0,0,0,0,0,0,0,0,0,0,0,0,0,0,0,0,0],"split_type":[0,0,0,0,0,0,0,0,0,0,0,0,0,0,0,0,0,0,0,0,0,0,0,0,0,0,0,0,0,0,0,0,0,0,0,0,0,0,0,0,0,0,0,0,0,0,0,0,0,0,0,0,0,0,0,0,0,0,0,0,0,0,0,0,0,0,0,0,0,0,0,0,0,0,0,0,0,0,0,0,0,0,0,0,0,0,0,0,0,0,0,0,0,0,0,0,0,0,0,0,0,0,0,0,0,0,0,0,0,0,0,0,0,0,0,0,0,0,0,0,0,0,0,0,0,0,0],"sum_hessian":[1.017427E6,5.97956E5,4.19471E5,3.30612E5,2.67344E5,3.18802E5,1.00669E5,1.38467E5,1.92145E5,5.8006E4,2.09338E5,1.72049E5,1.46753E5,6.5806E4,3.4863E4,2.3771E4,1.14696E5,1.25544E5,6.6601E4,4.2676E4,1.533E4,1.04041E5,1.05297E5,9.218E4,7.9869E4,9.7818E4,4.8935E4,4.3899E4,2.1907E4,2.802E4,6.843E3,1.1704E4,1.2067E4,9.0358E4,2.4338E4,6.967E4,5.5874E4,5.4554E4,1.2047E4,1.4489E4,2.8187E4,7.339E3,7.991E3,5.3958E4,5.0083E4,7.3586E4,3.1711E4,2.9739E4,6.2441E4,2.8765E4,5.1104E4,5.7829E4,3.9989E4,3.2885E4,1.605E4,2.0516E4,2.3383E4,1.1879E4,1.0028E4,1.9421E4,8.599E3,3.347E3,3.496E3,6.079E3,5.625E3,5.888E3,6.179E3,5.0511E4,3.9847E4,1.0965E4,1.3373E4,5.3874E4,1.5796E4,3.3043E4,2.2831E4,4.714E3,4.984E4,5.803E3,6.244E3,9.12E3,5.369E3,1.4909E4,1.3278E4,5.558E3,1.781E3,7.133E3,8.58E2,3.9816E4,1.4142E4,3.8687E4,1.1396E4,4.387E4,2.9716E4,2.4164E4,7.547E3,1.3205E4,1.6534E4,5.9745E4,2.696E3,2.2713E4,6.052E3,4.1477E4,9.627E3,3.8604E4,1.9225E4,6.464E3,3.3525E4,3.008E4,2.805E3,1.0558E4,5.492E3,6.273E3,1.4243E4,1.2815E4,1.0568E4,1.1384E4,4.95E2,8.627E3,1.401E3,1.504E3,1.7917E4,3.028E3,5.571E3,1.465E3,1.882E3,3.007E3,4.89E2],"tree_param":{"num_deleted":"0","num_feature":"30","num_nodes":"127","size_leaf_vector":"1"}},{"base_weights":[1.1281227E-2,-3.5658375E1,5.6954388E1,-5.685238E1,-7.2743464E0,3.6857647E1,1.2203958E2,-7.006153E1,-4.6880486E1,-1.748015E1,5.954071E0,2.1355951E1,5.7653988E1,9.556781E1,1.7323944E2,-8.0266174E1,-6.494048E1,-5.1977238E1,-3.494964E1,5.124909E0,-2.3391375E1,2.3307972E1,-8.8062435E-1,1.8254066E1,7.7443405E1,6.641119E1,2.5835495E1,1.1620417E2,5.6996338E1,1.8718245E2,1.23218155E2,-9.2534256E1,-7.657213E1,-6.991624E1,-5.8358307E1,-5.7357483E1,-4.564827E1,-2.9847652E1,-5.289696E1,-2.5350943E0,4.198097E1,-1.3121144E1,-3.2692905E1,2.9658936E1,-2.8134438E1,7.1167307E0,-1.9496204E1,2.7977901E1,3.2946405E0,1.2310147E2,4.4430958E1,8.087201E1,4.792616E1,3.4879158E1,-1.103547E1,9.667638E1,1.3457002E2,4.576884E1,1.1805176E2,1.7290424E2,2.1661864E2,1.5022131E2,1.0480529E2,-4.8505383E0,-4.174835E0,-4.1269836E0,-3.5606601E0,-3.2658412E0,-3.8971748E0,-3.1664553E0,-2.4616973E0,-2.683499E0,-3.3276951E0,-2.45729E0,-1.8893212E0,-4.2452833E-1,-1.6287956E0,-3.1783216E0,-2.2867868E0,3.9540744E-1,-9.0664595E-1,1.6094426E0,4.259078E0,9.772639E-1,-9.28236E-1,-1.8347965E0,-8.199067E-1,2.1044097E0,7.832712E-1,-1.3989171E-1,-1.6876698E0,9.878473E-1,5.1683135E-2,-6.932311E-1,-2.0340161E0,1.9782546E0,7.3981935E-1,4.2303777E-1,-1.0052028E0,4.2021284E0,8.428298E0,1.079852E0,3.745709E0,3.2980092E0,5.547878E0,2.8218584E0,8.209977E-1,7.894166E-1,2.352373E0,-7.426509E-1,5.8340335E0,5.916703E0,3.8551278E0,5.9052763E0,7.3503036E0,2.9952607E0,6.277431E-1,4.8169827E0,6.9728656E0,9.045124E0,7.078953E0,9.670295E0,1.1362557E1,6.4078736E0,9.138045E0,6.116035E0,4.0907006E0],"categories":[],"categories_nodes":[],"categories_segments":[],"categories_sizes":[],"default_left":[1,0,1,0,1,0,1,0,1,0,0,0,0,0,0,0,0,0,0,1,0,0,0,0,0,0,0,0,0,0,0,1,0,0,0,0,0,0,0,0,0,0,0,0,0,0,0,0,0,1,0,1,0,1,0,0,0,0,0,0,0,0,0,0,0,0,0,0,0,0,0,0,0,0,0,0,0,0,0,0,0,0,0,0,0,0,0,0,0,0,0,0,0,0,0,0,0,0,0,0,0,0,0,0,0,0,0,0,0,0,0,0,0,0,0,0,0,0,0,0,0,0,0,0,0,0,0],"id":1,"left_children":[1,3,5,7,9,11,13,15,17,19,21,23,25,27,29,31,33,35,37,39,41,43,45,47,49,51,53,55,57,59,61,63,65,67,69,71,73,75,77,79,81,83,85,87,89,91,93,95,97,99,101,103,105,107,109,111,113,115,117,119,121,123,125,-1,-1,-1,-1,-1,-1,-1,-1,-1,-1,-1,-1,-1,-1,-1,-1,-1,-1,-1,-1,-1,-1,-1,-1,-1,-1,-1,-1,-1,-1,-1,-1,-1,-1,-1,-1,-1,-1,-1,-1,-1,-1,-1,-1,-1,-1,-1,-1,-1,-1,-1,-1,-1,-1,-1,-1,-1,-1,-1,-1,-1,-1,-1,-1],"loss_changes":[2.0677645E9,3.7654592E8,5.1285338E8,4.7199616E7,3.6125452E7,9.657984E7,1.2536013E8,8.05056E6,1.241552E7,2.0183688E7,1.3822076E7,2.9861016E7,3.5648704E7,4.8531904E7,2.1964672E7,2.327104E6,3.357824E6,4.86944E6,5.595552E6,8.840033E6,1.1437912E7,1.0758704E7,1.2447313E7,2.3659756E7,1.355256E7,2.6815232E7,9.208566E6,1.4234176E7,1.4565568E7,1.0323712E7,3.402544E6,4.73944E5,1.260256E6,2.153056E6,2.001456E6,2.618912E6,1.806016E6,2.773144E6,1.030796E6,4.2231155E6,2.276519E6,1.0119691E7,4.09776E6,5.097198E6,5.1512575E5,4.49689E6,2.99685E6,1.5055584E7,7.745819E6,6.687676E6,3.633163E6,2.5246528E7,1.1808384E7,5.150806E6,2.6540735E6,8.154368E6,4.173728E6,8.43004E6,1.52074E6,4.134688E6,1.942368E6,1.976064E6,1.637448E6,0E0,0E0,0E0,0E0,0E0,0E0,0E0,0E0,0E0,0E0,0E0,0E0,0E0,0E0,0E0,0E0,0E0,0E0,0E0,0E0,0E0,0E0,0E0,0E0,0E0,0E0,0E0,0E0,0E0,0E0,0E0,0E0,0E0,0E0,0E0,0E0,0E0,0E0,0E0,0E0,0E0,0E0,0E0,0E0,0E0,0E0,0E0,0E0,0E0,0E0,0E0,0E0,0E0,0E0,0E0,0E0,0E0,0E0,0E0,0E0,0E0,0E0,0E0,0E0],"parents":[2147483647,0,0,1,1,2,2,3,3,4,4,5,5,6,6,7,7,8,8,9,9,10,10,11,11,12,12,13,13,14,14,15,15,16,16,17,17,18,18,19,19,20,20,21,21,22,22,23,23,24,24,25,25,26,26,27,27,28,28,29,29,30,30,31,31,32,32,33,33,34,34,35,35,36,36,37,37,38,38,39,39,40,40,41,41,42,42,43,43,44,44,45,45,46,46,47,47,48,48,49,49,50,50,51,51,52,52,53,53,54,54,55,55,56,56,57,57,58,58,59,59,60,60,61,61,62,62],"right_children":[2,4,6,8,10,12,14,16,18,20,22,24,26,28,30,32,34,36,38,40,42,44,46,48,50,52,54,56,58,60,62,64,66,68,70,72,74,76,78,80,82,84,86,88,90,92,94,96,98,100,102,104,106,108,110,112,114,116,118,120,122,124,126,-1,-1,-1,-1,-1,-1,-1,-1,-1,-1,-1,-1,-1,-1,-1,-1,-1,-1,-1,-1,-1,-1,-1,-1,-1,-1,-1,-1,-1,-1,-1,-1,-1,-1,-1,-1,-1,-1,-1,-1,-1,-1,-1,-1,-1,-1,-1,-1,-1,-1,-1,-1,-1,-1,-1,-1,-1,-1,-1,-1,-1,-1,-1,-1],"split_conditions":[1.3932E2,9.837E1,2.41306E2,6.934E1,1.1597046E2,1.7370755E2,2.5094E2,5.31E1,9.23E1,2.38E1,2.48E1,1.1E1,1.03E1,8.3E0,2.71E1,3.978E1,1.68E2,1.58E2,8.6E1,1.5339E2,5.5E1,1.1E1,6.4E1,9E0,7.1E0,2.74E1,5.4E1,2.2675E2,1.1E1,3.0277E2,5.7E0,3.78E1,1.38E2,8.5E0,7.11E1,8.7E0,8.594E1,2.53E1,2.67E1,7.6E0,2.0152E2,1E1,2.43E2,4E0,2E0,3E1,8.8E1,2.96E1,5.4E1,1.9728E2,1.9072E2,2.641E2,5.1E1,1.7098E2,1.1E1,2.48E1,2.6661078E2,5E1,3E0,7.2E1,1.1E1,4.1E1,2.92E2,-4.8505383E0,-4.174835E0,-4.1269836E0,-3.5606601E0,-3.2658412E0,-3.8971748E0,-3.1664553E0,-2.4616973E0,-2.683499E0,-3.3276951E0,-2.45729E0,-1.8893212E0,-4.2452833E-1,-1.6287956E0,-3.1783216E0,-2.2867868E0,3.9540744E-1,-9.0664595E-1,1.6094426E0,4.259078E0,9.772639E-1,-9.28236E-1,-1.8347965E0,-8.199067E-1,2.1044097E0,7.832712E-1,-1.3989171E-1,-1.6876698E0,9.878473E-1,5.1683135E-2,-6.932311E-1,-2.0340161E0,1.9782546E0,7.3981935E-1,4.2303777E-1,-1.0052028E0,4.2021284E0,8.428298E0,1.079852E0,3.745709E0,3.2980092E0,5.547878E0,2.8218584E0,8.209977E-1,7.894166E-1,2.352373E0,-7.426509E-1,5.8340335E0,5.916703E0,3.8551278E0,5.9052763E0,7.3503036E0,2.9952607E0,6.277431E-1,4.8169827E0,6.9728656E0,9.045124E0,7.078953E0,9.670295E0,1.1362557E1,6.4078736E0,9.138045E0,6.116035E0,4.0907006E0],"split_indices":[5,6,0,6,0,0,6,6,0,10,10,23,12,12,10,6,13,13,15,6,15,12,15,12,8,10,15,5,23,6,8,0,13,12,0,12,6,10,14,12,6,24,13,25,25,15,15,10,15,6,6,7,15,6,23,10,3,15,25,15,23,11,13,0,0,0,0,0,0,0,0,0,0,0,0,0,0,0,0,0,0,0,0,0,0,0,0,0,0,0,0,0,0,0,0,0,0,0,0,0,0,0,0,0,0,0,0,0,0,0,0,0,0,0,0,0,0,0,0,0,0,0,0,0,0,0,0],"split_type":[0,0,0,0,0,0,0,0,0,0,0,0,0,0,0,0,0,0,0,0,0,0,0,0,0,0,0,0,0,0,0,0,0,0,0,0,0,0,0,0,0,0,0,0,0,0,0,0,0,0,0,0,0,0,0,0,0,0,0,0,0,0,0,0,0,0,0,0,0,0,0,0,0,0,0,0,0,0,0,0,0,0,0,0,0,0,0,0,0,0,0,0,0,0,0,0,0,0,0,0,0,0,0,0,0,0,0,0,0,0,0,0,0,0,0,0,0,0,0,0,0,0,0,0,0,0,0],"sum_hessian":[1.018029E6,6.25937E5,3.92092E5,3.58356E5,2.67581E5,2.99588E5,9.2504E4,1.54153E5,2.04203E5,1.51047E5,1.16534E5,1.71645E5,1.27943E5,6.0979E4,3.1525E4,5.1505E4,1.02648E5,1.43078E5,6.1125E4,3.1311E4,1.19736E5,3.2927E4,8.3607E4,1.62651E5,8.994E3,1.00329E5,2.7614E4,3.9724E4,2.1255E4,2.4651E4,6.874E3,1.1914E4,3.9591E4,5.8452E4,4.4196E4,7.7331E4,6.5747E4,4.7597E4,1.3528E4,2.5924E4,5.387E3,5.6906E4,6.283E4,2.9309E4,3.618E3,5.8483E4,2.5124E4,9.8575E4,6.4076E4,3.773E3,5.221E3,5.629E4,4.4039E4,2.2175E4,5.439E3,1.9256E4,2.0468E4,1.7955E4,3.3E3,1.6604E4,8.047E3,2.784E3,4.09E3,7.961E3,3.953E3,1.8725E4,2.0866E4,3.7166E4,2.1286E4,2.8606E4,1.559E4,5.5203E4,2.2128E4,4.55E4,2.0247E4,5.392E3,4.2205E4,5.43E3,8.098E3,1.5528E4,1.0396E4,4.393E3,9.94E2,8.128E3,4.8778E4,5.0438E4,1.2392E4,1.5521E4,1.3788E4,6.57E2,2.961E3,1.9E4,3.9483E4,1.9849E4,5.275E3,5.2459E4,4.6116E4,5.2488E4,1.1588E4,2.031E3,1.742E3,2.986E3,2.235E3,3.7638E4,1.8652E4,3.4672E4,9.367E3,8.633E3,1.3542E4,5.282E3,1.57E2,9.139E3,1.0117E4,8.812E3,1.1656E4,1.2594E4,5.361E3,1.641E3,1.659E3,1.3223E4,3.381E3,2.534E3,5.513E3,1.662E3,1.122E3,2.319E3,1.771E3],"tree_param":{"num_deleted":"0","num_feature":"30","num_nodes":"127","size_leaf_vector":"1"}},{"base_weights":[1.8487347E-2,-3.276287E1,5.5963184E1,-5.3645084E1,-5.6194196E0,4.117352E1,1.3601227E2,-6.356736E1,-4.122751E1,-1.4496472E1,8.771158E0,2.4398203E1,7.078226E1,1.6005913E2,8.787095E1,-7.5095825E1,-5.876394E1,-4.6091812E1,-3.032586E1,6.0395837E0,-1.9930044E1,2.5140419E1,2.003542E0,8.042566E0,3.389267E1,8.8080505E1,4.1099907E1,1.2852628E2,1.8113205E2,7.0614494E1,1.23562775E2,-8.564678E1,-7.126169E1,-6.409117E1,-5.2346336E1,-5.0810745E1,-3.9283188E1,-2.5359835E1,-4.853861E1,-3.5181549E0,3.2843307E1,-1.0135831E1,-2.9614782E1,3.145431E1,-2.5185179E1,9.8659115E0,-1.6463835E1,-4.7485976E0,1.5377053E1,4.3204964E1,1.5219038E1,7.5444176E1,1.16797386E2,3.4645397E1,8.802915E1,7.232654E1,1.3773932E2,1.702074E2,2.1019691E2,5.507183E1,8.836279E1,1.3558284E2,8.767327E1,-4.479038E0,-3.7986443E0,-3.811961E0,-3.2991784E0,-2.9764454E0,-3.6056862E0,-2.8528547E0,-2.1568143E0,-2.3681598E0,-2.9488866E0,-8.9511883E-1,-2.0372944E0,-2.515942E-1,-1.4133667E0,-2.9268796E0,-2.086412E0,3.1885487E-1,-9.4623965E-1,2.6304352E0,6.9852513E-1,-1.0100887E0,-1.10087514E-1,-2.053356E0,-1.2065471E0,2.1920466E0,8.705042E-1,-9.943885E-1,-2.8243406E0,1.0801957E0,1.93817E-1,-5.047548E-1,-1.8086138E0,-6.848863E-1,4.2907402E-1,2.0767775E0,6.096552E-1,2.3186493E0,-1.876925E-1,1.1770861E0,-3.3406854E-1,4.5607924E0,3.0905988E0,5.0744147E0,6.702742E0,2.3220286E0,2.252378E-1,2.997133E0,5.1338925E0,6.313988E0,2.1741908E0,7.1120453E0,3.4837189E0,8.763599E0,5.429714E0,8.816579E0,1.1037834E1,2.8618543E0,-1.6822379E0,3.2980106E0,5.307134E0,6.255221E0,8.454052E0,6.9311266E0,3.6197948E0],"categories":[],"categories_nodes":[],"categories_segments":[],"categories_sizes":[],"default_left":[1,0,1,0,1,1,0,0,1,0,0,0,0,0,1,0,0,0,0,1,0,0,0,0,0,1,0,0,1,0,0,1,0,0,0,0,0,0,0,0,0,0,0,0,0,0,0,1,0,0,0,0,0,0,0,0,0,0,0,0,0,0,0,0,0,0,0,0,0,0,0,0,0,0,0,0,0,0,0,0,0,0,0,0,0,0,0,0,0,0,0,0,0,0,0,0,0,0,0,0,0,0,0,0,0,0,0,0,0,0,0,0,0,0,0,0,0,0,0,0,0,0,0,0,0,0,0],"id":2,"left_children":[1,3,5,7,9,11,13,15,17,19,21,23,25,27,29,31,33,35,37,39,41,43,45,47,49,51,53,55,57,59,61,63,65,67,69,71,73,75,77,79,81,83,85,87,89,91,93,95,97,99,101,103,105,107,109,111,113,115,117,119,121,123,125,-1,-1,-1,-1,-1,-1,-1,-1,-1,-1,-1,-1,-1,-1,-1,-1,-1,-1,-1,-1,-1,-1,-1,-1,-1,-1,-1,-1,-1,-1,-1,-1,-1,-1,-1,-1,-1,-1,-1,-1,-1,-1,-1,-1,-1,-1,-1,-1,-1,-1,-1,-1,-1,-1,-1,-1,-1,-1,-1,-1,-1,-1,-1,-1],"loss_changes":[1.8666241E9,3.6376422E8,4.452009E8,4.4688256E7,3.564775E7,1.5765408E8,6.787392E7,1.1160192E7,8.541856E6,1.92582E7,1.1794126E7,3.1463576E7,5.8937664E7,2.5962816E7,1.2024384E7,2.392544E6,4.862368E6,3.577104E6,4.4947E6,9.25114E6,1.2945244E7,9.895852E6,1.0937006E7,6.9819065E6,2.2292064E7,2.630912E7,1.2800448E7,8.102992E6,7.406656E6,3.628704E6,2.73436E6,5.94448E5,1.137712E6,2.841888E6,2.798576E6,1.849648E6,1.425544E6,2.3085E6,7.2272E5,4.0584082E6,3.540052E6,5.419287E6,4.30866E6,4.812726E6,5.7459525E5,3.7143015E6,2.822909E6,3.2355708E6,3.9389E6,1.272552E7,7.775622E6,1.0823424E7,5.84096E6,1.3210692E7,2.096256E6,3.432061E6,4.11456E6,5.298528E6,2.24944E6,1.351386E6,2.44184E6,1.652112E6,1.235357E6,0E0,0E0,0E0,0E0,0E0,0E0,0E0,0E0,0E0,0E0,0E0,0E0,0E0,0E0,0E0,0E0,0E0,0E0,0E0,0E0,0E0,0E0,0E0,0E0,0E0,0E0,0E0,0E0,0E0,0E0,0E0,0E0,0E0,0E0,0E0,0E0,0E0,0E0,0E0,0E0,0E0,0E0,0E0,0E0,0E0,0E0,0E0,0E0,0E0,0E0,0E0,0E0,0E0,0E0,0E0,0E0,0E0,0E0,0E0,0E0,0E0,0E0,0E0,0E0],"parents":[2147483647,0,0,1,1,2,2,3,3,4,4,5,5,6,6,7,7,8,8,9,9,10,10,11,11,12,12,13,13,14,14,15,15,16,16,17,17,18,18,19,19,20,20,21,21,22,22,23,23,24,24,25,25,26,26,27,27,28,28,29,29,30,30,31,31,32,32,33,33,34,34,35,35,36,36,37,37,38,38,39,39,40,40,41,41,42,42,43,43,44,44,45,45,46,46,47,47,48,48,49,49,50,50,51,51,52,52,53,53,54,54,55,55,56,56,57,57,58,58,59,59,60,60,61,61,62,62],"right_children":[2,4,6,8,10,12,14,16,18,20,22,24,26,28,30,32,34,36,38,40,42,44,46,48,50,52,54,56,58,60,62,64,66,68,70,72,74,76,78,80,82,84,86,88,90,92,94,96,98,100,102,104,106,108,110,112,114,116,118,120,122,124,126,-1,-1,-1,-1,-1,-1,-1,-1,-1,-1,-1,-1,-1,-1,-1,-1,-1,-1,-1,-1,-1,-1,-1,-1,-1,-1,-1,-1,-1,-1,-1,-1,-1,-1,-1,-1,-1,-1,-1,-1,-1,-1,-1,-1,-1,-1,-1,-1,-1,-1,-1,-1,-1,-1,-1,-1,-1,-1,-1,-1,-1,-1,-1,-1],"split_conditions":[1.4219E2,9.899E1,2.3545E2,7.563E1,1.2186441E2,1.9607454E2,2.71E1,5.479E1,9.5243095E1,2.38E1,2.48E1,1.472E2,8.3E0,2.6802E2,2.832E2,4.269E1,1.58E2,1.89E2,8.6E1,1.4342E2,5.5E1,1.1E1,6.3E1,1.2950838E2,9.3E0,2.3971298E2,1.1E1,4E0,3.666E2,2.366E2,1.02E1,4.32E1,1.52E2,8.5E0,7.55E1,8.4E0,2.18E1,2.53E1,2.67E1,7.6E0,2.84E2,1E0,9.687E1,4E0,5E0,3E1,8.6E1,1.2161874E2,2.25E1,8.4E1,5E1,2.48E1,2.7304675E2,5.1E1,1.9867E2,7.6E0,8.7E1,8.7E1,2.55E2,7.8E1,1E1,5E0,1E0,-4.479038E0,-3.7986443E0,-3.811961E0,-3.2991784E0,-2.9764454E0,-3.6056862E0,-2.8528547E0,-2.1568143E0,-2.3681598E0,-2.9488866E0,-8.9511883E-1,-2.0372944E0,-2.515942E-1,-1.4133667E0,-2.9268796E0,-2.086412E0,3.1885487E-1,-9.4623965E-1,2.6304352E0,6.9852513E-1,-1.0100887E0,-1.10087514E-1,-2.053356E0,-1.2065471E0,2.1920466E0,8.705042E-1,-9.943885E-1,-2.8243406E0,1.0801957E0,1.93817E-1,-5.047548E-1,-1.8086138E0,-6.848863E-1,4.2907402E-1,2.0767775E0,6.096552E-1,2.3186493E0,-1.876925E-1,1.1770861E0,-3.3406854E-1,4.5607924E0,3.0905988E0,5.0744147E0,6.702742E0,2.3220286E0,2.252378E-1,2.997133E0,5.1338925E0,6.313988E0,2.1741908E0,7.1120453E0,3.4837189E0,8.763599E0,5.429714E0,8.816579E0,1.1037834E1,2.8618543E0,-1.6822379E0,3.2980106E0,5.307134E0,6.255221E0,8.454052E0,6.9311266E0,3.6197948E0],"split_indices":[5,6,6,6,0,0,10,6,0,10,10,3,12,6,0,6,13,13,15,6,15,12,15,0,12,3,23,23,0,3,12,0,13,12,0,12,10,10,14,12,13,27,5,25,25,15,15,4,10,15,15,10,0,15,6,12,15,15,13,15,23,25,25,0,0,0,0,0,0,0,0,0,0,0,0,0,0,0,0,0,0,0,0,0,0,0,0,0,0,0,0,0,0,0,0,0,0,0,0,0,0,0,0,0,0,0,0,0,0,0,0,0,0,0,0,0,0,0,0,0,0,0,0,0,0,0,0],"split_type":[0,0,0,0,0,0,0,0,0,0,0,0,0,0,0,0,0,0,0,0,0,0,0,0,0,0,0,0,0,0,0,0,0,0,0,0,0,0,0,0,0,0,0,0,0,0,0,0,0,0,0,0,0,0,0,0,0,0,0,0,0,0,0,0,0,0,0,0,0,0,0,0,0,0,0,0,0,0,0,0,0,0,0,0,0,0,0,0,0,0,0,0,0,0,0,0,0,0,0,0,0,0,0,0,0,0,0,0,0,0,0,0,0,0,0,0,0,0,0,0,0,0,0,0,0,0,0],"sum_hessian":[1.017818E6,6.41768E5,3.7605E5,3.62718E5,2.7905E5,3.17408E5,5.8642E4,2.01614E5,1.61104E5,1.72587E5,1.06463E5,2.02615E5,1.14793E5,3.9106E4,1.9536E4,5.9293E4,1.42321E5,1.11396E5,4.9708E4,3.611E4,1.36477E5,3.114E4,7.5323E4,7.4419E4,1.28196E5,7.2525E4,4.2268E4,1.5668E4,2.3438E4,1.3171E4,6.365E3,1.5798E4,4.3495E4,7.7762E4,6.4559E4,6.5791E4,4.5605E4,3.906E4,1.0648E4,2.6619E4,9.491E3,6.7856E4,6.8621E4,2.7669E4,3.471E3,5.2831E4,2.2492E4,2.7121E4,4.7298E4,8.5538E4,4.2658E4,5.0366E4,2.2159E4,3.7159E4,5.109E3,2.208E3,1.346E4,1.704E4,6.398E3,7.024E3,6.147E3,4.766E3,1.599E3,1.1225E4,4.573E3,2.2378E4,2.1117E4,4.9577E4,2.8185E4,4.2709E4,2.185E4,4.6267E4,1.9524E4,2.921E3,4.2684E4,4.888E3,3.4172E4,4.311E3,6.337E3,1.6209E4,1.041E4,4.635E3,4.856E3,2.9909E4,3.7947E4,2.2217E4,4.6404E4,1.4701E4,1.2968E4,2.97E3,5.01E2,1.7849E4,3.4982E4,1.7E4,5.492E3,1.6227E4,1.0894E4,5.131E3,4.2167E4,8.0132E4,5.406E3,3.0911E4,1.1747E4,2.3348E4,2.7018E4,1.1746E4,1.0413E4,2.6707E4,1.0452E4,1.753E3,3.356E3,7.68E2,1.44E3,1.2624E4,8.36E2,1.5744E4,1.296E3,1.525E3,4.873E3,6.857E3,1.67E2,2.722E3,3.425E3,3.634E3,1.132E3,3.67E2,1.232E3],"tree_param":{"num_deleted":"0","num_feature":"30","num_nodes":"127","size_leaf_vector":"1"}},{"base_weights":[-1.3228883E-2,-3.587009E1,4.622012E1,-5.3401096E1,-1.2720286E1,2.6521242E1,1.01938934E2,-6.160392E1,-4.262352E1,-2.33821E1,-2.7182398E0,1.4306912E1,4.742829E1,8.303069E1,1.6047928E2,-7.001983E1,-5.5234802E1,-4.024443E1,-6.060272E1,-3.1776133E1,-1.4818375E1,-9.8041525E0,7.8699923E0,3.4506881E0,2.8277449E1,3.9832703E1,9.871856E1,9.535808E1,3.809567E1,1.4302536E2,1.8326164E2,-8.237644E1,-6.7117584E1,-5.273492E1,-6.43248E1,-4.597851E1,-3.3229717E1,-6.8908775E1,-5.501114E1,-2.9790888E1,-4.9218292E1,-1.1078223E1,-3.768951E1,-1.7168173E1,5.55625E0,2.091096E1,-1.0804214E1,1.0298259E1,-7.6429825E0,3.9343765E1,9.748661E0,5.4485813E1,2.3790138E1,1.3166904E2,7.4679344E1,7.713406E1,1.1458336E2,2.9491117E1,9.2127914E1,1.09222824E2,1.5610246E2,1.5744714E2,1.9610881E2,-4.374259E0,-3.8592794E0,-3.2793224E0,-3.9877052E0,-2.7850826E0,-2.3686678E0,-2.9483297E0,-3.6170316E0,-2.4577603E0,-1.9818573E0,-1.855563E0,-1.1395346E0,-3.0475981E0,-3.9245625E0,-3.1232526E0,-2.4595501E0,-1.6458219E0,-7.3198956E-1,-2.2607439E0,-2.9963002E0,-3.6940727E-1,-1.265149E0,-1.4311169E0,-2.3552618E0,-1.7076276E-1,-1.2678287E0,1.1892041E0,-2.0010006E-1,1.7353808E0,2.1667318E-1,-1.1566118E0,-7.2785564E-2,6.395252E-1,-1.2389034E0,-1.4129306E-1,-1.2484359E0,2.1010947E0,-8.844164E-1,8.7242806E-1,-6.84924E-1,1.9597092E0,3.4954007E0,1.4874067E0,-3.3885157E-1,4.762979E0,7.873784E0,2.789528E0,4.687239E0,4.0565505E0,8.6788666E-1,5.2107825E0,6.696467E0,2.1077895E0,-1.0227143E-1,3.3799865E0,5.5479336E0,5.8230205E0,2.8190973E0,8.107457E0,4.9554157E0,8.51331E0,6.5875025E0,9.110666E0,1.0734692E1],"categories":[],"categories_nodes":[],"categories_segments":[],"categories_sizes":[],"default_left":[0,0,1,0,1,1,1,0,0,1,0,1,0,0,0,0,0,0,0,0,0,0,0,0,0,0,0,1,0,0,0,0,0,0,0,0,1,0,0,0,0,0,0,0,0,0,0,0,0,0,0,0,0,0,0,0,0,0,0,0,0,0,0,0,0,0,0,0,0,0,0,0,0,0,0,0,0,0,0,0,0,0,0,0,0,0,0,0,0,0,0,0,0,0,0,0,0,0,0,0,0,0,0,0,0,0,0,0,0,0,0,0,0,0,0,0,0,0,0,0,0,0,0,0,0,0,0],"id":3,"left_children":[1,3,5,7,9,11,13,15,17,19,21,23,25,27,29,31,33,35,37,39,41,43,45,47,49,51,53,55,57,59,61,63,65,67,69,71,73,75,77,79,81,83,85,87,89,91,93,95,97,99,101,103,105,107,109,111,113,115,117,119,121,123,125,-1,-1,-1,-1,-1,-1,-1,-1,-1,-1,-1,-1,-1,-1,-1,-1,-1,-1,-1,-1,-1,-1,-1,-1,-1,-1,-1,-1,-1,-1,-1,-1,-1,-1,-1,-1,-1,-1,-1,-1,-1,-1,-1,-1,-1,-1,-1,-1,-1,-1,-1,-1,-1,-1,-1,-1,-1,-1,-1,-1,-1,-1,-1,-1],"loss_changes":[1.6876128E9,2.326816E8,4.8805306E8,2.8841152E7,2.6348E7,8.389099E7,1.2854477E8,9.926336E6,6.028912E6,8.596372E6,9.56478E6,3.1450988E7,4.7192864E7,4.862605E7,1.1248512E7,2.85632E6,2.392992E6,5.007456E6,7.6142E5,2.0898E6,5.063639E6,8.638974E6,1.2447272E7,8.86455E6,1.8592728E7,2.4804336E7,1.2367584E7,2.4127552E7,8.784796E6,7.081632E6,4.04704E6,3.95648E5,1.245216E6,1.313072E6,9.72504E5,1.378288E6,2.268816E6,5.00348E5,4.24334E5,2.567372E6,2.61783E5,2.67058E6,7.08964E5,5.81352E6,4.3121935E6,6.882999E6,2.422145E6,6.30802E6,3.7170782E6,8.671896E6,6.12201E6,1.3003088E7,9.17445E6,6.176992E6,3.2492E6,8.44904E6,6.709696E6,6.512701E6,1.191552E6,1.707908E6,3.973664E6,1.325192E6,2.080064E6,0E0,0E0,0E0,0E0,0E0,0E0,0E0,0E0,0E0,0E0,0E0,0E0,0E0,0E0,0E0,0E0,0E0,0E0,0E0,0E0,0E0,0E0,0E0,0E0,0E0,0E0,0E0,0E0,0E0,0E0,0E0,0E0,0E0,0E0,0E0,0E0,0E0,0E0,0E0,0E0,0E0,0E0,0E0,0E0,0E0,0E0,0E0,0E0,0E0,0E0,0E0,0E0,0E0,0E0,0E0,0E0,0E0,0E0,0E0,0E0,0E0,0E0,0E0,0E0],"parents":[2147483647,0,0,1,1,2,2,3,3,4,4,5,5,6,6,7,7,8,8,9,9,10,10,11,11,12,12,13,13,14,14,15,15,16,16,17,17,18,18,19,19,20,20,21,21,22,22,23,23,24,24,25,25,26,26,27,27,28,28,29,29,30,30,31,31,32,32,33,33,34,34,35,35,36,36,37,37,38,38,39,39,40,40,41,41,42,42,43,43,44,44,45,45,46,46,47,47,48,48,49,49,50,50,51,51,52,52,53,53,54,54,55,55,56,56,57,57,58,58,59,59,60,60,61,61,62,62],"right_children":[2,4,6,8,10,12,14,16,18,20,22,24,26,28,30,32,34,36,38,40,42,44,46,48,50,52,54,56,58,60,62,64,66,68,70,72,74,76,78,80,82,84,86,88,90,92,94,96,98,100,102,104,106,108,110,112,114,116,118,120,122,124,126,-1,-1,-1,-1,-1,-1,-1,-1,-1,-1,-1,-1,-1,-1,-1,-1,-1,-1,-1,-1,-1,-1,-1,-1,-1,-1,-1,-1,-1,-1,-1,-1,-1,-1,-1,-1,-1,-1,-1,-1,-1,-1,-1,-1,-1,-1,-1,-1,-1,-1,-1,-1,-1,-1,-1,-1,-1,-1,-1,-1,-1,-1,-1,-1],"split_conditions":[1.3112E2,9.324E1,2.241E2,7.28E1,1.1472E2,1.7098E2,2.6197E2,6.04E1,9.1E1,1E2,2.05E2,1.531E2,1.1E1,9.9E0,3.406E2,4.269E1,9.5E0,8.446741E1,3E0,9.1E1,8.5E1,1.5944643E2,8.5E0,9.1E0,8.4E0,8E0,7.2E0,2.244E2,1E1,4E1,1E0,3.579E1,1.16E1,7.615E1,8E1,9E0,1.043E2,9E0,7.666E1,1E1,8E0,9.5E0,9.1E1,5.2E1,2E0,1.1E1,4E0,8.6E1,5.2E1,8.8E1,5.4E1,1.881E2,5.7E1,2.0297E2,4E0,8.1E1,3.0533514E2,5E1,4.1E1,1.13E1,3.3E2,6.2E0,3E0,-4.374259E0,-3.8592794E0,-3.2793224E0,-3.9877052E0,-2.7850826E0,-2.3686678E0,-2.9483297E0,-3.6170316E0,-2.4577603E0,-1.9818573E0,-1.855563E0,-1.1395346E0,-3.0475981E0,-3.9245625E0,-3.1232526E0,-2.4595501E0,-1.6458219E0,-7.3198956E-1,-2.2607439E0,-2.9963002E0,-3.6940727E-1,-1.265149E0,-1.4311169E0,-2.3552618E0,-1.7076276E-1,-1.2678287E0,1.1892041E0,-2.0010006E-1,1.7353808E0,2.1667318E-1,-1.1566118E0,-7.2785564E-2,6.395252E-1,-1.2389034E0,-1.4129306E-1,-1.2484359E0,2.1010947E0,-8.844164E-1,8.7242806E-1,-6.84924E-1,1.9597092E0,3.4954007E0,1.4874067E0,-3.3885157E-1,4.762979E0,7.873784E0,2.789528E0,4.687239E0,4.0565505E0,8.6788666E-1,5.2107825E0,6.696467E0,2.1077895E0,-1.0227143E-1,3.3799865E0,5.5479336E0,5.8230205E0,2.8190973E0,8.107457E0,4.9554157E0,8.51331E0,6.5875025E0,9.110666E0,1.0734692E1],"split_indices":[5,6,0,0,6,6,6,6,15,0,9,0,23,12,0,6,12,3,25,15,15,4,12,12,12,12,8,5,23,11,26,6,12,6,15,23,0,12,6,23,12,12,15,15,25,24,23,15,15,15,15,3,15,6,25,15,0,15,11,8,9,12,25,0,0,0,0,0,0,0,0,0,0,0,0,0,0,0,0,0,0,0,0,0,0,0,0,0,0,0,0,0,0,0,0,0,0,0,0,0,0,0,0,0,0,0,0,0,0,0,0,0,0,0,0,0,0,0,0,0,0,0,0,0,0,0,0],"split_type":[0,0,0,0,0,0,0,0,0,0,0,0,0,0,0,0,0,0,0,0,0,0,0,0,0,0,0,0,0,0,0,0,0,0,0,0,0,0,0,0,0,0,0,0,0,0,0,0,0,0,0,0,0,0,0,0,0,0,0,0,0,0,0,0,0,0,0,0,0,0,0,0,0,0,0,0,0,0,0,0,0,0,0,0,0,0,0,0,0,0,0,0,0,0,0,0,0,0,0,0,0,0,0,0,0,0,0,0,0,0,0,0,0,0,0,0,0,0,0,0,0,0,0,0,0,0,0],"sum_hessian":[1.017992E6,5.73335E5,4.44657E5,3.26261E5,2.47074E5,3.28515E5,1.16142E5,1.85257E5,1.41004E5,1.19592E5,1.27482E5,2.07368E5,1.21147E5,8.7789E4,2.8353E4,7.9801E4,1.05456E5,1.24529E5,1.6475E4,6.0393E4,5.9199E4,7.6372E4,5.111E4,1.16691E5,9.0677E4,1.05522E5,1.5625E4,6.8889E4,1.89E4,1.6058E4,1.2295E4,1.5173E4,6.4628E4,8.2715E4,2.2741E4,6.8516E4,5.6013E4,6.624E3,9.851E3,5.4224E4,6.169E3,5.088E4,8.319E3,5.1623E4,2.4749E4,3.0094E4,2.1016E4,7.2154E4,4.4537E4,5.677E4,3.3907E4,5.5148E4,5.0374E4,6.589E3,9.036E3,3.5368E4,3.3521E4,1.6305E4,2.595E3,4.482E3,1.1576E4,4.09E3,8.205E3,7.639E3,7.534E3,5.7649E4,6.979E3,5.3244E4,2.9471E4,1.3635E4,9.106E3,4.5644E4,2.2872E4,4.0829E4,1.5184E4,3.623E3,3.001E3,4.315E3,5.536E3,4.495E4,9.274E3,4.494E3,1.675E3,4.0401E4,1.0479E4,4.24E3,4.079E3,1.9266E4,3.2357E4,8.513E3,1.6236E4,1.6424E4,1.367E4,9.063E3,1.1953E4,6.7368E4,4.786E3,3.4849E4,9.688E3,5.4224E4,2.546E3,2.5525E4,8.382E3,2.7693E4,2.7455E4,4.2157E4,8.217E3,2.735E3,3.854E3,4.541E3,4.495E3,3.3151E4,2.217E3,2.1829E4,1.1692E4,1.1633E4,4.672E3,1.129E3,1.466E3,3.941E3,5.41E2,1.0464E4,1.112E3,2.725E3,1.365E3,4.701E3,3.504E3],"tree_param":{"num_deleted":"0","num_feature":"30","num_nodes":"127","size_leaf_vector":"1"}},{"base_weights":[-5.2456323E-2,-3.3673492E1,4.4251247E1,-5.1099693E1,-1.2057306E1,2.5976124E1,9.961534E1,-6.1732803E1,-4.3780716E1,-2.2379436E1,3.9877188E0,1.1661692E1,4.326253E1,6.777392E1,1.304919E2,-6.907486E1,-5.631934E1,-4.864616E1,-3.5996075E1,-8.8002974E-1,-2.4876247E1,2.248179E1,-3.3009825E0,7.9880457E0,4.332316E1,5.0370403E1,1.5958772E1,8.822914E1,3.6633987E1,1.06995575E2,1.5965233E2,-7.975723E1,-6.574692E1,-6.1345512E1,-5.0250725E1,-5.2793015E1,-4.3639133E1,-4.2137314E1,-2.8720623E1,4.102305E0,-3.2229507E1,-3.355996E1,-1.8739836E1,1.5304654E1,6.018547E1,-4.1455025E1,-1.0000676E0,1.45131855E1,-3.0760818E0,3.4357296E1,1.0426187E2,6.4739525E1,3.5696983E1,2.8843859E1,4.2801075E0,1.0360437E2,3.9929676E1,6.1951622E1,2.3964563E1,9.527553E1,1.31931E2,1.8733281E2,1.475847E2,-4.1931434E0,-3.740432E0,-3.1530173E0,-3.7226713E0,-2.8546205E0,-3.4341316E0,-2.6825504E0,-2.1058385E0,-2.4147296E0,-2.9575374E0,-1.3415184E0,-2.2193785E0,-1.8830813E0,-2.7142482E0,-1.5948623E0,-8.8266516E-1,-7.9574746E-1,5.720558E-1,-9.94308E-1,-2.212027E0,-1.9614174E0,-1.3141962E0,-1.2243862E0,-6.7481375E-1,1.1104835E0,-9.439479E-1,2.7666824E0,7.248816E0,-2.8587554E0,-9.691278E-1,-5.582746E-1,2.1267377E-1,1.1887676E0,-2.32763E-2,-5.1274157E-1,5.906667E-1,1.1834161E0,3.104803E0,7.832699E0,3.3464806E0,2.8670835E0,5.6137767E0,1.237527E0,2.2042449E0,3.274939E0,1.2859758E0,-7.106063E-2,2.3872736E0,4.228611E0,5.890143E0,9.908196E-1,2.7158577E0,5.6218543E0,2.793702E0,1.9910964E0,-1.1582412E-1,5.124145E0,3.459256E0,6.1533046E0,7.8517113E0,8.4877615E0,1.0314392E1,6.912212E0,8.646874E0],"categories":[],"categories_nodes":[],"categories_segments":[],"categories_sizes":[],"default_left":[1,0,1,0,1,0,0,0,1,0,0,0,0,0,0,0,0,0,0,0,0,0,0,0,0,0,0,0,0,1,0,0,0,0,0,0,0,0,1,0,0,0,0,0,1,0,0,0,0,0,0,0,0,0,0,0,0,0,0,0,0,0,0,0,0,0,0,0,0,0,0,0,0,0,0,0,0,0,0,0,0,0,0,0,0,0,0,0,0,0,0,0,0,0,0,0,0,0,0,0,0,0,0,0,0,0,0,0,0,0,0,0,0,0,0,0,0,0,0,0,0,0,0,0,0,0,0],"id":4,"left_children":[1,3,5,7,9,11,13,15,17,19,21,23,25,27,29,31,33,35,37,39,41,43,45,47,49,51,53,55,57,59,61,63,65,67,69,71,73,75,77,79,81,83,85,87,89,91,93,95,97,99,101,103,105,107,109,111,113,115,117,119,121,123,125,-1,-1,-1,-1,-1,-1,-1,-1,-1,-1,-1,-1,-1,-1,-1,-1,-1,-1,-1,-1,-1,-1,-1,-1,-1,-1,-1,-1,-1,-1,-1,-1,-1,-1,-1,-1,-1,-1,-1,-1,-1,-1,-1,-1,-1,-1,-1,-1,-1,-1,-1,-1,-1,-1,-1,-1,-1,-1,-1,-1,-1,-1,-1,-1],"loss_changes":[1.5174652E9,2.1817894E8,4.447227E8,2.4953856E7,4.2816532E7,8.177118E7,1.0723558E8,5.192448E6,7.192608E6,8.444808E6,1.3642551E7,2.1025908E7,2.9050176E7,3.4204816E7,3.792659E7,1.967104E6,2.292416E6,2.42464E6,3.263136E6,2.5570212E6,7.510096E6,7.741341E6,6.373192E6,1.1694189E7,1.0264856E7,2.5040064E7,4.652888E6,2.406552E7,6.828454E6,8.950848E6,8.226112E6,2.61384E5,9.84928E5,1.280512E6,9.40848E5,1.82552E6,6.65024E5,2.15184E6,1.175254E6,2.0753316E6,3.3195575E5,2.405932E6,2.488882E6,5.674074E6,1.874087E6,1.4315765E6,3.6565998E6,1.4135748E7,6.423091E6,4.856666E6,4.70327E6,2.1095872E7,5.394672E6,1.681912E6,4.0197928E6,6.6336E6,2.264185E6,2.172514E6,5.9149975E6,3.917008E6,2.162432E6,2.463184E6,4.052E6,0E0,0E0,0E0,0E0,0E0,0E0,0E0,0E0,0E0,0E0,0E0,0E0,0E0,0E0,0E0,0E0,0E0,0E0,0E0,0E0,0E0,0E0,0E0,0E0,0E0,0E0,0E0,0E0,0E0,0E0,0E0,0E0,0E0,0E0,0E0,0E0,0E0,0E0,0E0,0E0,0E0,0E0,0E0,0E0,0E0,0E0,0E0,0E0,0E0,0E0,0E0,0E0,0E0,0E0,0E0,0E0,0E0,0E0,0E0,0E0,0E0,0E0,0E0,0E0],"parents":[2147483647,0,0,1,1,2,2,3,3,4,4,5,5,6,6,7,7,8,8,9,9,10,10,11,11,12,12,13,13,14,14,15,15,16,16,17,17,18,18,19,19,20,20,21,21,22,22,23,23,24,24,25,25,26,26,27,27,28,28,29,29,30,30,31,31,32,32,33,33,34,34,35,35,36,36,37,37,38,38,39,39,40,40,41,41,42,42,43,43,44,44,45,45,46,46,47,47,48,48,49,49,50,50,51,51,52,52,53,53,54,54,55,55,56,56,57,57,58,58,59,59,60,60,61,61,62,62],"right_children":[2,4,6,8,10,12,14,16,18,20,22,24,26,28,30,32,34,36,38,40,42,44,46,48,50,52,54,56,58,60,62,64,66,68,70,72,74,76,78,80,82,84,86,88,90,92,94,96,98,100,102,104,106,108,110,112,114,116,118,120,122,124,126,-1,-1,-1,-1,-1,-1,-1,-1,-1,-1,-1,-1,-1,-1,-1,-1,-1,-1,-1,-1,-1,-1,-1,-1,-1,-1,-1,-1,-1,-1,-1,-1,-1,-1,-1,-1,-1,-1,-1,-1,-1,-1,-1,-1,-1,-1,-1,-1,-1,-1,-1,-1,-1,-1,-1,-1,-1,-1,-1,-1,-1,-1,-1,-1],"split_conditions":[1.3296E2,9.196E1,2.267E2,6.618E1,1.192E2,1.5695996E2,1E1,5.15E1,8.3E1,2.18E1,2.48E1,1.9867E2,1.06E1,8.9E0,3.0533514E2,4.269E1,1.86E2,1.53E2,1.86E2,9.5E0,9.12E1,1.927E2,2.37E1,9.1E0,1.1E1,2.74E1,3E1,5E0,2.5E1,2.6853403E2,1.97E1,3.579E1,9.5E0,8.5E0,6.776067E1,7.7E0,2.18E1,8.7E0,9.6847466E1,1.27E2,2.84E2,1.8E2,1.0937E2,9.4E0,2.8216635E2,2E0,1.127E2,3.04E1,3.38E1,2.6853403E2,9E0,2.2053E2,1.62E2,6.8E1,1E1,2.640397E2,2E0,7.3E1,5E0,2.77E1,2.8164E2,3.814E2,3.0277E2,-4.1931434E0,-3.740432E0,-3.1530173E0,-3.7226713E0,-2.8546205E0,-3.4341316E0,-2.6825504E0,-2.1058385E0,-2.4147296E0,-2.9575374E0,-1.3415184E0,-2.2193785E0,-1.8830813E0,-2.7142482E0,-1.5948623E0,-8.8266516E-1,-7.9574746E-1,5.720558E-1,-9.94308E-1,-2.212027E0,-1.9614174E0,-1.3141962E0,-1.2243862E0,-6.7481375E-1,1.1104835E0,-9.439479E-1,2.7666824E0,7.248816E0,-2.8587554E0,-9.691278E-1,-5.582746E-1,2.1267377E-1,1.1887676E0,-2.32763E-2,-5.1274157E-1,5.906667E-1,1.1834161E0,3.104803E0,7.832699E0,3.3464806E0,2.8670835E0,5.6137767E0,1.237527E0,2.2042449E0,3.274939E0,1.2859758E0,-7.106063E-2,2.3872736E0,4.228611E0,5.890143E0,9.908196E-1,2.7158577E0,5.6218543E0,2.793702E0,1.9910964E0,-1.1582412E-1,5.124145E0,3.459256E0,6.1533046E0,7.8517113E0,8.4877615E0,1.0314392E1,6.912212E0,8.646874E0],"split_indices":[6,6,0,6,0,0,23,0,0,10,10,6,12,12,0,6,13,13,13,12,0,0,14,12,23,10,11,23,11,4,14,6,12,12,4,12,10,12,4,9,13,13,6,12,1,25,6,10,14,4,12,6,13,13,23,0,25,13,25,10,6,7,6,0,0,0,0,0,0,0,0,0,0,0,0,0,0,0,0,0,0,0,0,0,0,0,0,0,0,0,0,0,0,0,0,0,0,0,0,0,0,0,0,0,0,0,0,0,0,0,0,0,0,0,0,0,0,0,0,0,0,0,0,0,0,0,0],"split_type":[0,0,0,0,0,0,0,0,0,0,0,0,0,0,0,0,0,0,0,0,0,0,0,0,0,0,0,0,0,0,0,0,0,0,0,0,0,0,0,0,0,0,0,0,0,0,0,0,0,0,0,0,0,0,0,0,0,0,0,0,0,0,0,0,0,0,0,0,0,0,0,0,0,0,0,0,0,0,0,0,0,0,0,0,0,0,0,0,0,0,0,0,0,0,0,0,0,0,0,0,0,0,0,0,0,0,0,0,0,0,0,0,0,0,0,0,0,0,0,0,0,0,0,0,0,0,0],"sum_hessian":[1.018748E6,5.79204E5,4.39544E5,3.20681E5,2.58523E5,3.30463E5,1.09081E5,1.30737E5,1.89944E5,1.57317E5,1.01206E5,1.80772E5,1.49691E5,5.3703E4,5.5378E4,5.548E4,7.5257E4,1.16885E5,7.3059E4,1.6369E4,1.40948E5,2.861E4,7.2596E4,1.61979E5,1.8793E4,1.18771E5,3.092E4,3.2411E4,2.1292E4,3.067E4,2.4708E4,1.3173E4,4.2307E4,4.1159E4,3.4098E4,6.3929E4,5.2956E4,3.9615E4,3.3444E4,1.4125E4,2.244E3,5.8359E4,8.2589E4,2.4036E4,4.574E3,4.128E3,6.8468E4,1.01889E5,6.009E4,1.6384E4,2.409E3,6.0006E4,5.8765E4,1.47E4,1.622E4,2.4584E4,7.827E3,7.1E3,1.4192E4,2.0867E4,9.803E3,7.497E3,1.7211E4,7.191E3,5.982E3,3.2337E4,9.97E3,2.6061E4,1.5098E4,2.4042E4,1.0056E4,3.7444E4,2.6485E4,2.259E3,5.0697E4,2.8952E4,1.0663E4,2.5984E4,7.46E3,3.789E3,1.0336E4,1.108E3,1.136E3,3.2801E4,2.5558E4,3.9398E4,4.3191E4,1.9997E4,4.039E3,4.328E3,2.46E2,2.41E3,1.718E3,2.3328E4,4.514E4,6.2958E4,3.8931E4,4.0543E4,1.9547E4,1.1828E4,4.556E3,1.001E3,1.408E3,5.1927E4,8.079E3,2.5496E4,3.3269E4,1.153E3,1.3547E4,1.434E4,1.88E3,1.0507E4,1.4077E4,3.265E3,4.562E3,7.61E2,6.339E3,8.851E3,5.341E3,1.6348E4,4.519E3,7.249E3,2.554E3,3.895E3,3.602E3,1.2582E4,4.629E3],"tree_param":{"num_deleted":"0","num_feature":"30","num_nodes":"127","size_leaf_vector":"1"}},{"base_weights":[-4.7565553E-2,-2.7303793E1,4.974238E1,-4.6103104E1,-4.1628947E0,3.708126E1,1.2076416E2,-5.6748478E1,-3.7497894E1,1.3635024E1,-9.487032E0,2.4550777E1,6.1503975E1,1.4083405E2,7.783788E1,-6.569011E1,-5.2590923E1,-4.2404305E1,-2.9754953E1,2.1712255E1,-8.47392E0,-6.465543E-1,-2.1837425E1,4.3992092E1,1.6597082E1,8.198345E1,3.8777084E1,1.1996392E2,1.6292618E2,5.875914E1,9.880955E1,-7.565342E1,-6.269079E1,-5.033777E1,-6.4048294E1,-4.037472E1,-5.3940933E1,-2.7131771E1,-4.9241875E1,1.0540367E1,4.0047535E1,-1.7524803E1,3.0509243E1,-1.1891125E1,6.4099803E0,-2.7546215E1,-9.50086E0,4.9593987E1,-2.508028E0,2.2361275E1,-3.878005E0,7.0103294E1,1.0640352E2,3.3323956E1,7.7807915E1,6.385316E1,1.2638989E2,1.4747606E2,1.7726566E2,7.304522E1,4.1974915E1,1.154758E2,6.9327354E1,-3.8150604E0,-1.3663212E0,-3.3876598E0,-2.9052455E0,-2.6305397E0,-1.960529E0,-3.0466337E0,-3.7629833E0,-1.0133895E0,-2.07283E0,-2.7485042E0,-1.0796317E0,-4.1748762E-1,-1.4617282E0,-2.1273882E0,-2.9015958E0,1.0122502E0,-5.9154626E-2,2.7295995E0,1.256071E0,-4.725078E-1,-1.5846077E0,1.8071269E0,-3.245807E-1,-2.4643159E-1,-1.1294448E0,8.372845E-1,6.261053E-2,-1.1164006E0,-1.8785123E0,-1.517381E-1,-2.258817E0,1.9629548E0,3.514529E0,-4.553156E-1,2.9543638E0,4.471229E-1,1.5770069E0,1.7822562E-1,-1.0178164E0,3.6273625E0,-6.501142E-1,4.865958E0,6.4396286E0,2.2333872E0,4.2709547E-1,2.5292127E0,4.517816E0,5.510033E0,1.8635021E0,6.54105E0,2.9696121E0,7.612301E0,4.3191004E0,8.959388E0,3.0327685E0,4.6516895E0,2.5808983E0,2.4700763E0,-7.098888E-1,6.6991267E0,4.8864417E0,4.2708526E0,2.3169029E0],"categories":[],"categories_nodes":[],"categories_segments":[],"categories_sizes":[],"default_left":[1,0,1,0,0,1,0,0,0,0,0,0,0,0,0,0,0,0,0,1,0,0,0,0,0,0,0,0,0,0,0,1,0,1,0,0,0,0,0,0,0,0,0,0,0,0,0,0,0,0,0,0,1,0,0,0,0,0,0,0,0,0,0,0,0,0,0,0,0,0,0,0,0,0,0,0,0,0,0,0,0,0,0,0,0,0,0,0,0,0,0,0,0,0,0,0,0,0,0,0,0,0,0,0,0,0,0,0,0,0,0,0,0,0,0,0,0,0,0,0,0,0,0,0,0,0,0],"id":5,"left_children":[1,3,5,7,9,11,13,15,17,19,21,23,25,27,29,31,33,35,37,39,41,43,45,47,49,51,53,55,57,59,61,63,65,67,69,71,73,75,77,79,81,83,85,87,89,91,93,95,97,99,101,103,105,107,109,111,113,115,117,119,121,123,125,-1,-1,-1,-1,-1,-1,-1,-1,-1,-1,-1,-1,-1,-1,-1,-1,-1,-1,-1,-1,-1,-1,-1,-1,-1,-1,-1,-1,-1,-1,-1,-1,-1,-1,-1,-1,-1,-1,-1,-1,-1,-1,-1,-1,-1,-1,-1,-1,-1,-1,-1,-1,-1,-1,-1,-1,-1,-1,-1,-1,-1,-1,-1,-1],"loss_changes":[1.380698E9,2.8602483E8,3.2364102E8,3.3229696E7,2.7926422E7,9.347974E7,4.690336E7,6.024896E6,7.619968E6,1.2118739E7,2.4768232E7,3.1217112E7,4.8206624E7,1.7088256E7,6.936552E6,1.533168E6,2.854432E6,2.87304E6,3.97644E6,1.0180724E7,6.4076115E6,1.0490873E7,6.664796E6,1.5268416E7,1.6909624E7,1.5798816E7,1.0447432E7,6.872992E6,3.96656E6,2.176062E6,4.052576E6,3.70544E5,9.14528E5,2.33776E6,6.30736E5,2.270816E6,6.10304E5,2.70854E6,5.40698E5,3.5139835E6,4.083872E6,1.685674E6,7.1350525E5,3.796965E6,4.330553E6,3.383344E6,6.9066875E6,1.1186624E7,2.562224E6,1.3770064E7,3.8601735E6,7.445824E6,3.613712E6,1.2110648E7,2.05126E6,2.414428E6,5.075264E6,2.51664E6,2.08304E6,2.097294E6,1.7449E6,1.720408E6,1.100904E6,0E0,0E0,0E0,0E0,0E0,0E0,0E0,0E0,0E0,0E0,0E0,0E0,0E0,0E0,0E0,0E0,0E0,0E0,0E0,0E0,0E0,0E0,0E0,0E0,0E0,0E0,0E0,0E0,0E0,0E0,0E0,0E0,0E0,0E0,0E0,0E0,0E0,0E0,0E0,0E0,0E0,0E0,0E0,0E0,0E0,0E0,0E0,0E0,0E0,0E0,0E0,0E0,0E0,0E0,0E0,0E0,0E0,0E0,0E0,0E0,0E0,0E0,0E0,0E0],"parents":[2147483647,0,0,1,1,2,2,3,3,4,4,5,5,6,6,7,7,8,8,9,9,10,10,11,11,12,12,13,13,14,14,15,15,16,16,17,17,18,18,19,19,20,20,21,21,22,22,23,23,24,24,25,25,26,26,27,27,28,28,29,29,30,30,31,31,32,32,33,33,34,34,35,35,36,36,37,37,38,38,39,39,40,40,41,41,42,42,43,43,44,44,45,45,46,46,47,47,48,48,49,49,50,50,51,51,52,52,53,53,54,54,55,55,56,56,57,57,58,58,59,59,60,60,61,61,62,62],"right_children":[2,4,6,8,10,12,14,16,18,20,22,24,26,28,30,32,34,36,38,40,42,44,46,48,50,52,54,56,58,60,62,64,66,68,70,72,74,76,78,80,82,84,86,88,90,92,94,96,98,100,102,104,106,108,110,112,114,116,118,120,122,124,126,-1,-1,-1,-1,-1,-1,-1,-1,-1,-1,-1,-1,-1,-1,-1,-1,-1,-1,-1,-1,-1,-1,-1,-1,-1,-1,-1,-1,-1,-1,-1,-1,-1,-1,-1,-1,-1,-1,-1,-1,-1,-1,-1,-1,-1,-1,-1,-1,-1,-1,-1,-1,-1,-1,-1,-1,-1,-1,-1,-1,-1,-1,-1,-1],"split_conditions":[1.4517E2,9.899E1,2.3903E2,7.04E1,2.39E1,1.964E2,2.71E1,5.31E1,8.811E1,8.5E0,5.8E1,2.62E1,7.6E0,2.8164E2,2.58019E2,3.978E1,9.1E1,9.1E1,9E1,1.3606E2,4E0,1.1256728E2,9E0,1.06E1,5.1E1,2.244E2,1.1E1,4E0,3.0277E2,3.06E1,9.3E0,6.328E1,1.38E2,7.75E1,1.02E1,2.37E1,1.31E1,2.57E1,7.9E0,2.81E2,2.78E2,1.14E1,3.17E2,9.4E0,3E1,3.11E1,8.6E1,1.8055E2,1E1,1.3973843E2,9.1E0,9.1E1,2.733E2,5.2E1,1.9867E2,7.6E0,8.7E1,8.7E1,1.12E1,2.92E2,5E1,2.92E1,9.7E0,-3.8150604E0,-1.3663212E0,-3.3876598E0,-2.9052455E0,-2.6305397E0,-1.960529E0,-3.0466337E0,-3.7629833E0,-1.0133895E0,-2.07283E0,-2.7485042E0,-1.0796317E0,-4.1748762E-1,-1.4617282E0,-2.1273882E0,-2.9015958E0,1.0122502E0,-5.9154626E-2,2.7295995E0,1.256071E0,-4.725078E-1,-1.5846077E0,1.8071269E0,-3.245807E-1,-2.4643159E-1,-1.1294448E0,8.372845E-1,6.261053E-2,-1.1164006E0,-1.8785123E0,-1.517381E-1,-2.258817E0,1.9629548E0,3.514529E0,-4.553156E-1,2.9543638E0,4.471229E-1,1.5770069E0,1.7822562E-1,-1.0178164E0,3.6273625E0,-6.501142E-1,4.865958E0,6.4396286E0,2.2333872E0,4.2709547E-1,2.5292127E0,4.517816E0,5.510033E0,1.8635021E0,6.54105E0,2.9696121E0,7.612301E0,4.3191004E0,8.959388E0,3.0327685E0,4.6516895E0,2.5808983E0,2.4700763E0,-7.098888E-1,6.6991267E0,4.8864417E0,4.2708526E0,2.3169029E0],"split_indices":[5,6,6,6,10,3,10,6,5,12,15,10,12,6,3,6,15,15,15,6,23,3,23,12,15,5,23,23,6,10,12,5,13,3,12,10,8,10,12,13,13,12,13,12,15,10,15,5,23,4,12,15,4,15,6,12,15,15,12,13,15,10,8,0,0,0,0,0,0,0,0,0,0,0,0,0,0,0,0,0,0,0,0,0,0,0,0,0,0,0,0,0,0,0,0,0,0,0,0,0,0,0,0,0,0,0,0,0,0,0,0,0,0,0,0,0,0,0,0,0,0,0,0,0,0,0,0],"split_type":[0,0,0,0,0,0,0,0,0,0,0,0,0,0,0,0,0,0,0,0,0,0,0,0,0,0,0,0,0,0,0,0,0,0,0,0,0,0,0,0,0,0,0,0,0,0,0,0,0,0,0,0,0,0,0,0,0,0,0,0,0,0,0,0,0,0,0,0,0,0,0,0,0,0,0,0,0,0,0,0,0,0,0,0,0,0,0,0,0,0,0,0,0,0,0,0,0,0,0,0,0,0,0,0,0,0,0,0,0,0,0,0,0,0,0,0,0,0,0,0,0,0,0,0,0,0,0],"sum_hessian":[1.017397E6,6.57478E5,3.59919E5,3.62769E5,2.94709E5,3.05465E5,5.4454E4,1.62159E5,2.0061E5,6.786E4,2.26849E5,2.01886E5,1.03579E5,3.7104E4,1.735E4,5.1463E4,1.10696E5,1.22795E5,7.7815E4,4.9702E4,1.8158E4,1.32212E5,9.4637E4,5.8613E4,1.43273E5,5.4482E4,4.9097E4,1.9083E4,1.8021E4,9.087E3,8.263E3,1.1902E4,3.9561E4,9.2509E4,1.8187E4,1.04428E5,1.8367E4,6.8585E4,9.23E3,3.0885E4,1.8817E4,1.4737E4,3.421E3,5.0978E4,8.1234E4,6.4697E4,2.994E4,5.2311E4,6.302E3,1.11799E5,3.1474E4,3.6654E4,1.7828E4,4.308E4,6.017E3,1.962E3,1.7121E4,8.68E3,9.341E3,4.907E3,4.18E3,5.277E3,2.986E3,1.1744E4,1.58E2,1.8797E4,2.0764E4,7.6814E4,1.5695E4,1.4237E4,3.95E3,5.333E3,9.9095E4,1.78E4,5.67E2,6.906E3,6.1679E4,5.243E3,3.987E3,1.6897E4,1.3988E4,9.529E3,9.288E3,9.388E3,5.349E3,2.969E3,4.52E2,3.0881E4,2.0097E4,2.7042E4,5.4192E4,4.255E4,2.2147E4,2.5347E4,4.593E3,3.4891E4,1.742E4,5.693E3,6.09E2,4.5412E4,6.6387E4,2.1682E4,9.792E3,3.5607E4,1.047E3,1.2686E4,5.142E3,2.9552E4,1.3528E4,1.9E3,4.117E3,7.14E2,1.248E3,1.6058E4,1.063E3,8.05E3,6.3E2,9.189E3,1.52E2,2.537E3,2.37E3,3.692E3,4.88E2,2.58E3,2.697E3,1.755E3,1.231E3],"tree_param":{"num_deleted":"0","num_feature":"30","num_nodes":"127","size_leaf_vector":"1"}},{"base_weights":[-3.017854E-2,-3.2177135E1,3.8294815E1,-4.669586E1,-1.36192875E1,2.1821503E1,8.76264E1,-5.459635E1,-3.8796646E1,6.1076245E0,-1.8559752E1,9.838459E0,3.8975613E1,7.126569E1,1.3821469E2,-6.1326675E1,-4.9151802E1,-3.673287E1,-5.3777267E1,9.625296E0,-3.807227E1,-1.1114822E1,-2.8748102E1,2.0756952E1,-7.373418E-1,2.8759972E1,6.41894E1,8.239624E1,3.2544937E1,1.5198924E2,1.0239765E2,-6.977072E1,-5.8211407E1,-4.6807415E1,-5.7653355E1,-4.1565876E1,-3.0099665E1,-6.9730606E1,-5.0813374E1,3.531373E-1,2.7580038E1,-5.1049297E1,-3.2871674E1,-1.9547348E1,-1.8824681E0,-2.524901E1,-4.0695297E1,9.046916E0,3.3341736E1,4.6169214E0,-1.3041284E1,3.924227E1,1.5239842E1,5.597878E1,1.0623404E2,9.5006004E1,5.839979E1,2.4344889E1,8.0920105E1,1.579014E2,1.12339584E2,1.2815648E2,9.0493675E1,-3.7263954E0,-3.2601E0,-2.8002799E0,-3.2571735E0,-2.398928E0,-1.8343452E0,-3.2507684E0,-2.62279E0,-1.1180598E0,-2.1403213E0,-1.6688095E0,-1.0000566E0,-3.8611896E0,-3.0311193E0,-2.6202726E0,-1.7088463E0,-8.377803E-1,4.1105118E-1,4.853526E0,1.2439436E0,-2.5702548E0,1.5906848E0,-1.4685186E0,-2.4228323E0,-1.16470866E-1,-1.1552771E0,5.52967E-1,-2.5567126E-1,-1.0999082E0,-1.9918692E0,-2.2354364E0,-1.446784E0,1.0289087E0,6.348916E-2,1.8511511E0,-3.2834443E-1,-5.862116E-1,5.2461493E-1,9.777776E-3,-9.866319E-1,2.7344654E0,1.0491606E0,1.4407493E0,6.4329594E-2,3.3447387E0,1.8887333E0,4.3310995E0,7.1036096E0,4.094787E0,5.74148E0,4.5320973E0,2.1938887E0,1.8021135E0,-2.1309948E-1,5.09571E0,2.8369377E0,7.31885E0,8.88491E0,2.822454E0,6.425836E0,5.831223E0,8.049918E0,3.7632115E0,5.4355555E0],"categories":[],"categories_nodes":[],"categories_segments":[],"categories_sizes":[],"default_left":[0,0,1,0,0,1,1,0,0,0,0,0,0,0,0,0,0,0,0,1,0,1,0,1,0,0,1,0,0,0,0,0,0,0,0,0,1,0,0,0,0,0,0,0,0,0,0,0,0,0,0,0,0,0,0,1,0,0,0,0,0,0,0,0,0,0,0,0,0,0,0,0,0,0,0,0,0,0,0,0,0,0,0,0,0,0,0,0,0,0,0,0,0,0,0,0,0,0,0,0,0,0,0,0,0,0,0,0,0,0,0,0,0,0,0,0,0,0,0,0,0,0,0,0,0,0,0],"id":6,"left_children":[1,3,5,7,9,11,13,15,17,19,21,23,25,27,29,31,33,35,37,39,41,43,45,47,49,51,53,55,57,59,61,63,65,67,69,71,73,75,77,79,81,83,85,87,89,91,93,95,97,99,101,103,105,107,109,111,113,115,117,119,121,123,125,-1,-1,-1,-1,-1,-1,-1,-1,-1,-1,-1,-1,-1,-1,-1,-1,-1,-1,-1,-1,-1,-1,-1,-1,-1,-1,-1,-1,-1,-1,-1,-1,-1,-1,-1,-1,-1,-1,-1,-1,-1,-1,-1,-1,-1,-1,-1,-1,-1,-1,-1,-1,-1,-1,-1,-1,-1,-1,-1,-1,-1,-1,-1,-1],"loss_changes":[1.2539608E9,1.4913594E8,3.7730227E8,1.9378688E7,2.367922E7,7.154629E7,9.618662E7,5.686304E6,4.799136E6,7.562945E6,1.4737708E7,2.366215E7,3.6868464E7,3.7848864E7,1.3996928E7,1.822272E6,1.708064E6,4.374448E6,8.8544E5,7.503874E6,2.40537E5,8.740182E6,3.4284E6,1.4858104E7,6.857555E6,1.4436912E7,1.4242E7,2.0635904E7,7.777294E6,4.790368E6,2.408344E6,4.01704E5,7.71952E5,7.95744E5,7.06356E5,1.88016E6,1.903056E6,1.96177E5,4.18264E5,4.0014095E6,2.878861E6,3.18545E4,1.38543E5,3.594652E6,2.2410172E6,3.008396E6,8.7571E5,4.683877E6,7.13988E6,6.963856E6,2.795614E6,1.6183344E7,8.427331E6,6.859536E6,4.726376E6,1.1611936E7,1.0999688E7,5.611825E6,1.437004E6,4.045696E6,2.4023E6,9.25032E5,1.49028E6,0E0,0E0,0E0,0E0,0E0,0E0,0E0,0E0,0E0,0E0,0E0,0E0,0E0,0E0,0E0,0E0,0E0,0E0,0E0,0E0,0E0,0E0,0E0,0E0,0E0,0E0,0E0,0E0,0E0,0E0,0E0,0E0,0E0,0E0,0E0,0E0,0E0,0E0,0E0,0E0,0E0,0E0,0E0,0E0,0E0,0E0,0E0,0E0,0E0,0E0,0E0,0E0,0E0,0E0,0E0,0E0,0E0,0E0,0E0,0E0,0E0,0E0,0E0,0E0],"parents":[2147483647,0,0,1,1,2,2,3,3,4,4,5,5,6,6,7,7,8,8,9,9,10,10,11,11,12,12,13,13,14,14,15,15,16,16,17,17,18,18,19,19,20,20,21,21,22,22,23,23,24,24,25,25,26,26,27,27,28,28,29,29,30,30,31,31,32,32,33,33,34,34,35,35,36,36,37,37,38,38,39,39,40,40,41,41,42,42,43,43,44,44,45,45,46,46,47,47,48,48,49,49,50,50,51,51,52,52,53,53,54,54,55,55,56,56,57,57,58,58,59,59,60,60,61,61,62,62],"right_children":[2,4,6,8,10,12,14,16,18,20,22,24,26,28,30,32,34,36,38,40,42,44,46,48,50,52,54,56,58,60,62,64,66,68,70,72,74,76,78,80,82,84,86,88,90,92,94,96,98,100,102,104,106,108,110,112,114,116,118,120,122,124,126,-1,-1,-1,-1,-1,-1,-1,-1,-1,-1,-1,-1,-1,-1,-1,-1,-1,-1,-1,-1,-1,-1,-1,-1,-1,-1,-1,-1,-1,-1,-1,-1,-1,-1,-1,-1,-1,-1,-1,-1,-1,-1,-1,-1,-1,-1,-1,-1,-1,-1,-1,-1,-1,-1,-1,-1,-1,-1,-1,-1,-1,-1,-1,-1],"split_conditions":[1.2772E2,9.068E1,2.241E2,6.77E1,2.39E1,1.6446E2,2.6197E2,5.909E1,9.1E1,1.14E1,6.7E1,7.6E0,1E0,9.8E0,2.62E1,4.49E1,9.5E0,8.28E1,2.5E1,1.3116E2,9.04E1,1.066E2,8.9E1,1.503814E2,5.1E1,9.1E0,2.505E2,2.74E1,1E0,8E1,5.3E0,3.42E1,9.5E0,1.25E1,2.8E1,2.56E1,1.0251505E2,7.825E1,2.76E1,1.98E2,1.46E1,8.9E1,4E0,1E1,2.7E1,3.2E1,5E0,1E1,8.1E1,1.215E2,2.47E1,3.04E1,3.3E1,2.77E1,5E0,3.04E2,2.6E1,5E1,2.36E1,3.0277E2,2.8516E2,5E0,3.04E2,-3.7263954E0,-3.2601E0,-2.8002799E0,-3.2571735E0,-2.398928E0,-1.8343452E0,-3.2507684E0,-2.62279E0,-1.1180598E0,-2.1403213E0,-1.6688095E0,-1.0000566E0,-3.8611896E0,-3.0311193E0,-2.6202726E0,-1.7088463E0,-8.377803E-1,4.1105118E-1,4.853526E0,1.2439436E0,-2.5702548E0,1.5906848E0,-1.4685186E0,-2.4228323E0,-1.16470866E-1,-1.1552771E0,5.52967E-1,-2.5567126E-1,-1.0999082E0,-1.9918692E0,-2.2354364E0,-1.446784E0,1.0289087E0,6.348916E-2,1.8511511E0,-3.2834443E-1,-5.862116E-1,5.2461493E-1,9.777776E-3,-9.866319E-1,2.7344654E0,1.0491606E0,1.4407493E0,6.4329594E-2,3.3447387E0,1.8887333E0,4.3310995E0,7.1036096E0,4.094787E0,5.74148E0,4.5320973E0,2.1938887E0,1.8021135E0,-2.1309948E-1,5.09571E0,2.8369377E0,7.31885E0,8.88491E0,2.822454E0,6.425836E0,5.831223E0,8.049918E0,3.7632115E0,5.4355555E0],"split_indices":[5,6,0,0,10,6,6,6,15,12,15,12,28,12,10,6,12,3,14,6,2,0,15,0,15,12,3,10,28,15,8,0,12,8,14,10,0,6,14,9,10,11,25,24,15,10,25,24,15,3,10,10,15,10,25,7,15,15,14,6,5,25,3,0,0,0,0,0,0,0,0,0,0,0,0,0,0,0,0,0,0,0,0,0,0,0,0,0,0,0,0,0,0,0,0,0,0,0,0,0,0,0,0,0,0,0,0,0,0,0,0,0,0,0,0,0,0,0,0,0,0,0,0,0,0,0,0],"split_type":[0,0,0,0,0,0,0,0,0,0,0,0,0,0,0,0,0,0,0,0,0,0,0,0,0,0,0,0,0,0,0,0,0,0,0,0,0,0,0,0,0,0,0,0,0,0,0,0,0,0,0,0,0,0,0,0,0,0,0,0,0,0,0,0,0,0,0,0,0,0,0,0,0,0,0,0,0,0,0,0,0,0,0,0,0,0,0,0,0,0,0,0,0,0,0,0,0,0,0,0,0,0,0,0,0,0,0,0,0,0,0,0,0,0,0,0,0,0,0,0,0,0,0,0,0,0,0],"sum_hessian":[1.017797E6,5.53512E5,4.64285E5,3.10551E5,2.42961E5,3.48059E5,1.16226E5,1.5526E5,1.55291E5,4.8661E4,1.943E5,2.04916E5,1.43143E5,8.7825E4,2.8401E4,6.9427E4,8.5833E4,1.36491E5,1.88E4,4.5073E4,3.588E3,1.12266E5,8.2034E4,1.00824E5,1.04092E5,1.01871E5,4.1272E4,6.8215E4,1.961E4,2.051E4,7.891E3,1.8705E4,5.0722E4,6.7285E4,1.8548E4,7.8957E4,5.7534E4,2.942E3,1.5858E4,2.9724E4,1.5349E4,1.024E3,2.564E3,5.8674E4,5.3592E4,6.3453E4,1.8581E4,5.2228E4,4.8596E4,7.253E4,3.1562E4,5.7381E4,4.449E4,3.4531E4,6.741E3,4.4715E4,2.35E4,1.6769E4,2.841E3,1.7846E4,2.664E3,2.491E3,5.4E3,9.156E3,9.549E3,3.8485E4,1.2237E4,6.0303E4,6.982E3,7.671E3,1.0877E4,4.792E3,7.4165E4,4.3438E4,1.4096E4,1.61E3,1.332E3,1.4471E4,1.387E3,9.363E3,2.0361E4,5.73E2,1.4776E4,1.02E3,4E0,2.096E3,4.68E2,1.0049E4,4.8625E4,1.0706E4,4.2886E4,5.1892E4,1.1561E4,1.3851E4,4.73E3,2.1036E4,3.1192E4,4.4492E4,4.104E3,1.9181E4,5.3349E4,1.0598E4,2.0964E4,3.1083E4,2.6298E4,2.255E4,2.194E4,2.1585E4,1.2946E4,4.359E3,2.382E3,2.6918E4,1.7797E4,7.296E3,1.6204E4,1.1902E4,4.867E3,1.519E3,1.322E3,1.1285E4,6.561E3,5.99E2,2.065E3,1.847E3,6.44E2,2.944E3,2.456E3],"tree_param":{"num_deleted":"0","num_feature":"30","num_nodes":"127","size_leaf_vector":"1"}},{"base_weights":[3.219009E-2,-2.6351706E1,4.2248093E1,-4.2631702E1,-6.550391E0,2.6833462E1,9.154308E1,-4.982865E1,-3.308187E1,-1.5769648E1,8.723188E0,1.3935359E1,4.328872E1,6.2330135E1,1.1708312E2,-5.6781284E1,-4.4236874E1,-3.0977392E1,-4.9363857E1,-2.3578466E1,-1.02381525E1,1.2212487E1,-2.5872429E1,1.1541423E1,5.939785E1,5.084332E1,2.0183159E1,8.351205E1,3.6303234E1,9.621641E1,1.3817625E2,-6.608621E1,-5.417783E1,-4.7873623E1,-3.9502926E1,-3.4316956E1,-2.1180712E1,-6.399212E1,-4.628069E1,-3.097529E1,-1.584257E1,-8.569885E0,-3.1771961E1,1.9533989E1,-2.9617548E0,2.3650404E2,-2.6978205E1,1.837271E1,-8.938398E-3,3.25918E1,9.422348E1,4.57548E1,8.111405E1,2.6214834E1,-1.5451141E1,9.655324E1,3.6929657E1,5.63097E1,1.9939905E1,8.371965E1,1.1193419E2,1.6288063E2,1.2770216E2,-3.51634E0,-3.067861E0,-2.9006023E0,-2.48725E0,-2.176973E0,-2.6873367E0,-2.0989072E0,-1.6462644E0,-1.8884112E0,-1.4079583E0,-1.3547217E0,-6.553125E-1,-3.6959305E0,-2.8571177E0,-2.525502E0,-2.0216377E0,-5.542143E-1,-1.6557178E0,-5.335244E-1,-1.6087967E0,-1.9184816E-1,-8.3862984E-1,-7.8002733E-1,-1.802466E0,6.489568E-1,1.8694012E0,3.7315455E-1,-4.7451353E-1,5.6013846E0,1.2534027E1,-6.747257E-1,-1.9600471E0,1.590377E0,4.3679762E-1,-3.7857035E-1,7.3775357E-1,8.52141E-1,3.0438907E0,2.9485095E0,6.5193567E0,1.9792918E0,2.9609022E0,3.0671513E0,5.111006E0,1.0882479E0,2.9717088E0,-1.0399617E0,2.1923099E0,4.276797E0,5.985633E0,7.4084985E-1,2.7027614E0,-3.6330712E-3,3.4326935E0,1.5550379E0,-2.993115E-1,4.2745624E0,1.5816953E0,5.7727666E0,1.1390504E0,7.4156013E0,8.887444E0,6.0089707E0,7.545658E0],"categories":[],"categories_nodes":[],"categories_segments":[],"categories_sizes":[],"default_left":[1,0,1,1,1,0,0,0,0,0,0,0,0,0,0,0,0,1,0,0,0,0,0,0,0,1,0,0,0,0,0,1,0,0,0,0,0,0,0,0,0,0,0,0,0,0,0,0,0,0,0,1,0,0,0,1,0,0,0,0,0,0,0,0,0,0,0,0,0,0,0,0,0,0,0,0,0,0,0,0,0,0,0,0,0,0,0,0,0,0,0,0,0,0,0,0,0,0,0,0,0,0,0,0,0,0,0,0,0,0,0,0,0,0,0,0,0,0,0,0,0,0,0,0,0,0,0],"id":7,"left_children":[1,3,5,7,9,11,13,15,17,19,21,23,25,27,29,31,33,35,37,39,41,43,45,47,49,51,53,55,57,59,61,63,65,67,69,71,73,75,77,79,81,83,85,87,89,91,93,95,97,99,101,103,105,107,109,111,113,115,117,119,121,123,125,-1,-1,-1,-1,-1,-1,-1,-1,-1,-1,-1,-1,-1,-1,-1,-1,-1,-1,-1,-1,-1,-1,-1,-1,-1,-1,-1,-1,-1,-1,-1,-1,-1,-1,-1,-1,-1,-1,-1,-1,-1,-1,-1,-1,-1,-1,-1,-1,-1,-1,-1,-1,-1,-1,-1,-1,-1,-1,-1,-1,-1,-1,-1,-1],"loss_changes":[1.1334723E9,2.0188173E8,2.974023E8,2.3619712E7,3.978883E7,6.328112E7,6.955456E7,7.616864E6,5.059488E6,7.61096E6,1.2839625E7,1.8190634E7,2.2867712E7,2.3974096E7,2.1880832E7,2.112672E6,1.868256E6,4.278576E6,7.59432E5,4.180252E6,3.705161E6,1.0734037E7,2.833695E6,1.2528902E7,7.802236E6,1.5204144E7,6.939136E6,1.4562224E7,6.387876E6,4.902928E6,6.37952E6,3.78592E5,1.15736E6,1.561312E6,7.6708E5,2.071976E6,1.587575E6,1.95679E5,3.43354E5,1.58876E6,3.016771E6,3.7164805E6,5.124095E5,7.626634E6,2.140247E6,4.4267E4,1.5989285E6,1.2917544E7,6.5889405E6,2.077546E6,4.627802E6,7.017824E6,5.922144E6,4.080068E6,1.4831664E6,4.769312E6,1.9858165E6,6.110828E6,3.10702E6,1.283232E6,3.473728E6,1.56808E6,3.015712E6,0E0,0E0,0E0,0E0,0E0,0E0,0E0,0E0,0E0,0E0,0E0,0E0,0E0,0E0,0E0,0E0,0E0,0E0,0E0,0E0,0E0,0E0,0E0,0E0,0E0,0E0,0E0,0E0,0E0,0E0,0E0,0E0,0E0,0E0,0E0,0E0,0E0,0E0,0E0,0E0,0E0,0E0,0E0,0E0,0E0,0E0,0E0,0E0,0E0,0E0,0E0,0E0,0E0,0E0,0E0,0E0,0E0,0E0,0E0,0E0,0E0,0E0,0E0,0E0],"parents":[2147483647,0,0,1,1,2,2,3,3,4,4,5,5,6,6,7,7,8,8,9,9,10,10,11,11,12,12,13,13,14,14,15,15,16,16,17,17,18,18,19,19,20,20,21,21,22,22,23,23,24,24,25,25,26,26,27,27,28,28,29,29,30,30,31,31,32,32,33,33,34,34,35,35,36,36,37,37,38,38,39,39,40,40,41,41,42,42,43,43,44,44,45,45,46,46,47,47,48,48,49,49,50,50,51,51,52,52,53,53,54,54,55,55,56,56,57,57,58,58,59,59,60,60,61,61,62,62],"right_children":[2,4,6,8,10,12,14,16,18,20,22,24,26,28,30,32,34,36,38,40,42,44,46,48,50,52,54,56,58,60,62,64,66,68,70,72,74,76,78,80,82,84,86,88,90,92,94,96,98,100,102,104,106,108,110,112,114,116,118,120,122,124,126,-1,-1,-1,-1,-1,-1,-1,-1,-1,-1,-1,-1,-1,-1,-1,-1,-1,-1,-1,-1,-1,-1,-1,-1,-1,-1,-1,-1,-1,-1,-1,-1,-1,-1,-1,-1,-1,-1,-1,-1,-1,-1,-1,-1,-1,-1,-1,-1,-1,-1,-1,-1,-1,-1,-1,-1,-1,-1,-1,-1,-1,-1,-1,-1],"split_conditions":[1.404E2,9.583E1,2.3828899E2,7.333861E1,1.267E2,1.653E2,1E1,6.168E1,9.1E1,9.64E1,8.5E1,1.1E1,1.01E1,8.4E0,3.0533514E2,4.49E1,1.53E2,9.45E1,2.5E1,1.83E2,8.8E1,8.5E0,2E0,9.1E0,6.1E1,2.4096864E2,5.7E1,5E0,3.3E1,2.6853403E2,1.97E1,3.6E1,1.52E2,7.7E0,8.02E1,9E0,9E0,7.825E1,6.8E0,5E0,9.5E0,8.5E0,2.13E1,1.7243658E2,3.3E1,3E2,9.1E1,5E0,3.35E1,2.0624E2,1.7989E2,2.0209317E2,1E1,2.3222E2,7.8E1,2.809438E2,2E0,2.35E1,5E0,8.8E1,9.1E1,3E0,5E0,-3.51634E0,-3.067861E0,-2.9006023E0,-2.48725E0,-2.176973E0,-2.6873367E0,-2.0989072E0,-1.6462644E0,-1.8884112E0,-1.4079583E0,-1.3547217E0,-6.553125E-1,-3.6959305E0,-2.8571177E0,-2.525502E0,-2.0216377E0,-5.542143E-1,-1.6557178E0,-5.335244E-1,-1.6087967E0,-1.9184816E-1,-8.3862984E-1,-7.8002733E-1,-1.802466E0,6.489568E-1,1.8694012E0,3.7315455E-1,-4.7451353E-1,5.6013846E0,1.2534027E1,-6.747257E-1,-1.9600471E0,1.590377E0,4.3679762E-1,-3.7857035E-1,7.3775357E-1,8.52141E-1,3.0438907E0,2.9485095E0,6.5193567E0,1.9792918E0,2.9609022E0,3.0671513E0,5.111006E0,1.0882479E0,2.9717088E0,-1.0399617E0,2.1923099E0,4.276797E0,5.985633E0,7.4084985E-1,2.7027614E0,-3.6330712E-3,3.4326935E0,1.5550379E0,-2.993115E-1,4.2745624E0,1.5816953E0,5.7727666E0,1.1390504E0,7.4156013E0,8.887444E0,6.0089707E0,7.545658E0],"split_indices":[6,6,0,0,0,0,23,6,15,0,15,23,12,12,0,6,13,3,14,13,15,12,23,12,11,4,15,23,15,4,14,0,13,12,6,23,23,6,8,23,12,12,14,0,15,0,15,23,14,6,6,3,23,6,11,3,25,14,25,15,15,25,25,0,0,0,0,0,0,0,0,0,0,0,0,0,0,0,0,0,0,0,0,0,0,0,0,0,0,0,0,0,0,0,0,0,0,0,0,0,0,0,0,0,0,0,0,0,0,0,0,0,0,0,0,0,0,0,0,0,0,0,0,0,0,0,0],"split_type":[0,0,0,0,0,0,0,0,0,0,0,0,0,0,0,0,0,0,0,0,0,0,0,0,0,0,0,0,0,0,0,0,0,0,0,0,0,0,0,0,0,0,0,0,0,0,0,0,0,0,0,0,0,0,0,0,0,0,0,0,0,0,0,0,0,0,0,0,0,0,0,0,0,0,0,0,0,0,0,0,0,0,0,0,0,0,0,0,0,0,0,0,0,0,0,0,0,0,0,0,0,0,0,0,0,0,0,0,0,0,0,0,0,0,0,0,0,0,0,0,0,0,0,0,0,0,0],"sum_hessian":[1.017642E6,6.26251E5,3.91391E5,3.43684E5,2.82567E5,2.98158E5,9.3233E4,1.95983E5,1.47701E5,1.76207E5,1.0636E5,1.67146E5,1.31012E5,4.3491E4,4.9742E4,8.7357E4,1.08626E5,1.30798E5,1.6903E4,7.3062E4,1.03145E5,9.6616E4,9.744E3,1.58786E5,8.36E3,9.873E4,3.2282E4,2.3976E4,1.9515E4,2.5008E4,2.4734E4,1.9093E4,6.8264E4,6.1427E4,4.7199E4,9.7544E4,3.3254E4,2.939E3,1.3964E4,3.7348E4,3.5714E4,9.573E4,7.415E3,6.5171E4,3.1445E4,4E1,9.704E3,9.9775E4,5.9011E4,4.725E3,3.635E3,8.4524E4,1.4206E4,2.7609E4,4.673E3,1.8731E4,5.245E3,8.779E3,1.0736E4,1.3935E4,1.1073E4,7.36E3,1.7374E4,1.0059E4,9.034E3,3.6597E4,3.1667E4,3.5349E4,2.6078E4,3.429E4,1.2909E4,6.2506E4,3.5038E4,1.9194E4,1.406E4,1.196E3,1.743E3,8.099E3,5.865E3,3.627E3,3.3721E4,2.7126E4,8.588E3,6.0705E4,3.5025E4,1.552E3,5.863E3,4.7671E4,1.75E4,1.2109E4,1.9336E4,5E0,3.5E1,4.615E3,5.089E3,4.1674E4,5.8101E4,3.9023E4,1.9988E4,3.05E3,1.675E3,1.842E3,1.793E3,5.7967E4,2.6557E4,7.337E3,6.869E3,2.4349E4,3.26E3,4.287E3,3.86E2,1.2696E4,6.035E3,2.29E3,2.955E3,1.577E3,7.202E3,7.505E3,3.231E3,1.3476E4,4.59E2,1.0652E4,4.21E2,3.723E3,3.637E3,1.3126E4,4.248E3],"tree_param":{"num_deleted":"0","num_feature":"30","num_nodes":"127","size_leaf_vector":"1"}},{"base_weights":[3.241432E-2,-2.5053146E1,4.015744E1,-3.9373314E1,-4.677882E0,2.6570889E1,9.0944046E1,-4.702735E1,-3.0080227E1,-1.2948952E1,9.8967905E0,1.3096959E1,4.1897022E1,6.1583366E1,1.14629776E2,-5.390539E1,-4.2201023E1,-3.389231E1,-2.1816032E1,-1.9972338E1,-7.1186614E0,2.5949972E1,2.6326554E0,1.0848475E1,5.5965904E1,4.8181915E1,1.5651385E1,8.252826E1,3.5849876E1,9.911059E1,1.3737057E2,-6.3697178E1,-5.1409634E1,-4.680233E1,-3.648362E1,-3.769684E1,-2.842504E1,-1.6577345E1,-3.3334827E1,2.102278E0,-2.2948816E1,-5.6293473E0,-2.924893E1,2.095343E1,7.3521385E1,6.4476295E0,-2.6278992E1,4.6236324E0,2.2419851E1,8.4737495E1,2.8045797E1,5.8368576E1,3.1585602E1,2.257947E1,-1.6353712E1,9.5524315E1,3.4799404E1,8.502711E1,2.9687336E1,9.052733E1,1.2131133E2,1.5683855E2,1.2138948E2,-3.4289005E0,-2.995549E0,-2.4511125E0,-2.9644542E0,-2.1728094E0,-2.7346604E0,-1.952561E0,-1.2559507E0,-1.7412767E0,-2.2285323E0,-5.491686E-1,-1.4824575E0,-4.9442372E-1,-1.2732903E0,-1.4233407E0,-2.1199565E0,6.29842E-1,-6.1804765E-1,-1.4450787E0,-8.4495956E-1,-4.2735483E-2,-6.728675E-1,-7.2562873E-1,-1.6958116E0,1.3863263E0,-5.8900464E-1,3.902052E0,-2.6591394E0,7.017652E-1,-1.3304691E-1,-2.2330763E0,-7.5818723E-1,-2.3109852E-1,6.482002E-1,6.2251514E-1,1.64702E0,2.5536587E0,5.6764646E0,8.435696E-1,2.7950952E0,2.5719225E0,4.5281157E0,2.359131E0,9.772027E-1,6.223244E-1,1.7367762E0,4.8914438E-1,-1.0389376E0,4.370317E0,6.002622E0,2.8992178E0,1.1234573E0,5.5109916E0,2.6452034E0,7.7843684E-1,2.209153E0,4.82944E0,3.2556934E0,6.239286E0,1.3235301E0,8.220756E0,6.1103287E0,6.143233E0,-1.7070979E-1],"categories":[],"categories_nodes":[],"categories_segments":[],"categories_sizes":[],"default_left":[1,0,1,0,1,0,0,0,1,0,0,0,0,0,0,0,0,0,0,0,0,1,0,0,0,0,0,0,0,1,0,0,0,0,1,0,0,0,0,0,0,0,0,0,0,0,0,0,0,0,0,0,0,0,0,1,0,0,0,0,0,0,0,0,0,0,0,0,0,0,0,0,0,0,0,0,0,0,0,0,0,0,0,0,0,0,0,0,0,0,0,0,0,0,0,0,0,0,0,0,0,0,0,0,0,0,0,0,0,0,0,0,0,0,0,0,0,0,0,0,0,0,0,0,0,0,0],"id":8,"left_children":[1,3,5,7,9,11,13,15,17,19,21,23,25,27,29,31,33,35,37,39,41,43,45,47,49,51,53,55,57,59,61,63,65,67,69,71,73,75,77,79,81,83,85,87,89,91,93,95,97,99,101,103,105,107,109,111,113,115,117,119,121,123,125,-1,-1,-1,-1,-1,-1,-1,-1,-1,-1,-1,-1,-1,-1,-1,-1,-1,-1,-1,-1,-1,-1,-1,-1,-1,-1,-1,-1,-1,-1,-1,-1,-1,-1,-1,-1,-1,-1,-1,-1,-1,-1,-1,-1,-1,-1,-1,-1,-1,-1,-1,-1,-1,-1,-1,-1,-1,-1,-1,-1,-1,-1,-1,-1],"loss_changes":[1.02422483E9,1.8268563E8,2.700949E8,2.6152448E7,3.1152538E7,6.3772176E7,5.744653E7,6.690784E6,5.231024E6,6.75077E6,1.0910196E7,1.5840438E7,2.3831376E7,1.9880736E7,1.6123968E7,2.028448E6,3.115456E6,2.362768E6,3.16295E6,4.91344E6,2.96894E6,6.926484E6,7.104852E6,1.1247668E7,6.5767E6,1.9704928E7,6.190074E6,1.2611456E7,5.014584E6,5.168672E6,5.750624E6,3.07872E5,1.24344E6,1.731008E6,1.540904E6,1.320984E6,9.95376E5,2.142342E6,7.21916E5,1.3489195E6,2.37252E6,3.1547368E6,3.901725E5,5.848521E6,1.590418E6,3.932973E6,1.5336095E6,7.829602E6,5.728414E6,3.903212E6,1.29334E6,1.611032E7,8.326108E6,2.826235E6,5.747799E5,3.172224E6,1.243403E6,1.485647E6,3.010464E6,3.014032E6,2.493096E6,2.17272E6,1.876304E6,0E0,0E0,0E0,0E0,0E0,0E0,0E0,0E0,0E0,0E0,0E0,0E0,0E0,0E0,0E0,0E0,0E0,0E0,0E0,0E0,0E0,0E0,0E0,0E0,0E0,0E0,0E0,0E0,0E0,0E0,0E0,0E0,0E0,0E0,0E0,0E0,0E0,0E0,0E0,0E0,0E0,0E0,0E0,0E0,0E0,0E0,0E0,0E0,0E0,0E0,0E0,0E0,0E0,0E0,0E0,0E0,0E0,0E0,0E0,0E0,0E0,0E0,0E0,0E0],"parents":[2147483647,0,0,1,1,2,2,3,3,4,4,5,5,6,6,7,7,8,8,9,9,10,10,11,11,12,12,13,13,14,14,15,15,16,16,17,17,18,18,19,19,20,20,21,21,22,22,23,23,24,24,25,25,26,26,27,27,28,28,29,29,30,30,31,31,32,32,33,33,34,34,35,35,36,36,37,37,38,38,39,39,40,40,41,41,42,42,43,43,44,44,45,45,46,46,47,47,48,48,49,49,50,50,51,51,52,52,53,53,54,54,55,55,56,56,57,57,58,58,59,59,60,60,61,61,62,62],"right_children":[2,4,6,8,10,12,14,16,18,20,22,24,26,28,30,32,34,36,38,40,42,44,46,48,50,52,54,56,58,60,62,64,66,68,70,72,74,76,78,80,82,84,86,88,90,92,94,96,98,100,102,104,106,108,110,112,114,116,118,120,122,124,126,-1,-1,-1,-1,-1,-1,-1,-1,-1,-1,-1,-1,-1,-1,-1,-1,-1,-1,-1,-1,-1,-1,-1,-1,-1,-1,-1,-1,-1,-1,-1,-1,-1,-1,-1,-1,-1,-1,-1,-1,-1,-1,-1,-1,-1,-1,-1,-1,-1,-1,-1,-1,-1,-1,-1,-1,-1,-1,-1,-1,-1,-1,-1,-1],"split_conditions":[1.404E2,9.96E1,2.483043E2,7.563E1,1.3023969E2,1.6423276E2,1E1,5.59E1,9.5243095E1,1.0135167E2,2.48E1,1.1E1,1.07E1,8.4E0,3.233E2,4.49E1,1.86E2,1.89E2,8.1E1,2.18E1,8.8E1,2.436E2,8.1E1,1.756E2,7.7E0,2.88E1,5.4E1,5E0,1.9E1,2.9561438E2,2.16E1,3.579E1,9.5E0,8.9E0,8.23E1,8.4E0,2.18E1,3.1E1,9.1E1,7E0,1.64E2,8.5E0,2.13E1,9.4E0,8.8E1,7.8E0,2.42E1,1.2877696E2,1.37E2,1.7889E2,2.1831E2,2.2053E2,3E1,1.8624E2,1.8E1,3.04E2,4.1E1,2.77E2,2.0008E2,2.77E1,9.1E1,7.3E1,1.21E1,-3.4289005E0,-2.995549E0,-2.4511125E0,-2.9644542E0,-2.1728094E0,-2.7346604E0,-1.952561E0,-1.2559507E0,-1.7412767E0,-2.2285323E0,-5.491686E-1,-1.4824575E0,-4.9442372E-1,-1.2732903E0,-1.4233407E0,-2.1199565E0,6.29842E-1,-6.1804765E-1,-1.4450787E0,-8.4495956E-1,-4.2735483E-2,-6.728675E-1,-7.2562873E-1,-1.6958116E0,1.3863263E0,-5.8900464E-1,3.902052E0,-2.6591394E0,7.017652E-1,-1.3304691E-1,-2.2330763E0,-7.5818723E-1,-2.3109852E-1,6.482002E-1,6.2251514E-1,1.64702E0,2.5536587E0,5.6764646E0,8.435696E-1,2.7950952E0,2.5719225E0,4.5281157E0,2.359131E0,9.772027E-1,6.223244E-1,1.7367762E0,4.8914438E-1,-1.0389376E0,4.370317E0,6.002622E0,2.8992178E0,1.1234573E0,5.5109916E0,2.6452034E0,7.7843684E-1,2.209153E0,4.82944E0,3.2556934E0,6.239286E0,1.3235301E0,8.220756E0,6.1103287E0,6.143233E0,-1.7070979E-1],"split_indices":[6,6,0,6,0,0,23,0,0,0,10,23,12,12,0,6,13,13,15,10,15,7,15,4,8,10,15,23,15,4,10,6,12,12,3,12,10,10,15,12,13,12,14,12,15,12,14,0,9,6,6,6,15,6,10,3,15,13,6,10,15,15,8,0,0,0,0,0,0,0,0,0,0,0,0,0,0,0,0,0,0,0,0,0,0,0,0,0,0,0,0,0,0,0,0,0,0,0,0,0,0,0,0,0,0,0,0,0,0,0,0,0,0,0,0,0,0,0,0,0,0,0,0,0,0,0,0],"split_type":[0,0,0,0,0,0,0,0,0,0,0,0,0,0,0,0,0,0,0,0,0,0,0,0,0,0,0,0,0,0,0,0,0,0,0,0,0,0,0,0,0,0,0,0,0,0,0,0,0,0,0,0,0,0,0,0,0,0,0,0,0,0,0,0,0,0,0,0,0,0,0,0,0,0,0,0,0,0,0,0,0,0,0,0,0,0,0,0,0,0,0,0,0,0,0,0,0,0,0,0,0,0,0,0,0,0,0,0,0,0,0,0,0,0,0,0,0,0,0,0,0,0,0,0,0,0,0],"sum_hessian":[1.017549E6,6.26113E5,3.91436E5,3.67691E5,2.58422E5,3.08821E5,8.2615E4,2.01624E5,1.66067E5,1.64863E5,9.3559E4,1.64342E5,1.44479E5,3.689E4,4.5725E4,8.3136E4,1.18488E5,1.13643E5,5.2424E4,7.4779E4,9.0084E4,2.9146E4,6.4413E4,1.56153E5,8.189E3,1.16565E5,2.7914E4,2.0336E4,1.6554E4,2.7181E4,1.8544E4,1.6881E4,6.6255E4,6.5648E4,5.284E4,6.7008E4,4.6635E4,3.6037E4,1.6387E4,8.885E3,6.5894E4,8.4405E4,5.679E3,2.6377E4,2.769E3,5.6905E4,7.508E3,1.01534E5,5.4619E4,4.032E3,4.157E3,7.2229E4,4.4336E4,2.2947E4,4.967E3,1.5983E4,4.353E3,1.842E3,1.4712E4,1.9606E4,7.575E3,8.356E3,1.0188E4,7.367E3,9.514E3,5.0854E4,1.5401E4,4.6104E4,1.9544E4,4.31E4,9.74E3,4.7269E4,1.9739E4,3.059E3,4.3576E4,2.0564E4,1.5473E4,1.0664E4,5.723E3,5.149E3,3.736E3,3.3211E4,3.2683E4,5.2428E4,3.1977E4,1.367E3,4.312E3,2.1855E4,4.522E3,2.674E3,9.5E1,3.1044E4,2.5861E4,2.828E3,4.68E3,4.8154E4,5.338E4,2.8045E4,2.6574E4,1.86E3,2.172E3,2.968E3,1.189E3,5.9437E4,1.2792E4,1.9315E4,2.5021E4,1.2516E4,1.0431E4,7.19E2,4.248E3,1.2012E4,3.971E3,1.51E3,2.843E3,1.031E3,8.11E2,7.454E3,7.258E3,1.5828E4,3.778E3,7.307E3,2.68E2,6.853E3,1.503E3,1.0069E4,1.19E2],"tree_param":{"num_deleted":"0","num_feature":"30","num_nodes":"127","size_leaf_vector":"1"}},{"base_weights":[1.773451E-2,-2.0087637E1,4.5397114E1,-3.682755E1,-6.6187143E-1,3.3986248E1,9.949177E1,-4.3919964E1,-2.6940744E1,-8.241868E0,1.0591228E1,2.0819265E1,5.2874943E1,1.1628462E2,6.3989807E1,-5.0757545E1,-3.863407E1,-5.967985E0,-2.8618788E1,6.5644574E0,-1.2308043E1,2.3392826E1,5.1018906E0,7.1927495E0,2.9566463E1,6.455328E1,3.680518E1,9.820897E1,1.3517688E2,5.3077408E1,9.1587135E1,-5.973396E1,-4.8514038E1,-4.2216095E1,-3.416876E1,-2.4924997E1,-6.073031E-1,-3.33907E1,-2.2216146E1,5.86389E-1,3.4351757E1,-2.153208E1,-6.829777E0,1.9343666E1,4.7220837E1,-4.344501E0,1.2842593E1,-1.5508422E0,1.55789995E1,3.870477E1,2.2439075E1,5.30589E1,7.829075E1,1.8474195E1,4.7368614E1,5.4228348E1,1.0316502E2,1.2934862E2,1.6255035E2,4.7285465E1,8.796164E1,1.1390679E2,7.646757E1,-3.1890438E0,-2.7709591E0,-2.6024325E0,-2.2226567E0,-2.4604127E0,-2.0180728E0,-1.8614626E0,-1.4229267E0,-1.6826363E0,-4.6999905E-1,-2.7896145E-1,8.412064E-1,-2.3263073E0,-1.5852724E0,-1.685234E0,-9.5754015E-1,-6.2182784E-1,4.2372853E-1,2.6696718E0,7.5733775E-1,-1.356945E0,-6.606218E-1,-5.050707E-1,1.8052933E-1,7.806479E-1,2.0500984E0,2.941686E0,1.4596958E0,-4.9234387E-1,5.593755E-1,3.8660654E-1,1.3629516E0,-7.688101E-1,1.6988167E-1,1.3420743E0,4.9883518E-1,1.2621664E0,2.3915977E0,7.7659655E-1,1.5220531E0,1.9440006E0,3.036588E0,2.7297075E0,4.3416166E0,1.4213823E-1,1.4967587E0,1.753416E0,2.809363E0,6.2197843E0,2.0742202E0,6.248877E0,4.739931E0,3.9666817E0,6.624604E0,5.7131114E0,8.608053E0,1.5972381E0,2.8836365E0,5.489237E0,3.2007146E0,4.4536443E0,6.365446E0,4.6118007E0,2.5928066E0],"categories":[],"categories_nodes":[],"categories_segments":[],"categories_sizes":[],"default_left":[1,0,1,1,1,1,0,0,0,0,0,0,0,0,1,0,0,0,0,1,0,0,0,1,0,1,0,0,0,0,0,1,0,0,0,0,0,0,0,0,0,0,1,1,0,0,1,0,0,0,0,0,0,0,0,0,0,0,0,0,0,0,0,0,0,0,0,0,0,0,0,0,0,0,0,0,0,0,0,0,0,0,0,0,0,0,0,0,0,0,0,0,0,0,0,0,0,0,0,0,0,0,0,0,0,0,0,0,0,0,0,0,0,0,0,0,0,0,0,0,0,0,0,0,0,0,0],"id":9,"left_children":[1,3,5,7,9,11,13,15,17,19,21,23,25,27,29,31,33,35,37,39,41,43,45,47,49,51,53,55,57,59,61,63,65,67,69,71,73,75,77,79,81,83,85,87,89,91,93,95,97,99,101,103,105,107,109,111,113,115,117,119,121,123,125,-1,-1,-1,-1,-1,-1,-1,-1,-1,-1,-1,-1,-1,-1,-1,-1,-1,-1,-1,-1,-1,-1,-1,-1,-1,-1,-1,-1,-1,-1,-1,-1,-1,-1,-1,-1,-1,-1,-1,-1,-1,-1,-1,-1,-1,-1,-1,-1,-1,-1,-1,-1,-1,-1,-1,-1,-1,-1,-1,-1,-1,-1,-1,-1],"loss_changes":[9.2908576E8,2.2947466E8,1.9298451E8,2.6577632E7,2.7861462E7,6.4212096E7,3.2461696E7,7.97504E6,5.57204E6,1.1750308E7,9.238225E6,1.8133696E7,1.9900064E7,1.2612256E7,5.262608E6,1.934992E6,1.989648E6,1.1921186E6,4.478368E6,6.985256E6,7.737272E6,3.805744E6,6.728131E6,4.361524E6,6.03416E6,9.693616E6,8.642356E6,4.1136E6,2.862656E6,2.528912E6,1.663424E6,3.32376E5,1.1028E6,8.93696E5,9.6738E5,3.5008175E5,7.9275744E5,1.857912E6,2.204138E6,3.555191E6,2.721794E6,2.661026E6,3.2814045E6,2.724368E6,1.197828E6,3.541781E6,3.7256645E6,1.9923495E6,1.915383E6,4.987116E6,2.876874E6,3.635776E6,5.657792E6,2.9236665E6,3.069632E6,1.7081435E6,3.087408E6,2.333168E6,1.451016E6,1.711784E6,9.25299E5,6.53984E5,1.14278E6,0E0,0E0,0E0,0E0,0E0,0E0,0E0,0E0,0E0,0E0,0E0,0E0,0E0,0E0,0E0,0E0,0E0,0E0,0E0,0E0,0E0,0E0,0E0,0E0,0E0,0E0,0E0,0E0,0E0,0E0,0E0,0E0,0E0,0E0,0E0,0E0,0E0,0E0,0E0,0E0,0E0,0E0,0E0,0E0,0E0,0E0,0E0,0E0,0E0,0E0,0E0,0E0,0E0,0E0,0E0,0E0,0E0,0E0,0E0,0E0,0E0,0E0,0E0,0E0],"parents":[2147483647,0,0,1,1,2,2,3,3,4,4,5,5,6,6,7,7,8,8,9,9,10,10,11,11,12,12,13,13,14,14,15,15,16,16,17,17,18,18,19,19,20,20,21,21,22,22,23,23,24,24,25,25,26,26,27,27,28,28,29,29,30,30,31,31,32,32,33,33,34,34,35,35,36,36,37,37,38,38,39,39,40,40,41,41,42,42,43,43,44,44,45,45,46,46,47,47,48,48,49,49,50,50,51,51,52,52,53,53,54,54,55,55,56,56,57,57,58,58,59,59,60,60,61,61,62,62],"right_children":[2,4,6,8,10,12,14,16,18,20,22,24,26,28,30,32,34,36,38,40,42,44,46,48,50,52,54,56,58,60,62,64,66,68,70,72,74,76,78,80,82,84,86,88,90,92,94,96,98,100,102,104,106,108,110,112,114,116,118,120,122,124,126,-1,-1,-1,-1,-1,-1,-1,-1,-1,-1,-1,-1,-1,-1,-1,-1,-1,-1,-1,-1,-1,-1,-1,-1,-1,-1,-1,-1,-1,-1,-1,-1,-1,-1,-1,-1,-1,-1,-1,-1,-1,-1,-1,-1,-1,-1,-1,-1,-1,-1,-1,-1,-1,-1,-1,-1,-1,-1,-1,-1,-1,-1,-1,-1],"split_conditions":[1.5452E2,1.0148E2,2.3903E2,7.66E1,1.274E2,1.9964961E2,2.71E1,6.283E1,2.48E1,2.39E1,2.48E1,1.571E2,2.76E1,2.8164E2,3E2,4.49E1,1.53E2,2E2,9.1043976E1,1.5775E2,1.0879E2,1.8618434E2,1.62E2,1.307E2,2.75E1,2.7413E2,1.7395E2,4E0,3.6424E2,1.9E1,5.2E0,3.42E1,1.52E2,2.67E1,8.02E1,2.35E1,1.281E2,2.66E1,2.75E1,1.36E2,2.83E2,1.65E2,1.406E2,1.6536E2,2.79E2,2E1,1.4643E2,1.1862957E2,2.93E1,4E0,1.89E2,2.21E2,2.05E1,1.86E2,1.9E2,3.12E-1,1.97E1,4E0,2.58E2,1E1,3.07E1,2.8516E2,2.93E2,-3.1890438E0,-2.7709591E0,-2.6024325E0,-2.2226567E0,-2.4604127E0,-2.0180728E0,-1.8614626E0,-1.4229267E0,-1.6826363E0,-4.6999905E-1,-2.7896145E-1,8.412064E-1,-2.3263073E0,-1.5852724E0,-1.685234E0,-9.5754015E-1,-6.2182784E-1,4.2372853E-1,2.6696718E0,7.5733775E-1,-1.356945E0,-6.606218E-1,-5.050707E-1,1.8052933E-1,7.806479E-1,2.0500984E0,2.941686E0,1.4596958E0,-4.9234387E-1,5.593755E-1,3.8660654E-1,1.3629516E0,-7.688101E-1,1.6988167E-1,1.3420743E0,4.9883518E-1,1.2621664E0,2.3915977E0,7.7659655E-1,1.5220531E0,1.9440006E0,3.036588E0,2.7297075E0,4.3416166E0,1.4213823E-1,1.4967587E0,1.753416E0,2.809363E0,6.2197843E0,2.0742202E0,6.248877E0,4.739931E0,3.9666817E0,6.624604E0,5.7131114E0,8.608053E0,1.5972381E0,2.8836365E0,5.489237E0,3.2007146E0,4.4536443E0,6.365446E0,4.6118007E0,2.5928066E0],"split_indices":[5,6,6,0,0,0,10,6,10,10,10,3,10,6,0,6,13,9,3,6,5,0,13,4,10,7,6,23,5,24,8,3,13,14,6,14,0,14,14,9,13,13,4,6,13,24,6,0,10,23,13,9,14,13,9,21,14,23,13,23,10,5,13,0,0,0,0,0,0,0,0,0,0,0,0,0,0,0,0,0,0,0,0,0,0,0,0,0,0,0,0,0,0,0,0,0,0,0,0,0,0,0,0,0,0,0,0,0,0,0,0,0,0,0,0,0,0,0,0,0,0,0,0,0,0,0,0],"split_type":[0,0,0,0,0,0,0,0,0,0,0,0,0,0,0,0,0,0,0,0,0,0,0,0,0,0,0,0,0,0,0,0,0,0,0,0,0,0,0,0,0,0,0,0,0,0,0,0,0,0,0,0,0,0,0,0,0,0,0,0,0,0,0,0,0,0,0,0,0,0,0,0,0,0,0,0,0,0,0,0,0,0,0,0,0,0,0,0,0,0,0,0,0,0,0,0,0,0,0,0,0,0,0,0,0,0,0,0,0,0,0,0,0,0,0,0,0,0,0,0,0,0,0,0,0,0,0],"sum_hessian":[1.01832E6,7.05672E5,3.12648E5,3.79039E5,3.26633E5,2.58187E5,5.4461E4,2.20708E5,1.58331E5,1.95169E5,1.31464E5,1.52137E5,1.0605E5,3.6971E4,1.749E4,9.6226E4,1.24482E5,1.173E4,1.46601E5,4.205E4,1.53119E5,3.9453E4,9.2011E4,5.948E4,9.2657E4,6.1415E4,4.4635E4,1.8897E4,1.8074E4,1.2536E4,4.954E3,1.9236E4,7.699E4,6.9068E4,5.5414E4,2.585E3,9.145E3,8.3995E4,6.2606E4,3.4606E4,7.444E3,5.7053E4,9.6066E4,3.3724E4,5.729E3,4.144E4,5.0571E4,2.912E4,3.036E4,4.0599E4,5.2058E4,3.344E4,2.7975E4,1.6319E4,2.8316E4,1.915E3,1.6982E4,1.4906E4,3.168E3,1.0753E4,1.783E3,1.998E3,2.956E3,9.919E3,9.317E3,4.1156E4,3.5834E4,1.4474E4,5.4594E4,3.6074E4,1.934E4,1.654E3,9.31E2,7.116E3,2.029E3,9.548E3,7.4447E4,1.3184E4,4.9422E4,1.3054E4,2.1552E4,3.737E3,3.707E3,3.4082E4,2.2971E4,7.3145E4,2.2921E4,2.877E4,4.954E3,3.483E3,2.246E3,3.06E4,1.084E4,3.7337E4,1.3234E4,7.675E3,2.1445E4,1.0084E4,2.0276E4,1.6406E4,2.4193E4,2.7942E4,2.4116E4,1.1744E4,2.1696E4,7.414E3,2.0561E4,6.904E3,9.415E3,1.1826E4,1.649E4,2.93E2,1.622E3,4.704E3,1.2278E4,8.83E2,1.4023E4,5.28E2,2.64E3,4.343E3,6.41E3,9.31E2,8.52E2,7.03E2,1.295E3,1.8E3,1.156E3],"tree_param":{"num_deleted":"0","num_feature":"30","num_nodes":"127","size_leaf_vector":"1"}},{"base_weights":[-1.28822895E-2,-1.8795216E1,4.394317E1,-3.4678566E1,3.853073E-2,3.2922943E1,9.485909E1,-4.2405457E1,-2.5901037E1,-6.31153E0,1.2048811E1,2.0453094E1,5.1089146E1,1.1070086E2,6.1035736E1,-4.8058495E1,-3.7330887E1,-2.9257172E1,-1.6254732E1,7.2291074E0,-1.0083575E1,2.4393642E1,6.52049E0,2.8619951E1,6.334136E0,6.435387E1,2.813464E1,9.387201E1,1.2826811E2,4.527409E1,7.847382E1,-5.6474968E1,-4.5772175E1,-3.5474403E1,-4.9794605E1,-3.2949993E1,-2.4199358E1,-1.0684385E1,-2.9749134E1,2.6139028E0,3.8099487E1,-2.7391193E0,-1.9470514E1,2.9749619E1,-1.9406994E1,2.4131927E1,4.5664772E-2,1.5776462E1,3.9057888E1,9.942158E0,-1.5152523E1,5.6657776E1,8.727516E1,3.4822525E1,-4.8335096E-1,4.9237198E1,9.883467E1,1.19058464E2,1.454783E2,7.597561E1,3.883599E1,9.190109E1,5.481997E1,-3.1052952E0,-2.66524E0,-2.2193563E0,-2.8991358E0,-1.9286379E0,-1.4335833E0,-2.3358464E0,-2.9802504E0,-1.7689466E0,-1.2133756E0,-4.8597988E-1,-1.2654704E0,-1.7690118E-1,-9.6006864E-1,-1.2379832E0,-1.9248295E0,6.0714746E-1,-5.4366326E-1,2.888928E0,9.919058E-1,1.0995004E0,-3.7607977E-1,-1.1609619E0,-2.0145094E-1,2.2559183E0,9.506101E-1,-6.2155E-1,-2.5799894E0,1.4339032E0,1.8468052E-1,2.7188355E-1,-7.0265573E-1,1.2961357E0,3.1556946E-1,2.0869586E0,-2.3650113E-1,-1.7680158E-1,7.87522E-1,5.797557E-1,-1.1183187E0,3.229839E0,2.1476896E0,3.8408787E0,5.014603E0,7.5187665E-1,2.2377267E0,-3.234268E-1,3.4107594E0,4.0512233E0,7.0710963E-1,5.147238E0,1.9369841E0,6.122094E0,3.1455476E0,6.184422E0,7.757909E0,-6.671653E-2,4.260708E0,1.809313E0,5.7835603E0,4.184664E0,5.834058E0,5.2693324E0,2.4918187E0],"categories":[],"categories_nodes":[],"categories_segments":[],"categories_sizes":[],"default_left":[1,0,1,0,1,1,0,0,1,0,0,0,0,0,0,0,0,0,0,1,0,0,0,0,0,1,0,0,0,0,0,0,0,0,0,0,0,0,0,0,0,0,0,0,0,0,0,0,0,0,0,0,0,0,0,0,0,0,0,0,0,0,0,0,0,0,0,0,0,0,0,0,0,0,0,0,0,0,0,0,0,0,0,0,0,0,0,0,0,0,0,0,0,0,0,0,0,0,0,0,0,0,0,0,0,0,0,0,0,0,0,0,0,0,0,0,0,0,0,0,0,0,0,0,0,0,0],"id":10,"left_children":[1,3,5,7,9,11,13,15,17,19,21,23,25,27,29,31,33,35,37,39,41,43,45,47,49,51,53,55,57,59,61,63,65,67,69,71,73,75,77,79,81,83,85,87,89,91,93,95,97,99,101,103,105,107,109,111,113,115,117,119,121,123,125,-1,-1,-1,-1,-1,-1,-1,-1,-1,-1,-1,-1,-1,-1,-1,-1,-1,-1,-1,-1,-1,-1,-1,-1,-1,-1,-1,-1,-1,-1,-1,-1,-1,-1,-1,-1,-1,-1,-1,-1,-1,-1,-1,-1,-1,-1,-1,-1,-1,-1,-1,-1,-1,-1,-1,-1,-1,-1,-1,-1,-1,-1,-1,-1],"loss_changes":[8.402284E8,2.1330123E8,1.7095494E8,2.6234112E7,2.4879802E7,5.673808E7,2.9040672E7,5.899648E6,5.862504E6,1.0899515E7,7.699853E6,1.7125628E7,3.104016E7,1.0902272E7,4.749756E6,1.869936E6,2.50672E6,2.508616E6,3.513583E6,6.6241875E6,1.1506566E7,8.18748E6,8.886433E6,1.261372E7,4.219723E6,1.139272E7,7.146468E6,4.172544E6,2.845184E6,1.792984E6,2.602192E6,3.67688E5,1.29168E6,1.987744E6,4.21492E5,1.636784E6,9.11142E5,2.0139708E6,5.95152E5,5.198631E6,2.171945E6,1.1074635E7,4.240858E6,5.130626E6,8.5342375E5,1.946379E6,4.3318875E6,4.051361E6,6.0946E6,3.648456E6,1.510313E6,5.260016E6,2.20284E6,5.94674E6,2.9090828E6,2.1061735E6,4.18776E6,2.228256E6,1.307728E6,1.124314E6,1.525406E6,1.054988E6,7.4446E5,0E0,0E0,0E0,0E0,0E0,0E0,0E0,0E0,0E0,0E0,0E0,0E0,0E0,0E0,0E0,0E0,0E0,0E0,0E0,0E0,0E0,0E0,0E0,0E0,0E0,0E0,0E0,0E0,0E0,0E0,0E0,0E0,0E0,0E0,0E0,0E0,0E0,0E0,0E0,0E0,0E0,0E0,0E0,0E0,0E0,0E0,0E0,0E0,0E0,0E0,0E0,0E0,0E0,0E0,0E0,0E0,0E0,0E0,0E0,0E0,0E0,0E0,0E0,0E0],"parents":[2147483647,0,0,1,1,2,2,3,3,4,4,5,5,6,6,7,7,8,8,9,9,10,10,11,11,12,12,13,13,14,14,15,15,16,16,17,17,18,18,19,19,20,20,21,21,22,22,23,23,24,24,25,25,26,26,27,27,28,28,29,29,30,30,31,31,32,32,33,33,34,34,35,35,36,36,37,37,38,38,39,39,40,40,41,41,42,42,43,43,44,44,45,45,46,46,47,47,48,48,49,49,50,50,51,51,52,52,53,53,54,54,55,55,56,56,57,57,58,58,59,59,60,60,61,61,62,62],"right_children":[2,4,6,8,10,12,14,16,18,20,22,24,26,28,30,32,34,36,38,40,42,44,46,48,50,52,54,56,58,60,62,64,66,68,70,72,74,76,78,80,82,84,86,88,90,92,94,96,98,100,102,104,106,108,110,112,114,116,118,120,122,124,126,-1,-1,-1,-1,-1,-1,-1,-1,-1,-1,-1,-1,-1,-1,-1,-1,-1,-1,-1,-1,-1,-1,-1,-1,-1,-1,-1,-1,-1,-1,-1,-1,-1,-1,-1,-1,-1,-1,-1,-1,-1,-1,-1,-1,-1,-1,-1,-1,-1,-1,-1,-1,-1,-1,-1,-1,-1,-1,-1,-1,-1,-1,-1,-1],"split_conditions":[1.5625E2,1.0272E2,2.3903E2,7.615E1,1.34E2,2.0169566E2,2.71E1,5.9244946E1,1.0193621E2,2.39E1,2.48E1,9.3E0,8.3E0,2.8164E2,2.58019E2,4.639E1,9.1E1,1.89E2,8.1E1,1.6722E2,5.5E1,1.1E1,3E1,1.6777586E2,5.7E1,2.58019E2,5.7E1,4E0,3.666E2,1E0,9.3E0,3.579E1,1.16E1,9E0,1.02E1,1.9E1,2.18E1,3.05E1,9.1E1,7.6E0,2.78E2,1E1,2.43E2,3E0,5E0,5E0,6.7E1,3.04E1,8.4E1,1.4004626E2,3E0,2.74E1,2.8854996E2,1.7685E2,1.1E1,5E0,8.7E1,9.1E1,2.64E2,2.2223E2,6E1,5E0,1E0,-3.1052952E0,-2.66524E0,-2.2193563E0,-2.8991358E0,-1.9286379E0,-1.4335833E0,-2.3358464E0,-2.9802504E0,-1.7689466E0,-1.2133756E0,-4.8597988E-1,-1.2654704E0,-1.7690118E-1,-9.6006864E-1,-1.2379832E0,-1.9248295E0,6.0714746E-1,-5.4366326E-1,2.888928E0,9.919058E-1,1.0995004E0,-3.7607977E-1,-1.1609619E0,-2.0145094E-1,2.2559183E0,9.506101E-1,-6.2155E-1,-2.5799894E0,1.4339032E0,1.8468052E-1,2.7188355E-1,-7.0265573E-1,1.2961357E0,3.1556946E-1,2.0869586E0,-2.3650113E-1,-1.7680158E-1,7.87522E-1,5.797557E-1,-1.1183187E0,3.229839E0,2.1476896E0,3.8408787E0,5.014603E0,7.5187665E-1,2.2377267E0,-3.234268E-1,3.4107594E0,4.0512233E0,7.0710963E-1,5.147238E0,1.9369841E0,6.122094E0,3.1455476E0,6.184422E0,7.757909E0,-6.671653E-2,4.260708E0,1.809313E0,5.7835603E0,4.184664E0,5.834058E0,5.2693324E0,2.4918187E0],"split_indices":[5,6,6,6,0,0,10,0,0,10,10,12,12,6,3,6,15,13,15,6,15,12,15,3,15,3,15,23,0,25,12,6,12,23,12,24,10,10,15,12,13,24,13,25,25,25,15,10,15,0,25,10,0,6,23,25,15,15,13,5,11,25,25,0,0,0,0,0,0,0,0,0,0,0,0,0,0,0,0,0,0,0,0,0,0,0,0,0,0,0,0,0,0,0,0,0,0,0,0,0,0,0,0,0,0,0,0,0,0,0,0,0,0,0,0,0,0,0,0,0,0,0,0,0,0,0,0],"split_type":[0,0,0,0,0,0,0,0,0,0,0,0,0,0,0,0,0,0,0,0,0,0,0,0,0,0,0,0,0,0,0,0,0,0,0,0,0,0,0,0,0,0,0,0,0,0,0,0,0,0,0,0,0,0,0,0,0,0,0,0,0,0,0,0,0,0,0,0,0,0,0,0,0,0,0,0,0,0,0,0,0,0,0,0,0,0,0,0,0,0,0,0,0,0,0,0,0,0,0,0,0,0,0,0,0,0,0,0,0,0,0,0,0,0,0,0,0,0,0,0,0,0,0,0,0,0,0],"sum_hessian":[1.01772E6,7.1304E5,3.0468E5,3.86818E5,3.26222E5,2.5047E5,5.421E4,2.05719E5,1.81099E5,2.13396E5,1.12826E5,1.48522E5,1.01948E5,3.6917E4,1.7293E4,9.7309E4,1.0841E5,1.34353E5,4.6746E4,4.6494E4,1.66902E5,3.4897E4,7.7929E4,9.4094E4,5.4428E4,6.461E4,3.7338E4,1.8858E4,1.8059E4,9.085E3,8.208E3,2.0782E4,7.6527E4,9.4359E4,1.4051E4,7.7652E4,5.6701E4,3.3089E4,1.3657E4,4.0448E4,6.046E3,9.3639E4,7.3263E4,3.1095E4,3.802E3,2.0948E4,5.6981E4,4.2187E4,5.1907E4,4.6603E4,7.825E3,4.8372E4,1.6238E4,3.0265E4,7.073E3,1.888E3,1.697E4,1.1769E4,6.29E3,1.573E3,7.512E3,5.234E3,2.974E3,7.479E3,1.3303E4,6.8735E4,7.792E3,6.4828E4,2.9531E4,1.07E4,3.351E3,6.0675E4,1.6977E4,4.038E3,5.2663E4,1.7993E4,1.5096E4,8.699E3,4.958E3,2.3702E4,1.6746E4,2.909E3,3.137E3,1.5174E4,7.8465E4,5.8951E4,1.4312E4,1.2788E4,1.8307E4,3.126E3,6.76E2,1.7136E4,3.812E3,4.1218E4,1.5763E4,2.036E4,2.1827E4,4.8912E4,2.995E3,1.4035E4,3.2568E4,1.662E3,6.163E3,3.0626E4,1.7746E4,9.008E3,7.23E3,1.0116E4,2.0149E4,6.507E3,5.66E2,9.9E2,8.98E2,1.5883E4,1.087E3,1.1099E4,6.7E2,1.939E3,4.351E3,1.68E2,1.405E3,7.263E3,2.49E2,3.935E3,1.299E3,2.65E2,2.709E3],"tree_param":{"num_deleted":"0","num_feature":"30","num_nodes":"127","size_leaf_vector":"1"}},{"base_weights":[-4.7807157E-2,-1.962074E1,3.829126E1,-3.362885E1,-2.4254963E0,2.6429544E1,8.1704025E1,-3.968512E1,-2.4032923E1,-9.5085945E0,1.0328287E1,1.5579092E1,4.048712E1,5.569758E1,1.0125183E2,-4.5029434E1,-3.4898743E1,-7.079798E0,-2.5946774E1,-1.7367626E1,-3.8571553E0,1.3752885E1,-2.4761543E1,1.2979047E1,5.5175465E1,4.7427593E1,1.8391752E1,7.036393E1,2.2730547E1,8.7773E1,1.1848587E2,-5.0909115E1,-4.2058346E1,-3.311016E1,-4.6721878E1,-1.9633823E1,6.313827E0,-2.9657133E1,-2.1133177E1,-1.5498817E1,-3.729097E1,1.0736926E0,-1.1383024E1,2.1002234E1,-1.3358822E0,2.1403128E2,-2.5807934E1,1.9176994E1,9.206846E-1,3.0550138E1,8.6986244E1,4.2351562E1,7.1546936E1,2.3993925E1,-1.4201985E1,8.3360664E1,2.5146408E1,4.993683E1,8.745955E0,8.052578E1,1.0697829E2,1.3861397E2,1.08623085E2,-2.9397829E0,-2.4422884E0,-2.0392005E0,-2.7056968E0,-1.7901869E0,-1.3544412E0,-3.0862265E0,-2.203099E0,-1.4548963E0,-2.248775E-1,8.375413E-1,-1.203724E0,-1.3708714E0,-1.7981936E0,-1.1531756E0,-3.2685858E-1,-5.7020515E-1,-1.1976885E0,-2.1875303E0,-1.3628547E0,-2.4527936E-1,3.7528655E-1,-7.36581E-1,3.921053E-1,8.4771997E-1,2.1267593E0,4.5075613E-1,-3.8579914E-1,5.681731E0,1.1380378E1,-6.832155E-1,-1.8193629E0,1.5474025E0,5.019634E-1,-3.4095824E-1,7.7655196E-1,7.286286E-1,2.330951E0,3.1809514E0,6.1732974E0,2.290456E0,1.2176908E0,2.7244303E0,4.3341537E0,7.8943676E-1,1.9816223E0,-9.5379114E-1,1.9465733E0,4.8575E0,3.4695992E0,2.6830137E0,8.321516E-1,4.5321136E0,2.2274935E0,1.313536E0,-6.804316E-1,4.305003E0,2.7349927E0,4.6121154E0,6.0817924E0,6.1895165E0,7.7042465E0,5.4977145E0,-2.3776224E-1],"categories":[],"categories_nodes":[],"categories_segments":[],"categories_sizes":[],"default_left":[1,0,1,0,1,0,0,0,0,1,0,0,0,0,0,0,0,0,1,0,0,0,0,0,0,1,0,0,0,0,0,0,0,0,0,0,0,0,0,0,0,0,0,1,0,0,0,0,0,0,0,0,0,0,0,0,0,0,0,0,0,0,0,0,0,0,0,0,0,0,0,0,0,0,0,0,0,0,0,0,0,0,0,0,0,0,0,0,0,0,0,0,0,0,0,0,0,0,0,0,0,0,0,0,0,0,0,0,0,0,0,0,0,0,0,0,0,0,0,0,0,0,0,0,0,0,0],"id":11,"left_children":[1,3,5,7,9,11,13,15,17,19,21,23,25,27,29,31,33,35,37,39,41,43,45,47,49,51,53,55,57,59,61,63,65,67,69,71,73,75,77,79,81,83,85,87,89,91,93,95,97,99,101,103,105,107,109,111,113,115,117,119,121,123,125,-1,-1,-1,-1,-1,-1,-1,-1,-1,-1,-1,-1,-1,-1,-1,-1,-1,-1,-1,-1,-1,-1,-1,-1,-1,-1,-1,-1,-1,-1,-1,-1,-1,-1,-1,-1,-1,-1,-1,-1,-1,-1,-1,-1,-1,-1,-1,-1,-1,-1,-1,-1,-1,-1,-1,-1,-1,-1,-1,-1,-1,-1,-1,-1],"loss_changes":[7.635762E8,1.622615E8,1.7709318E8,2.1572864E7,2.731942E7,4.119923E7,3.7512544E7,5.820064E6,4.660288E6,8.635732E6,1.2976624E7,1.5693856E7,1.8043168E7,1.531152E7,9.776384E6,1.87616E6,2.537408E6,2.4503168E6,2.304552E6,3.027652E6,4.197179E6,1.0761528E7,2.40478E6,1.069135E7,7.355358E6,1.0959152E7,5.136211E6,1.2879264E7,3.7102745E6,3.282416E6,3.65496E6,5.84392E5,1.095232E6,1.690512E6,6.26752E5,1.0774055E6,2.2367175E6,1.028516E6,1.582872E6,2.574082E6,4.50829E5,2.6280915E6,2.882347E6,5.791618E6,2.108675E6,3.1382375E4,1.2278165E6,1.0162776E7,5.492157E6,1.3590245E6,3.485396E6,4.602088E6,4.014376E6,3.07924E6,1.0692272E6,3.272592E6,1.1859688E6,7.21993E5,2.5244598E6,2.46724E6,1.387344E6,1.374368E6,1.873872E6,0E0,0E0,0E0,0E0,0E0,0E0,0E0,0E0,0E0,0E0,0E0,0E0,0E0,0E0,0E0,0E0,0E0,0E0,0E0,0E0,0E0,0E0,0E0,0E0,0E0,0E0,0E0,0E0,0E0,0E0,0E0,0E0,0E0,0E0,0E0,0E0,0E0,0E0,0E0,0E0,0E0,0E0,0E0,0E0,0E0,0E0,0E0,0E0,0E0,0E0,0E0,0E0,0E0,0E0,0E0,0E0,0E0,0E0,0E0,0E0,0E0,0E0,0E0,0E0],"parents":[2147483647,0,0,1,1,2,2,3,3,4,4,5,5,6,6,7,7,8,8,9,9,10,10,11,11,12,12,13,13,14,14,15,15,16,16,17,17,18,18,19,19,20,20,21,21,22,22,23,23,24,24,25,25,26,26,27,27,28,28,29,29,30,30,31,31,32,32,33,33,34,34,35,35,36,36,37,37,38,38,39,39,40,40,41,41,42,42,43,43,44,44,45,45,46,46,47,47,48,48,49,49,50,50,51,51,52,52,53,53,54,54,55,55,56,56,57,57,58,58,59,59,60,60,61,61,62,62],"right_children":[2,4,6,8,10,12,14,16,18,20,22,24,26,28,30,32,34,36,38,40,42,44,46,48,50,52,54,56,58,60,62,64,66,68,70,72,74,76,78,80,82,84,86,88,90,92,94,96,98,100,102,104,106,108,110,112,114,116,118,120,122,124,126,-1,-1,-1,-1,-1,-1,-1,-1,-1,-1,-1,-1,-1,-1,-1,-1,-1,-1,-1,-1,-1,-1,-1,-1,-1,-1,-1,-1,-1,-1,-1,-1,-1,-1,-1,-1,-1,-1,-1,-1,-1,-1,-1,-1,-1,-1,-1,-1,-1,-1,-1,-1,-1,-1,-1,-1,-1,-1,-1,-1,-1,-1,-1,-1],"split_conditions":[1.4766E2,9.866E1,2.5596434E2,7.97E1,1.3692427E2,1.749911E2,1E1,6.051222E1,2.39E1,1.127E2,8.5E1,1.1E1,1.01E1,9.8E0,3.233E2,5.151E1,9.1E1,2.76E2,8.566177E1,9E1,8.5E0,8.5E0,2E0,9.4E0,6.1E1,2.446E2,5.7E1,5E0,2.5E1,5E0,1.97E1,3.579E1,1.16E1,9E0,2.5E1,9.1E1,7.8E0,8.6E0,1E1,8.5E0,4E0,1.93E2,3.87E1,1.7176274E2,3.3E1,3E2,9.1E1,5E0,3.35E1,1.9198E2,1.96E2,6.9E1,1E1,2.0297E2,7.7E1,6.6E0,3.4E1,1.4E1,5E0,2.73E1,2.7831412E2,3E0,1.14E1,-2.9397829E0,-2.4422884E0,-2.0392005E0,-2.7056968E0,-1.7901869E0,-1.3544412E0,-3.0862265E0,-2.203099E0,-1.4548963E0,-2.248775E-1,8.375413E-1,-1.203724E0,-1.3708714E0,-1.7981936E0,-1.1531756E0,-3.2685858E-1,-5.7020515E-1,-1.1976885E0,-2.1875303E0,-1.3628547E0,-2.4527936E-1,3.7528655E-1,-7.36581E-1,3.921053E-1,8.4771997E-1,2.1267593E0,4.5075613E-1,-3.8579914E-1,5.681731E0,1.1380378E1,-6.832155E-1,-1.8193629E0,1.5474025E0,5.019634E-1,-3.4095824E-1,7.7655196E-1,7.286286E-1,2.330951E0,3.1809514E0,6.1732974E0,2.290456E0,1.2176908E0,2.7244303E0,4.3341537E0,7.8943676E-1,1.9816223E0,-9.5379114E-1,1.9465733E0,4.8575E0,3.4695992E0,2.6830137E0,8.321516E-1,4.5321136E0,2.2274935E0,1.313536E0,-6.804316E-1,4.305003E0,2.7349927E0,4.6121154E0,6.0817924E0,6.1895165E0,7.7042465E0,5.4977145E0,-2.3776224E-1],"split_indices":[6,5,0,6,0,0,23,0,14,6,15,23,12,12,0,6,15,9,0,15,12,12,23,12,11,4,15,23,11,25,14,6,12,23,14,11,12,12,23,12,25,9,14,4,15,0,15,23,14,6,6,15,23,6,11,12,15,15,25,14,4,25,8,0,0,0,0,0,0,0,0,0,0,0,0,0,0,0,0,0,0,0,0,0,0,0,0,0,0,0,0,0,0,0,0,0,0,0,0,0,0,0,0,0,0,0,0,0,0,0,0,0,0,0,0,0,0,0,0,0,0,0,0,0,0,0,0],"split_type":[0,0,0,0,0,0,0,0,0,0,0,0,0,0,0,0,0,0,0,0,0,0,0,0,0,0,0,0,0,0,0,0,0,0,0,0,0,0,0,0,0,0,0,0,0,0,0,0,0,0,0,0,0,0,0,0,0,0,0,0,0,0,0,0,0,0,0,0,0,0,0,0,0,0,0,0,0,0,0,0,0,0,0,0,0,0,0,0,0,0,0,0,0,0,0,0,0,0,0,0,0,0,0,0,0,0,0,0,0,0,0,0,0,0,0,0,0,0,0,0,0,0,0,0,0,0,0],"sum_hessian":[1.017546E6,6.73639E5,3.43907E5,3.71222E5,3.02417E5,2.70107E5,7.38E4,2.27584E5,1.43638E5,1.94434E5,1.07983E5,1.52444E5,1.17663E5,3.167E4,4.213E4,1.07521E5,1.20063E5,1.4571E4,1.29067E5,8.1331E4,1.13103E5,9.8382E4,9.601E3,1.43052E5,9.392E3,8.9537E4,2.8126E4,2.1918E4,9.752E3,2.3644E4,1.8486E4,3.6088E4,7.1433E4,1.0429E5,1.5773E4,7.521E3,7.05E3,7.2883E4,5.6184E4,7.4358E4,6.973E3,6.8333E4,4.477E4,6.6454E4,3.1928E4,4.1E1,9.56E3,9.4486E4,4.8566E4,5.295E3,4.097E3,7.3972E4,1.5565E4,2.4001E4,4.125E3,1.7024E4,4.894E3,3.31E3,6.442E3,1.717E4,6.474E3,6.075E3,1.2411E4,7.478E3,2.861E4,6.4608E4,6.825E3,7.2053E4,3.2237E4,2.372E3,1.3401E4,4.627E3,2.894E3,5.248E3,1.802E3,5.3787E4,1.9096E4,4.9621E4,6.563E3,5.0098E4,2.426E4,4.24E3,2.733E3,3.5413E4,3.292E4,3.8129E4,6.641E3,5.594E4,1.0514E4,1.2175E4,1.9753E4,6E0,3.5E1,4.452E3,5.108E3,4.1292E4,5.3194E4,3.1748E4,1.6818E4,2.656E3,2.639E3,2.499E3,1.598E3,6.205E4,1.1922E4,7.32E3,8.245E3,1.5743E4,8.258E3,3.779E3,3.46E2,8.564E3,8.46E3,1.123E3,3.771E3,3.85E2,2.925E3,3.611E3,2.831E3,1.412E4,3.05E3,3.232E3,3.242E3,3.107E3,2.968E3,1.2267E4,1.44E2],"tree_param":{"num_deleted":"0","num_feature":"30","num_nodes":"127","size_leaf_vector":"1"}},{"base_weights":[-7.0879323E-4,-1.8274912E1,3.707136E1,-3.1980413E1,-1.857891E0,2.557765E1,7.807588E1,-3.8019176E1,-2.3592886E1,-8.556675E0,1.1705364E1,1.4079123E1,3.859652E1,5.324837E1,9.659674E1,-4.422861E1,-3.3619328E1,-4.7176843E0,-2.5004772E1,-1.5652826E1,-3.5824013E0,2.6281475E1,4.751058E0,4.137918E0,2.2454203E1,2.9281939E1,5.5120583E1,6.237911E1,2.1221657E1,8.463511E1,1.1537541E2,-5.1373997E1,-4.226747E1,-3.1982693E1,-4.1842457E1,-2.2858135E1,3.1273466E-1,-2.9984009E1,-2.0311901E1,4.262331E0,-1.841664E1,-2.4521773E0,-2.9120403E1,1.9452362E1,4.956768E1,8.021921E0,-2.4514524E1,3.6450886E1,1.7014581E0,3.5218098E1,1.5396276E1,3.738633E1,1.3237625E1,4.1427376E1,7.181586E1,7.9301704E1,4.5427883E1,4.459601E1,1.2829885E1,8.972471E1,5.9021923E1,1.3083218E2,1.0139782E2,-2.7523687E0,-2.366884E0,-2.2802043E0,-1.9228693E0,-1.4348626E0,-1.7580665E0,-2.4418013E0,-1.8260746E0,-1.313731E0,-1.2842502E-3,-1.7082964E-1,9.2571634E-1,-1.6673993E0,-1.270243E0,-9.0792006E-1,-1.6605799E0,6.286302E-1,-6.236133E-1,-1.1722853E0,-6.66562E-1,8.69137E-2,-3.5963988E-1,1.1922966E0,-1.5084387E0,1.1433699E0,-9.7891206E-1,3.814109E0,2.051005E0,6.7824566E-1,2.238991E-2,-7.239379E-1,-2.1975439E0,1.4610933E0,4.8310823E0,3.1515446E-1,-6.41132E-1,1.0518531E0,2.1433027E0,1.0256139E0,-8.206777E-1,2.1427972E0,1.2647021E0,2.5106716E0,2.89202E-1,1.7615021E0,2.8557653E0,3.0167835E0,4.8785424E0,4.43726E0,2.9242513E0,4.194896E0,1.4352934E0,1.4405097E0,5.295211E0,5.763846E0,5.4485303E-1,4.744547E0,2.725722E0,2.5624044E0,4.865083E0,6.9294887E0,4.8381433E0,5.131177E0,-3.6541992E-1],"categories":[],"categories_nodes":[],"categories_segments":[],"categories_sizes":[],"default_left":[1,0,1,1,1,0,0,0,0,0,0,0,0,0,0,0,0,0,0,0,0,0,0,0,0,0,0,0,0,0,0,1,0,0,0,0,0,0,0,0,0,0,0,0,0,0,0,0,0,0,0,0,0,0,0,0,0,0,0,0,0,0,0,0,0,0,0,0,0,0,0,0,0,0,0,0,0,0,0,0,0,0,0,0,0,0,0,0,0,0,0,0,0,0,0,0,0,0,0,0,0,0,0,0,0,0,0,0,0,0,0,0,0,0,0,0,0,0,0,0,0,0,0,0,0,0,0],"id":12,"left_children":[1,3,5,7,9,11,13,15,17,19,21,23,25,27,29,31,33,35,37,39,41,43,45,47,49,51,53,55,57,59,61,63,65,67,69,71,73,75,77,79,81,83,85,87,89,91,93,95,97,99,101,103,105,107,109,111,113,115,117,119,121,123,125,-1,-1,-1,-1,-1,-1,-1,-1,-1,-1,-1,-1,-1,-1,-1,-1,-1,-1,-1,-1,-1,-1,-1,-1,-1,-1,-1,-1,-1,-1,-1,-1,-1,-1,-1,-1,-1,-1,-1,-1,-1,-1,-1,-1,-1,-1,-1,-1,-1,-1,-1,-1,-1,-1,-1,-1,-1,-1,-1,-1,-1,-1,-1,-1],"loss_changes":[6.8973555E8,1.5344224E8,1.584287E8,1.882432E7,2.8191764E7,3.9304864E7,3.3836736E7,5.902208E6,4.146088E6,7.331484E6,1.039838E7,1.1608214E7,1.89516E7,9.19464E6,9.458336E6,1.253584E6,1.700832E6,9.881974E5,3.38184E6,4.711382E6,3.524441E6,5.268142E6,6.648208E6,5.019165E6,6.81658E6,1.0239592E7,1.0145104E7,7.015832E6,1.3681782E6,3.351904E6,3.529712E6,2.83468E5,8.92216E5,1.100632E6,7.79344E5,1.83393E5,5.756152E5,1.081016E6,2.06961E6,1.4509252E6,1.921992E6,2.3229658E6,2.88079E5,3.415627E6,1.712426E6,2.6226488E6,1.3612635E6,1.941517E6,3.9622998E6,2.921336E6,7.930612E6,3.459496E6,7.284155E6,2.369264E6,5.907848E6,2.401768E6,7.863178E6,1.780604E6,1.0157337E6,3.902496E6,1.266277E6,2.043864E6,1.148776E6,0E0,0E0,0E0,0E0,0E0,0E0,0E0,0E0,0E0,0E0,0E0,0E0,0E0,0E0,0E0,0E0,0E0,0E0,0E0,0E0,0E0,0E0,0E0,0E0,0E0,0E0,0E0,0E0,0E0,0E0,0E0,0E0,0E0,0E0,0E0,0E0,0E0,0E0,0E0,0E0,0E0,0E0,0E0,0E0,0E0,0E0,0E0,0E0,0E0,0E0,0E0,0E0,0E0,0E0,0E0,0E0,0E0,0E0,0E0,0E0,0E0,0E0,0E0,0E0],"parents":[2147483647,0,0,1,1,2,2,3,3,4,4,5,5,6,6,7,7,8,8,9,9,10,10,11,11,12,12,13,13,14,14,15,15,16,16,17,17,18,18,19,19,20,20,21,21,22,22,23,23,24,24,25,25,26,26,27,27,28,28,29,29,30,30,31,31,32,32,33,33,34,34,35,35,36,36,37,37,38,38,39,39,40,40,41,41,42,42,43,43,44,44,45,45,46,46,47,47,48,48,49,49,50,50,51,51,52,52,53,53,54,54,55,55,56,56,57,57,58,58,59,59,60,60,61,61,62,62],"right_children":[2,4,6,8,10,12,14,16,18,20,22,24,26,28,30,32,34,36,38,40,42,44,46,48,50,52,54,56,58,60,62,64,66,68,70,72,74,76,78,80,82,84,86,88,90,92,94,96,98,100,102,104,106,108,110,112,114,116,118,120,122,124,126,-1,-1,-1,-1,-1,-1,-1,-1,-1,-1,-1,-1,-1,-1,-1,-1,-1,-1,-1,-1,-1,-1,-1,-1,-1,-1,-1,-1,-1,-1,-1,-1,-1,-1,-1,-1,-1,-1,-1,-1,-1,-1,-1,-1,-1,-1,-1,-1,-1,-1,-1,-1,-1,-1,-1,-1,-1,-1,-1,-1,-1,-1,-1,-1],"split_conditions":[1.4893E2,1.0026E2,2.5596434E2,7.6E1,1.386E2,1.822E2,1E1,6.168E1,2.48E1,1.03E2,2.48E1,1.452E2,1E1,5E0,3.307E2,4.49E1,9.1E1,2E2,8.555196E1,2.18E1,9E1,1.9964961E2,8.1E1,1.93E1,2.76E1,5E1,2.1004E2,4E0,3.4E1,2.76E1,2.18E1,3.6E1,1.52E2,2.94E1,3E0,1.4004626E2,1.34E2,1.86E2,8.9E1,3.01E2,1.64E2,3.04E1,1.34E1,8.5E1,8.6E-1,4.5E1,2.55E2,1.41E1,5.7E1,2.18E2,5.5E1,2.81E2,1.93E1,5E0,5E0,2.94E1,2.3E1,3.7E1,2.48E1,7.8E1,5E0,7.3E1,1.2E1,-2.7523687E0,-2.366884E0,-2.2802043E0,-1.9228693E0,-1.4348626E0,-1.7580665E0,-2.4418013E0,-1.8260746E0,-1.313731E0,-1.2842502E-3,-1.7082964E-1,9.2571634E-1,-1.6673993E0,-1.270243E0,-9.0792006E-1,-1.6605799E0,6.286302E-1,-6.236133E-1,-1.1722853E0,-6.66562E-1,8.69137E-2,-3.5963988E-1,1.1922966E0,-1.5084387E0,1.1433699E0,-9.7891206E-1,3.814109E0,2.051005E0,6.7824566E-1,2.238991E-2,-7.239379E-1,-2.1975439E0,1.4610933E0,4.8310823E0,3.1515446E-1,-6.41132E-1,1.0518531E0,2.1433027E0,1.0256139E0,-8.206777E-1,2.1427972E0,1.2647021E0,2.5106716E0,2.89202E-1,1.7615021E0,2.8557653E0,3.0167835E0,4.8785424E0,4.43726E0,2.9242513E0,4.194896E0,1.4352934E0,1.4405097E0,5.295211E0,5.763846E0,5.4485303E-1,4.744547E0,2.725722E0,2.5624044E0,4.865083E0,6.9294887E0,4.8381433E0,5.131177E0,-3.6541992E-1],"split_indices":[6,6,0,0,0,3,23,6,10,0,10,0,23,23,0,6,15,9,3,10,15,0,15,10,10,15,6,25,15,10,10,0,13,10,25,0,0,13,15,13,13,10,10,15,21,15,9,8,15,9,15,13,10,25,25,10,11,11,10,15,25,15,8,0,0,0,0,0,0,0,0,0,0,0,0,0,0,0,0,0,0,0,0,0,0,0,0,0,0,0,0,0,0,0,0,0,0,0,0,0,0,0,0,0,0,0,0,0,0,0,0,0,0,0,0,0,0,0,0,0,0,0,0,0,0,0,0],"split_type":[0,0,0,0,0,0,0,0,0,0,0,0,0,0,0,0,0,0,0,0,0,0,0,0,0,0,0,0,0,0,0,0,0,0,0,0,0,0,0,0,0,0,0,0,0,0,0,0,0,0,0,0,0,0,0,0,0,0,0,0,0,0,0,0,0,0,0,0,0,0,0,0,0,0,0,0,0,0,0,0,0,0,0,0,0,0,0,0,0,0,0,0,0,0,0,0,0,0,0,0,0,0,0,0,0,0,0,0,0,0,0,0,0,0,0,0,0,0,0,0,0,0,0,0,0,0,0],"sum_hessian":[1.018114E6,6.81954E5,3.3616E5,3.7167E5,3.10284E5,2.62564E5,7.3596E4,2.16089E5,1.55581E5,2.07702E5,1.02582E5,1.39424E5,1.2314E5,3.1446E4,4.215E4,8.9612E4,1.26477E5,1.0828E4,1.44753E5,8.5594E4,1.22108E5,3.3133E4,6.9449E4,6.3752E4,7.5672E4,7.8751E4,4.4389E4,2.4469E4,6.977E3,2.5752E4,1.6398E4,1.9293E4,7.0319E4,1.05487E5,2.099E4,2.35E3,8.478E3,7.0231E4,7.4522E4,1.0431E4,7.5163E4,1.16934E5,5.174E3,2.5621E4,7.512E3,6.2468E4,6.981E3,4.469E3,5.9283E4,2.6943E4,4.8729E4,5.2321E4,2.643E4,2.4389E4,2E4,1.2243E4,1.2226E4,1.842E3,5.135E3,2.1481E4,4.271E3,7.783E3,8.615E3,1.0094E4,9.199E3,3.7483E4,3.2836E4,5.1877E4,5.361E4,9.066E3,1.1924E4,2.044E3,3.06E2,7.037E3,1.441E3,4.0484E4,2.9747E4,6.3863E4,1.0659E4,6.97E3,3.461E3,3.7789E4,3.7374E4,6.2069E4,5.4865E4,1E2,5.074E3,2.356E4,2.061E3,1.819E3,5.693E3,3.607E4,2.6398E4,4.605E3,2.376E3,3.991E3,4.78E2,4.502E4,1.4263E4,9.441E3,1.7502E4,4.1978E4,6.751E3,3.6024E4,1.6297E4,4.433E3,2.1997E4,1.7485E4,6.904E3,1.3836E4,6.164E3,8.42E3,3.823E3,3.703E3,8.523E3,1.466E3,3.76E2,9.4E1,5.041E3,1.8731E4,2.75E3,3.552E3,7.19E2,6.337E3,1.446E3,8.519E3,9.6E1],"tree_param":{"num_deleted":"0","num_feature":"30","num_nodes":"127","size_leaf_vector":"1"}},{"base_weights":[-2.9716555E-3,-2.2835056E1,2.6814432E1,-3.2927322E1,-1.01419325E1,1.6403776E1,6.774142E1,-3.78487E1,-2.6493263E1,4.628977E0,-1.3789408E1,7.8082013E0,3.1485748E1,8.491876E1,4.1447067E1,-4.2985508E1,-3.414021E1,-2.8974209E1,-1.9251728E1,7.6633406E0,-3.4015553E1,-1.9397787E1,-7.019197E0,2.3729613E0,1.8882809E1,3.7121326E1,5.442162E0,6.969319E1,1.0633105E2,1.986481E1,5.354771E1,-4.8912178E1,-4.0813667E1,-3.300729E1,-4.5397118E1,-3.1785694E1,-2.3729582E1,-1.7771412E1,-4.497696E1,5.889696E-1,2.194334E1,-4.4961468E1,-2.7825663E1,-2.6734402E1,-1.6890738E1,-9.881876E0,3.2719223E0,8.857957E0,-4.39731E0,2.3916384E1,3.4601824E0,4.689025E1,2.4097637E1,1.8816736E1,-3.0189877E0,7.455624E1,1.391663E1,9.590659E1,1.2202937E2,3.4776886E0,2.5853594E1,7.663279E1,4.4328568E1,-2.6635966E0,-2.2682045E0,-1.9759305E0,-2.5232098E0,-1.6900933E0,-1.2831949E0,-2.522045E0,-1.9992484E0,-1.8004605E0,-1.4438285E0,-8.939813E-1,-1.5253322E0,-1.0628833E0,-4.4191667E-1,-2.390796E0,-1.5364236E0,-6.737792E-1,3.5725912E-1,1.3567075E0,-6.283113E-1,-2.283874E0,1.1192043E0,-1.2440459E0,-2.1392927E0,-1.5510865E0,-9.978879E-1,-7.176143E-1,-1.1656349E0,-8.166338E-2,-7.1971333E-1,4.727344E-2,1.4644526E0,9.8729545E-1,1.0321169E-1,-9.343073E-1,-8.90951E-2,1.5549045E0,2.969479E-1,9.771535E-1,-1.492811E-1,2.1150794E0,3.4648035E0,5.652883E-1,1.5763958E0,5.814649E-1,1.3350149E0,3.0366424E-1,-1.0533458E0,2.7945158E0,3.9862778E0,6.663959E-2,2.0646904E0,4.8635745E0,4.118428E-1,6.1879063E0,9.411645E-1,6.7759946E-2,3.4268434E0,1.8105897E0,9.906766E-1,3.2140605E0,4.8559384E0,3.706228E0,1.9898382E0],"categories":[],"categories_nodes":[],"categories_segments":[],"categories_sizes":[],"default_left":[0,0,1,1,0,1,0,0,0,0,1,1,0,0,0,0,0,0,0,1,0,0,0,0,0,0,0,0,1,0,0,1,0,0,0,0,0,0,0,0,0,0,0,0,0,0,1,0,0,0,0,1,0,0,0,0,0,0,0,0,0,1,0,0,0,0,0,0,0,0,0,0,0,0,0,0,0,0,0,0,0,0,0,0,0,0,0,0,0,0,0,0,0,0,0,0,0,0,0,0,0,0,0,0,0,0,0,0,0,0,0,0,0,0,0,0,0,0,0,0,0,0,0,0,0,0,0],"id":13,"left_children":[1,3,5,7,9,11,13,15,17,19,21,23,25,27,29,31,33,35,37,39,41,43,45,47,49,51,53,55,57,59,61,63,65,67,69,71,73,75,77,79,81,83,85,87,89,91,93,95,97,99,101,103,105,107,109,111,113,115,117,119,121,123,125,-1,-1,-1,-1,-1,-1,-1,-1,-1,-1,-1,-1,-1,-1,-1,-1,-1,-1,-1,-1,-1,-1,-1,-1,-1,-1,-1,-1,-1,-1,-1,-1,-1,-1,-1,-1,-1,-1,-1,-1,-1,-1,-1,-1,-1,-1,-1,-1,-1,-1,-1,-1,-1,-1,-1,-1,-1,-1,-1,-1,-1,-1,-1,-1],"loss_changes":[6.233878E8,7.044544E7,1.9948589E8,9.699232E6,1.312304E7,4.8387496E7,4.2879584E7,3.305072E6,2.384792E6,5.6566065E6,7.416872E6,1.4311056E7,1.9887216E7,1.8714592E7,9.7971E6,9.34656E5,1.284104E6,1.457384E6,1.289516E6,4.518298E6,2.3670125E5,1.964612E6,2.607376E6,7.002168E6,6.076166E6,1.4171376E7,2.7279948E6,9.103264E6,3.893408E6,1.3228225E6,5.112704E6,2.9938E5,6.63656E5,5.3356E5,2.4953E5,7.8992E5,1.367818E6,9.97665E5,7.30815E4,2.7581035E6,2.654548E6,6.21175E4,9.7880625E4,7.89874E5,1.297766E6,2.5772665E6,1.1658559E6,6.0253855E6,2.9158865E6,7.618644E6,1.9967912E6,6.541088E6,4.537766E6,5.28975E5,2.4231795E6,2.97448E6,9.277104E5,1.715712E6,1.696016E6,4.982647E5,6.16916E5,1.729316E6,2.316996E6,0E0,0E0,0E0,0E0,0E0,0E0,0E0,0E0,0E0,0E0,0E0,0E0,0E0,0E0,0E0,0E0,0E0,0E0,0E0,0E0,0E0,0E0,0E0,0E0,0E0,0E0,0E0,0E0,0E0,0E0,0E0,0E0,0E0,0E0,0E0,0E0,0E0,0E0,0E0,0E0,0E0,0E0,0E0,0E0,0E0,0E0,0E0,0E0,0E0,0E0,0E0,0E0,0E0,0E0,0E0,0E0,0E0,0E0,0E0,0E0,0E0,0E0,0E0,0E0],"parents":[2147483647,0,0,1,1,2,2,3,3,4,4,5,5,6,6,7,7,8,8,9,9,10,10,11,11,12,12,13,13,14,14,15,15,16,16,17,17,18,18,19,19,20,20,21,21,22,22,23,23,24,24,25,25,26,26,27,27,28,28,29,29,30,30,31,31,32,32,33,33,34,34,35,35,36,36,37,37,38,38,39,39,40,40,41,41,42,42,43,43,44,44,45,45,46,46,47,47,48,48,49,49,50,50,51,51,52,52,53,53,54,54,55,55,56,56,57,57,58,58,59,59,60,60,61,61,62,62],"right_children":[2,4,6,8,10,12,14,16,18,20,22,24,26,28,30,32,34,36,38,40,42,44,46,48,50,52,54,56,58,60,62,64,66,68,70,72,74,76,78,80,82,84,86,88,90,92,94,96,98,100,102,104,106,108,110,112,114,116,118,120,122,124,126,-1,-1,-1,-1,-1,-1,-1,-1,-1,-1,-1,-1,-1,-1,-1,-1,-1,-1,-1,-1,-1,-1,-1,-1,-1,-1,-1,-1,-1,-1,-1,-1,-1,-1,-1,-1,-1,-1,-1,-1,-1,-1,-1,-1,-1,-1,-1,-1,-1,-1,-1,-1,-1,-1,-1,-1,-1,-1,-1,-1,-1,-1,-1,-1],"split_conditions":[1.2706E2,9.006E1,2.2675E2,7.0598175E1,2.39E1,1.749911E2,2.74E1,5.909E1,1.9E1,1.14E1,1.043E2,1.545E2,1.06E1,2.6802E2,1.769E2,3.78E1,1.16E1,9E0,1.1E1,1.3116E2,9.44E1,8.645E1,2E1,8.1E0,1E1,2.74E1,3E1,1.08E1,3.0277E2,1.287E2,6.1E0,3.39E1,1.16E1,1.25E1,2E0,7.457E1,7.6E0,9.94E1,2.95E1,1.98E2,6E0,8.9E1,5E0,8E0,9.1E0,6E0,1.855E2,1E1,9.863303E1,3.12E1,2E0,2.4096864E2,1.5625E2,2.72E2,5E0,4E0,4E0,1.12E1,1.12E1,2.6802E2,3E0,2.5988806E2,1E0,-2.6635966E0,-2.2682045E0,-1.9759305E0,-2.5232098E0,-1.6900933E0,-1.2831949E0,-2.522045E0,-1.9992484E0,-1.8004605E0,-1.4438285E0,