{"learner":{"attributes":{"scikit_learn":"{\"_estimator_type\": \"regressor\"}"},"feature_names":["aqi_lag_1h","aqi_lag_6h","aqi_lag_12h","aqi_lag_24h","aqi_lag_48h","aqi_roll_mean_24h","aqi_roll_mean_7d","aqi_prev_day_max","wind_speed","wind_dir","temp","humidity","target_wind_speed","target_wind_dir","target_temp","target_humidity","industrial_pct","construction_pct","green_cover_pct","residential_pct","water_pct","nearest_dist_km","is_estimated","target_month","target_hour","target_weekday","target_is_winter","target_is_summer","target_is_crop_burn","target_is_festival"],"feature_types":["float","float","float","float","float","float","float","float","float","float","float","float","float","float","float","float","float","float","float","float","float","float","float","float","float","float","float","float","float","float"],"gradient_booster":{"model":{"cats":{"enc":[],"feature_segments":[],"sorted_idx":[]},"gbtree_model_param":{"num_parallel_tree":"1","num_trees":"250"},"iteration_indptr":[0,1,2,3,4,5,6,7,8,9,10,11,12,13,14,15,16,17,18,19,20,21,22,23,24,25,26,27,28,29,30,31,32,33,34,35,36,37,38,39,40,41,42,43,44,45,46,47,48,49,50,51,52,53,54,55,56,57,58,59,60,61,62,63,64,65,66,67,68,69,70,71,72,73,74,75,76,77,78,79,80,81,82,83,84,85,86,87,88,89,90,91,92,93,94,95,96,97,98,99,100,101,102,103,104,105,106,107,108,109,110,111,112,113,114,115,116,117,118,119,120,121,122,123,124,125,126,127,128,129,130,131,132,133,134,135,136,137,138,139,140,141,142,143,144,145,146,147,148,149,150,151,152,153,154,155,156,157,158,159,160,161,162,163,164,165,166,167,168,169,170,171,172,173,174,175,176,177,178,179,180,181,182,183,184,185,186,187,188,189,190,191,192,193,194,195,196,197,198,199,200,201,202,203,204,205,206,207,208,209,210,211,212,213,214,215,216,217,218,219,220,221,222,223,224,225,226,227,228,229,230,231,232,233,234,235,236,237,238,239,240,241,242,243,244,245,246,247,248,249,250],"tree_info":[0,0,0,0,0,0,0,0,0,0,0,0,0,0,0,0,0,0,0,0,0,0,0,0,0,0,0,0,0,0,0,0,0,0,0,0,0,0,0,0,0,0,0,0,0,0,0,0,0,0,0,0,0,0,0,0,0,0,0,0,0,0,0,0,0,0,0,0,0,0,0,0,0,0,0,0,0,0,0,0,0,0,0,0,0,0,0,0,0,0,0,0,0,0,0,0,0,0,0,0,0,0,0,0,0,0,0,0,0,0,0,0,0,0,0,0,0,0,0,0,0,0,0,0,0,0,0,0,0,0,0,0,0,0,0,0,0,0,0,0,0,0,0,0,0,0,0,0,0,0,0,0,0,0,0,0,0,0,0,0,0,0,0,0,0,0,0,0,0,0,0,0,0,0,0,0,0,0,0,0,0,0,0,0,0,0,0,0,0,0,0,0,0,0,0,0,0,0,0,0,0,0,0,0,0,0,0,0,0,0,0,0,0,0,0,0,0,0,0,0,0,0,0,0,0,0,0,0,0,0,0,0,0,0,0,0,0,0,0,0,0,0,0,0,0,0,0,0,0,0],"trees":[{"base_weights":[-1.0607809E-2,-3.239618E1,7.680129E1,-6.0411213E1,-4.1608605E0,5.1019707E1,1.3736513E2,-7.334402E1,-4.6102825E1,-2.0707964E1,1.031792E1,3.84051E1,7.832199E1,1.1026097E2,1.8762025E2,-8.33654E1,-6.628547E1,-5.2421684E1,-3.5402714E1,-2.5992138E1,2.4089844E0,5.616008E0,4.7877518E1,2.04892E1,4.8883717E1,6.6068695E1,9.9578674E1,8.309719E1,1.24312325E2,2.174217E2,1.6225514E2,-9.435188E1,-7.842301E1,-7.11072E1,-6.0670654E1,-5.7661304E1,-4.6681698E1,-1.3769464E1,-3.7581814E1,-3.639714E1,-1.8824736E1,-4.152123E0,6.410194E1,-1.5362407E-1,1.6287409E1,3.0393713E1,9.315504E1,2.4109749E1,-2.0398281E1,3.8762806E1,6.335264E1,5.5061512E1,7.710489E1,8.541529E1,1.3128065E2,5.98995E1,9.989167E1,1.113147E2,1.4413206E2,1.9718878E2,2.452796E2,1.3540628E2,1.7985785E2,-5.1233706E0,-4.402813E0,-4.08025E0,-3.5973709E0,-3.744969E0,-3.3426378E0,-3.211026E0,-2.631234E0,-3.1753151E0,-2.7119699E0,-2.5687594E0,-2.1051028E0,-1.0056949E0,1.6183563E-1,-1.6623131E0,-2.338209E0,-1.6792223E0,-2.5698504E0,-2.3227714E-1,-1.0574874E0,-6.242608E-1,4.628353E-1,1.6834363E0,7.0851398E0,-4.6631432E-1,2.4957326E-1,7.669718E-1,3.564328E0,1.032379E0,2.080279E0,2.8874505E0,6.468911E0,1.9857979E0,8.276393E-1,1.187199E0,-1.6538483E0,2.3413777E0,1.4725012E0,2.967314E0,5.2325034E0,3.304601E0,2.3845003E0,4.543338E0,3.4278781E0,4.380851E0,1.1889545E0,4.821642E0,7.355285E0,3.7748356E0,1.3597828E0,3.6121347E0,5.675032E0,6.1419907E0,4.3938775E0,6.410222E0,8.245262E0,8.963867E0,1.0494279E1,1.1340488E1,1.3034497E1,7.074737E0,2.193033E0,8.130092E0,9.551774E0],"categories":[],"categories_nodes":[],"categories_segments":[],"categories_sizes":[],"default_left":[1,0,0,0,0,1,1,0,1,1,1,1,0,0,0,0,0,0,0,0,0,1,0,0,0,0,1,0,0,0,0,0,0,0,0,0,0,0,0,0,0,0,0,1,0,0,0,0,0,0,0,0,0,0,0,0,0,0,0,0,1,0,1,0,0,0,0,0,0,0,0,0,0,0,0,0,0,0,0,0,0,0,0,0,0,0,0,0,0,0,0,0,0,0,0,0,0,0,0,0,0,0,0,0,0,0,0,0,0,0,0,0,0,0,0,0,0,0,0,0,0,0,0,0,0,0,0],"id":0,"left_children":[1,3,5,7,9,11,13,15,17,19,21,23,25,27,29,31,33,35,37,39,41,43,45,47,49,51,53,55,57,59,61,63,65,67,69,71,73,75,77,79,81,83,85,87,89,91,93,95,97,99,101,103,105,107,109,111,113,115,117,119,121,123,125,-1,-1,-1,-1,-1,-1,-1,-1,-1,-1,-1,-1,-1,-1,-1,-1,-1,-1,-1,-1,-1,-1,-1,-1,-1,-1,-1,-1,-1,-1,-1,-1,-1,-1,-1,-1,-1,-1,-1,-1,-1,-1,-1,-1,-1,-1,-1,-1,-1,-1,-1,-1,-1,-1,-1,-1,-1,-1,-1,-1,-1,-1,-1,-1],"loss_changes":[2.537638E9,5.676088E8,4.7239488E8,6.664909E7,8.5622456E7,7.308371E7,1.2302669E8,1.3376896E7,1.1560192E7,2.0372784E7,3.3660764E7,2.7248368E7,1.7460704E7,2.238976E7,2.3888768E7,4.23776E6,3.000992E6,3.23072E6,2.992656E6,1.0123048E7,1.2560811E7,1.0429908E7,1.6784328E7,7.930286E6,1.3408832E7,5.163776E6,1.0998448E7,7.79016E6,9.94752E6,8.152128E6,8.057824E6,1.230144E6,1.105376E6,9.584E5,1.461664E6,1.120624E6,1.100744E6,6.271484E5,2.29484E6,2.334248E6,2.649836E6,3.1342272E6,7.040012E6,5.1891865E6,3.098334E6,1.671008E6,7.568372E6,5.802952E6,2.4398085E6,4.04612E6,6.230192E6,1.729028E6,2.492288E6,2.298272E6,4.16044E6,4.285756E6,4.358832E6,6.299936E6,5.046112E6,1.880192E6,1.68192E6,3.770536E6,1.96064E6,0E0,0E0,0E0,0E0,0E0,0E0,0E0,0E0,0E0,0E0,0E0,0E0,0E0,0E0,0E0,0E0,0E0,0E0,0E0,0E0,0E0,0E0,0E0,0E0,0E0,0E0,0E0,0E0,0E0,0E0,0E0,0E0,0E0,0E0,0E0,0E0,0E0,0E0,0E0,0E0,0E0,0E0,0E0,0E0,0E0,0E0,0E0,0E0,0E0,0E0,0E0,0E0,0E0,0E0,0E0,0E0,0E0,0E0,0E0,0E0,0E0,0E0,0E0,0E0],"parents":[2147483647,0,0,1,1,2,2,3,3,4,4,5,5,6,6,7,7,8,8,9,9,10,10,11,11,12,12,13,13,14,14,15,15,16,16,17,17,18,18,19,19,20,20,21,21,22,22,23,23,24,24,25,25,26,26,27,27,28,28,29,29,30,30,31,31,32,32,33,33,34,34,35,35,36,36,37,37,38,38,39,39,40,40,41,41,42,42,43,43,44,44,45,45,46,46,47,47,48,48,49,49,50,50,51,51,52,52,53,53,54,54,55,55,56,56,57,57,58,58,59,59,60,60,61,61,62,62],"right_children":[2,4,6,8,10,12,14,16,18,20,22,24,26,28,30,32,34,36,38,40,42,44,46,48,50,52,54,56,58,60,62,64,66,68,70,72,74,76,78,80,82,84,86,88,90,92,94,96,98,100,102,104,106,108,110,112,114,116,118,120,122,124,126,-1,-1,-1,-1,-1,-1,-1,-1,-1,-1,-1,-1,-1,-1,-1,-1,-1,-1,-1,-1,-1,-1,-1,-1,-1,-1,-1,-1,-1,-1,-1,-1,-1,-1,-1,-1,-1,-1,-1,-1,-1,-1,-1,-1,-1,-1,-1,-1,-1,-1,-1,-1,-1,-1,-1,-1,-1,-1,-1,-1,-1,-1,-1,-1],"split_conditions":[1.5408118E2,9.944E1,2.4815088E2,7.26E1,1.155E2,1.9583322E2,2.5417E2,5.617E1,9.41E1,1.5235E2,1.8872E2,1.4603E2,1E0,2.165E2,2.2E1,3.79E1,7.166E1,7.994E1,2.45E1,9.18E1,1E0,1.399E2,1E0,8.5E1,1.894717E2,2.02E2,2.2868E2,2.29E2,1E0,3.558E2,3.0027112E2,4.492E1,5.99E1,1.57E2,1.89E2,1.29E2,1.57E2,1.261E2,8.1E1,8.8E1,2.25E1,1.848E2,2.2071E2,1.2323E2,1E0,1.983E2,4.6E1,2.47E1,2.06E1,3.07E1,2.3491E2,2.74E1,3E0,9E1,4E1,6.3E1,1.4948433E2,4.7E1,3.1653E2,3.4844E2,4.033E2,9.1E1,3.695E2,-5.1233706E0,-4.402813E0,-4.08025E0,-3.5973709E0,-3.744969E0,-3.3426378E0,-3.211026E0,-2.631234E0,-3.1753151E0,-2.7119699E0,-2.5687594E0,-2.1051028E0,-1.0056949E0,1.6183563E-1,-1.6623131E0,-2.338209E0,-1.6792223E0,-2.5698504E0,-2.3227714E-1,-1.0574874E0,-6.242608E-1,4.628353E-1,1.6834363E0,7.0851398E0,-4.6631432E-1,2.4957326E-1,7.669718E-1,3.564328E0,1.032379E0,2.080279E0,2.8874505E0,6.468911E0,1.9857979E0,8.276393E-1,1.187199E0,-1.6538483E0,2.3413777E0,1.4725012E0,2.967314E0,5.2325034E0,3.304601E0,2.3845003E0,4.543338E0,3.4278781E0,4.380851E0,1.1889545E0,4.821642E0,7.355285E0,3.7748356E0,1.3597828E0,3.6121347E0,5.675032E0,6.1419907E0,4.3938775E0,6.410222E0,8.245262E0,8.963867E0,1.0494279E1,1.1340488E1,1.3034497E1,7.074737E0,2.193033E0,8.130092E0,9.551774E0],"split_indices":[0,6,0,0,0,3,6,5,0,6,6,6,28,3,10,0,6,6,10,0,28,3,28,15,0,0,6,9,28,0,3,6,6,13,13,13,13,0,15,15,10,4,6,6,29,4,11,10,10,10,6,10,25,15,11,15,4,15,7,7,7,15,7,0,0,0,0,0,0,0,0,0,0,0,0,0,0,0,0,0,0,0,0,0,0,0,0,0,0,0,0,0,0,0,0,0,0,0,0,0,0,0,0,0,0,0,0,0,0,0,0,0,0,0,0,0,0,0,0,0,0,0,0,0,0,0,0],"split_type":[0,0,0,0,0,0,0,0,0,0,0,0,0,0,0,0,0,0,0,0,0,0,0,0,0,0,0,0,0,0,0,0,0,0,0,0,0,0,0,0,0,0,0,0,0,0,0,0,0,0,0,0,0,0,0,0,0,0,0,0,0,0,0,0,0,0,0,0,0,0,0,0,0,0,0,0,0,0,0,0,0,0,0,0,0,0,0,0,0,0,0,0,0,0,0,0,0,0,0,0,0,0,0,0,0,0,0,0,0,0,0,0,0,0,0,0,0,0,0,0,0,0,0,0,0,0,0],"sum_hessian":[1.020114E6,7.17571E5,3.02543E5,3.6019E5,3.57381E5,2.12209E5,9.0334E4,1.89187E5,1.71003E5,1.66778E5,1.90603E5,1.45148E5,6.7061E4,5.8686E4,3.1648E4,7.818E4,1.11007E5,1.0751E5,6.3493E4,1.35748E5,3.103E4,1.69398E5,2.1205E4,5.3566E4,9.1582E4,4.2542E4,2.4519E4,2.001E4,3.8676E4,1.4548E4,1.71E4,2.4252E4,5.3928E4,5.9715E4,5.1292E4,5.62E4,5.131E4,5.811E3,5.7682E4,5.5367E4,8.0381E4,2.8048E4,2.982E3,1.09952E5,5.9446E4,1.5299E4,5.906E3,4.9209E4,4.357E3,5.389E4,3.7692E4,2.1302E4,2.124E4,1.695E4,7.569E3,8.405E3,1.1605E4,2.3362E4,1.5314E4,8.432E3,6.116E3,6.775E3,1.0325E4,1.0588E4,1.3664E4,3.6152E4,1.7776E4,3.1564E4,2.8151E4,3.5585E4,1.5707E4,2.0746E4,3.5454E4,2.5335E4,2.5975E4,4.232E3,1.579E3,3.9185E4,1.8497E4,4.6627E4,8.74E3,1.1324E4,6.9057E4,1.7298E4,1.075E4,2.143E3,8.39E2,3.9511E4,7.0441E4,5.844E4,1.006E3,8.186E3,7.113E3,2.988E3,2.918E3,1.6053E4,3.3156E4,9.72E2,3.385E3,2.8878E4,2.5012E4,3.4361E4,3.331E3,8.53E3,1.2772E4,8.134E3,1.3106E4,1.6365E4,5.85E2,2.366E3,5.203E3,5.69E3,2.715E3,3.83E3,7.775E3,1.5658E4,7.704E3,8.672E3,6.642E3,3.504E3,4.928E3,2.789E3,3.327E3,6.352E3,4.23E2,4.065E3,6.26E3],"tree_param":{"num_deleted":"0","num_feature":"30","num_nodes":"127","size_leaf_vector":"1"}},{"base_weights":[2.3623478E-2,-3.1625282E1,7.104565E1,-5.663709E1,-3.970198E0,4.629695E1,1.2892244E2,-6.923629E1,-4.2803528E1,-1.9467928E1,8.92937E0,2.9899046E1,6.507529E1,1.03654144E2,1.7760014E2,-7.8404884E1,-6.2106606E1,-4.902362E1,-3.2596405E1,-2.207197E1,2.4547525E1,4.2760806E0,4.352303E1,3.104334E0,3.5374626E1,4.9444527E1,8.070296E1,1.12259125E2,4.650374E1,2.0653418E2,1.5353156E2,-8.7820114E1,-7.319321E1,-6.572786E1,-5.5212723E1,-5.297345E1,-4.133855E1,-3.0567533E1,-5.4093254E1,-3.2240406E1,-1.5788203E1,8.875235E0,1.1232492E2,9.3041115E0,-6.0782456E0,2.7157032E1,8.9028824E1,2.5297348E1,-7.1165943E0,4.1864338E1,1.1598292E1,5.7433495E1,2.8814707E1,9.0747154E1,5.336059E1,9.545174E1,1.3663448E2,5.879173E1,-4.125452E0,1.9099487E2,2.3995096E2,1.2918422E2,1.7149289E2,-4.8207626E0,-4.118564E0,-3.5278592E0,-4.0499325E0,-3.149314E0,-3.5802808E0,-2.5600724E0,-3.2432916E0,-2.9260194E0,-2.482425E0,-2.2920446E0,-1.844747E0,-1.8730353E0,-1.1953593E0,-2.8877466E0,-1.620664E0,-1.8786728E0,-1.0507275E0,-5.448386E-1,-1.1675305E0,1.3168931E0,-3.549517E-1,7.5217133E0,2.633482E0,1.1902838E0,2.1495603E-1,-2.874367E-2,-1.0871041E0,1.971608E0,6.4654416E-1,2.8038752E0,6.1032043E0,1.7229817E0,-6.3872916E-1,3.3592444E-2,-1.6667665E0,1.5337824E0,2.5316095E0,9.149006E-3,1.3187022E0,3.5130448E0,2.2446048E0,1.7344679E0,-7.243684E-1,4.2929053E0,7.218423E0,1.9034083E0,4.7658153E0,3.2925553E0,5.2969394E0,7.5840135E0,5.8487115E0,3.6730561E0,1.446084E0,-6.3449407E-1,5.7826943E0,8.549106E0,1.0132926E1,1.1269404E1,1.2646299E1,6.745498E0,2.1424427E0,7.5773873E0,9.0400505E0],"categories":[],"categories_nodes":[],"categories_segments":[],"categories_sizes":[],"default_left":[1,0,0,0,0,1,1,0,1,1,1,1,0,0,0,0,0,0,0,0,0,0,0,0,0,0,0,1,0,0,0,0,0,0,0,0,0,0,0,1,0,0,0,0,0,0,0,0,0,0,0,0,0,1,0,0,0,0,0,0,0,0,0,0,0,0,0,0,0,0,0,0,0,0,0,0,0,0,0,0,0,0,0,0,0,0,0,0,0,0,0,0,0,0,0,0,0,0,0,0,0,0,0,0,0,0,0,0,0,0,0,0,0,0,0,0,0,0,0,0,0,0,0,0,0,0,0],"id":1,"left_children":[1,3,5,7,9,11,13,15,17,19,21,23,25,27,29,31,33,35,37,39,41,43,45,47,49,51,53,55,57,59,61,63,65,67,69,71,73,75,77,79,81,83,85,87,89,91,93,95,97,99,101,103,105,107,109,111,113,115,117,119,121,123,125,-1,-1,-1,-1,-1,-1,-1,-1,-1,-1,-1,-1,-1,-1,-1,-1,-1,-1,-1,-1,-1,-1,-1,-1,-1,-1,-1,-1,-1,-1,-1,-1,-1,-1,-1,-1,-1,-1,-1,-1,-1,-1,-1,-1,-1,-1,-1,-1,-1,-1,-1,-1,-1,-1,-1,-1,-1,-1,-1,-1,-1,-1,-1,-1],"loss_changes":[2.2944172E9,4.884116E8,4.5069517E8,6.461901E7,6.7037748E7,6.786698E7,1.1590566E8,1.2679424E7,1.121888E7,1.7459852E7,2.945924E7,1.7263008E7,2.5093792E7,3.0506688E7,2.2395264E7,4.158496E6,2.721568E6,3.331072E6,2.917056E6,9.188896E6,1.1704604E7,8.398157E6,1.6157116E7,4.529132E6,1.5074472E7,8.464688E6,1.4104672E7,2.2078784E7,5.05257E6,7.546432E6,7.667488E6,1.408208E6,1.118528E6,1.148704E6,1.452608E6,1.334736E6,7.44212E5,2.806648E6,4.56178E5,3.287708E6,3.287874E6,2.0145046E6,2.922518E6,7.880873E6,4.5453475E6,2.78655E6,6.240372E6,2.196648E6,2.7916838E6,7.527584E6,3.533628E6,5.953824E6,3.648885E6,9.837376E6,8.853724E6,9.90176E6,6.491424E6,2.861352E6,1.6294782E6,2.296032E6,8.19168E5,3.6864E6,1.850624E6,0E0,0E0,0E0,0E0,0E0,0E0,0E0,0E0,0E0,0E0,0E0,0E0,0E0,0E0,0E0,0E0,0E0,0E0,0E0,0E0,0E0,0E0,0E0,0E0,0E0,0E0,0E0,0E0,0E0,0E0,0E0,0E0,0E0,0E0,0E0,0E0,0E0,0E0,0E0,0E0,0E0,0E0,0E0,0E0,0E0,0E0,0E0,0E0,0E0,0E0,0E0,0E0,0E0,0E0,0E0,0E0,0E0,0E0,0E0,0E0,0E0,0E0,0E0,0E0],"parents":[2147483647,0,0,1,1,2,2,3,3,4,4,5,5,6,6,7,7,8,8,9,9,10,10,11,11,12,12,13,13,14,14,15,15,16,16,17,17,18,18,19,19,20,20,21,21,22,22,23,23,24,24,25,25,26,26,27,27,28,28,29,29,30,30,31,31,32,32,33,33,34,34,35,35,36,36,37,37,38,38,39,39,40,40,41,41,42,42,43,43,44,44,45,45,46,46,47,47,48,48,49,49,50,50,51,51,52,52,53,53,54,54,55,55,56,56,57,57,58,58,59,59,60,60,61,61,62,62],"right_children":[2,4,6,8,10,12,14,16,18,20,22,24,26,28,30,32,34,36,38,40,42,44,46,48,50,52,54,56,58,60,62,64,66,68,70,72,74,76,78,80,82,84,86,88,90,92,94,96,98,100,102,104,106,108,110,112,114,116,118,120,122,124,126,-1,-1,-1,-1,-1,-1,-1,-1,-1,-1,-1,-1,-1,-1,-1,-1,-1,-1,-1,-1,-1,-1,-1,-1,-1,-1,-1,-1,-1,-1,-1,-1,-1,-1,-1,-1,-1,-1,-1,-1,-1,-1,-1,-1,-1,-1,-1,-1,-1,-1,-1,-1,-1,-1,-1,-1,-1,-1,-1,-1,-1,-1,-1,-1],"split_conditions":[1.5126714E2,1.0135E2,2.4492244E2,7.3173744E1,1.142E2,1.7815E2,2.5417E2,5.753E1,9.472092E1,1.8756E2,1.8645E2,1.2122E2,2.054606E2,1.09E1,2.2E1,4.08E1,7.686E1,8.51E1,9.1E1,9.0649605E1,1E1,9.3E0,1E1,2.47E1,1E1,1E1,9.8E0,2.5598085E2,5.8E1,3.711E2,3.056E2,4.492E1,9.5E0,8.6E0,8.6E0,1.29E2,1.57E2,9.522375E1,2.73E1,1.3182E2,8.6E0,8.1E0,1.3E1,2.49E1,5E1,9.2E0,4.6E1,9.5E0,8.1E1,2.04E2,3.23E1,2.94E1,5.4E1,2.6545E2,1E1,1.6467E2,6.6E0,5E0,3.1E2,3.4844E2,7E0,9.1E1,3.086E2,-4.8207626E0,-4.118564E0,-3.5278592E0,-4.0499325E0,-3.149314E0,-3.5802808E0,-2.5600724E0,-3.2432916E0,-2.9260194E0,-2.482425E0,-2.2920446E0,-1.844747E0,-1.8730353E0,-1.1953593E0,-2.8877466E0,-1.620664E0,-1.8786728E0,-1.0507275E0,-5.448386E-1,-1.1675305E0,1.3168931E0,-3.549517E-1,7.5217133E0,2.633482E0,1.1902838E0,2.1495603E-1,-2.874367E-2,-1.0871041E0,1.971608E0,6.4654416E-1,2.8038752E0,6.1032043E0,1.7229817E0,-6.3872916E-1,3.3592444E-2,-1.6667665E0,1.5337824E0,2.5316095E0,9.149006E-3,1.3187022E0,3.5130448E0,2.2446048E0,1.7344679E0,-7.243684E-1,4.2929053E0,7.218423E0,1.9034083E0,4.7658153E0,3.2925553E0,5.2969394E0,7.5840135E0,5.8487115E0,3.6730561E0,1.446084E0,-6.3449407E-1,5.7826943E0,8.549106E0,1.0132926E1,1.1269404E1,1.2646299E1,6.745498E0,2.1424427E0,7.5773873E0,9.0400505E0],"split_indices":[0,6,0,0,0,5,6,5,0,6,6,6,3,12,10,0,6,6,15,0,23,12,23,10,12,12,12,3,15,0,3,6,12,12,12,13,13,3,14,6,12,12,24,10,15,12,11,12,15,9,14,10,15,6,23,6,12,25,13,7,8,15,0,0,0,0,0,0,0,0,0,0,0,0,0,0,0,0,0,0,0,0,0,0,0,0,0,0,0,0,0,0,0,0,0,0,0,0,0,0,0,0,0,0,0,0,0,0,0,0,0,0,0,0,0,0,0,0,0,0,0,0,0,0,0,0,0],"split_type":[0,0,0,0,0,0,0,0,0,0,0,0,0,0,0,0,0,0,0,0,0,0,0,0,0,0,0,0,0,0,0,0,0,0,0,0,0,0,0,0,0,0,0,0,0,0,0,0,0,0,0,0,0,0,0,0,0,0,0,0,0,0,0,0,0,0,0,0,0,0,0,0,0,0,0,0,0,0,0,0,0,0,0,0,0,0,0,0,0,0,0,0,0,0,0,0,0,0,0,0,0,0,0,0,0,0,0,0,0,0,0,0,0,0,0,0,0,0,0,0,0,0,0,0,0,0,0],"sum_hessian":[1.020751E6,7.06099E5,3.14652E5,3.70768E5,3.35331E5,2.20406E5,9.4246E4,1.94039E5,1.76729E5,1.52325E5,1.83006E5,1.17662E5,1.02744E5,6.2043E4,3.2203E4,8.4878E4,1.09161E5,1.09809E5,6.692E4,1.43817E5,8.508E3,1.61309E5,2.1697E4,1.9965E4,9.7697E4,5.1369E4,5.1375E4,5.3923E4,8.12E3,1.462E4,1.7583E4,3.0237E4,5.4641E4,7.1562E4,3.7599E4,7.2527E4,3.7282E4,6.1151E4,5.769E3,5.4928E4,8.8889E4,7.22E3,1.288E3,1.08582E5,5.2727E4,1.5959E4,5.738E3,6.295E3,1.367E4,7.6748E4,2.0949E4,3.7028E4,1.4341E4,3.7571E4,1.3804E4,3.1919E4,2.2004E4,6.534E3,1.586E3,9.984E3,4.636E3,7.468E3,1.0115E4,1.1725E4,1.8512E4,4.0854E4,1.3787E4,4.8808E4,2.2754E4,2.6566E4,1.1033E4,2.7175E4,4.5352E4,1.8514E4,1.8768E4,3.0048E4,3.1103E4,4.934E3,8.35E2,3.7236E4,1.7692E4,5.3978E4,3.4911E4,3.449E3,3.771E3,7.85E2,5.03E2,2.7859E4,8.0723E4,3.9019E4,1.3708E4,8.566E3,7.393E3,2.874E3,2.864E3,5.074E3,1.221E3,1.054E4,3.13E3,3.3721E4,4.3027E4,1.1819E4,9.13E3,1.8303E4,1.8725E4,1.2628E4,1.713E3,3.4434E4,3.137E3,1.0118E4,3.686E3,8.352E3,2.3567E4,1.2461E4,9.543E3,4.381E3,2.153E3,1.481E3,1.05E2,3.682E3,6.302E3,2.193E3,2.443E3,7.003E3,4.65E2,3.224E3,6.891E3],"tree_param":{"num_deleted":"0","num_feature":"30","num_nodes":"127","size_leaf_vector":"1"}},{"base_weights":[1.7447973E-2,-2.8467623E1,7.133653E1,-5.2709103E1,-1.0507717E0,4.8972668E1,1.27724045E2,-6.461482E1,-3.828007E1,-1.4463048E1,1.3177133E1,3.7432835E1,7.512209E1,1.0194586E2,1.7121733E2,-7.3685356E1,-5.750169E1,-4.526511E1,-2.9498177E1,-1.8835516E1,8.603394E0,9.556265E0,5.4586967E1,1.9458445E1,4.6606983E1,8.510634E1,4.3380707E1,1.12832664E2,5.668055E1,1.9603494E2,1.4761717E2,-8.199392E1,-6.828653E1,-6.256109E1,-5.2963062E1,-4.9953945E1,-3.8899147E1,-3.596939E1,-2.1839422E1,-2.8697514E1,-1.1627638E1,1.5038562E0,7.242542E1,3.234097E0,1.8932089E1,3.339463E1,9.262148E1,2.2797274E1,-1.8136496E1,4.2717167E1,8.515427E1,7.8644295E1,1.2391297E2,5.130883E1,1.9074947E-1,7.489472E1,1.2316704E2,4.374597E1,1.1394563E2,1.7843448E2,2.2099837E2,1.2497847E2,1.6617282E2,-4.536575E0,-3.8670156E0,-3.5694973E0,-3.1000652E0,-3.3562024E0,-2.973897E0,-2.5027835E0,-3.1578598E0,-2.4310586E0,-3.1094282E0,-2.1528254E0,-1.5632099E0,-2.0854776E0,-1.6174885E0,-9.86172E-1,-2.237976E0,-1.3131942E0,-2.209846E0,-3.4947017E-1,-9.4496983E-1,6.8150395E-1,-5.602726E-1,2.4022567E0,7.123675E0,8.477767E-1,1.5069629E-3,1.2364619E0,2.0324183E-1,2.2249348E0,1.0337251E0,3.0319903E0,6.499653E0,1.4338697E0,7.971226E-3,1.2201928E0,-1.5611553E0,2.5485122E0,1.2289575E0,2.8871646E0,6.078287E0,3.3825822E0,4.5042024E0,6.8016305E0,3.5042412E0,1.8643154E0,3.410067E0,-2.503658E-1,4.6423407E0,4.9647865E0,2.5634885E0,5.498961E0,7.106109E0,3.4172409E0,5.629627E-1,6.1232495E0,2.3132308E0,8.045862E0,9.434483E0,1.0157462E1,1.16886015E1,6.5608063E0,1.9548638E0,8.521846E0,6.110433E0],"categories":[],"categories_nodes":[],"categories_segments":[],"categories_sizes":[],"default_left":[1,1,0,0,0,1,1,0,0,0,0,1,0,0,0,0,1,1,0,0,0,0,0,0,0,1,0,0,0,0,0,0,1,0,0,0,0,0,0,0,0,0,1,0,0,0,0,0,0,0,0,0,0,0,0,0,1,0,0,0,0,0,0,0,0,0,0,0,0,0,0,0,0,0,0,0,0,0,0,0,0,0,0,0,0,0,0,0,0,0,0,0,0,0,0,0,0,0,0,0,0,0,0,0,0,0,0,0,0,0,0,0,0,0,0,0,0,0,0,0,0,0,0,0,0,0,0],"id":2,"left_children":[1,3,5,7,9,11,13,15,17,19,21,23,25,27,29,31,33,35,37,39,41,43,45,47,49,51,53,55,57,59,61,63,65,67,69,71,73,75,77,79,81,83,85,87,89,91,93,95,97,99,101,103,105,107,109,111,113,115,117,119,121,123,125,-1,-1,-1,-1,-1,-1,-1,-1,-1,-1,-1,-1,-1,-1,-1,-1,-1,-1,-1,-1,-1,-1,-1,-1,-1,-1,-1,-1,-1,-1,-1,-1,-1,-1,-1,-1,-1,-1,-1,-1,-1,-1,-1,-1,-1,-1,-1,-1,-1,-1,-1,-1,-1,-1,-1,-1,-1,-1,-1,-1,-1,-1,-1,-1],"loss_changes":[2.0731574E9,4.846665E8,3.6728256E8,6.648448E7,6.5302684E7,6.292861E7,9.271629E7,1.3677568E7,1.0731984E7,1.7766364E7,2.4897538E7,2.3859424E7,2.0232224E7,2.5586368E7,1.7997696E7,4.17504E6,2.725952E6,2.907008E6,3.841216E6,1.052594E7,1.2719054E7,9.051492E6,1.0759156E7,6.138238E6,1.4360624E7,1.2170912E7,5.23244E6,1.640416E7,7.454598E6,6.550656E6,6.608032E6,1.48536E6,1.0976E6,7.86608E5,1.853952E6,9.12032E5,1.31084E6,8.71624E5,1.721058E6,2.357384E6,2.885478E6,3.893428E6,4.79205E6,4.009636E6,5.300352E6,1.210398E6,5.701616E6,5.978114E6,2.2214745E6,1.3025152E7,8.756072E6,5.230512E6,4.512752E6,3.05576E6,1.1424149E6,5.162988E6,8.208608E6,6.56573E6,1.063924E6,1.550848E6,1.365632E6,3.804744E6,1.60432E6,0E0,0E0,0E0,0E0,0E0,0E0,0E0,0E0,0E0,0E0,0E0,0E0,0E0,0E0,0E0,0E0,0E0,0E0,0E0,0E0,0E0,0E0,0E0,0E0,0E0,0E0,0E0,0E0,0E0,0E0,0E0,0E0,0E0,0E0,0E0,0E0,0E0,0E0,0E0,0E0,0E0,0E0,0E0,0E0,0E0,0E0,0E0,0E0,0E0,0E0,0E0,0E0,0E0,0E0,0E0,0E0,0E0,0E0,0E0,0E0,0E0,0E0,0E0,0E0],"parents":[2147483647,0,0,1,1,2,2,3,3,4,4,5,5,6,6,7,7,8,8,9,9,10,10,11,11,12,12,13,13,14,14,15,15,16,16,17,17,18,18,19,19,20,20,21,21,22,22,23,23,24,24,25,25,26,26,27,27,28,28,29,29,30,30,31,31,32,32,33,33,34,34,35,35,36,36,37,37,38,38,39,39,40,40,41,41,42,42,43,43,44,44,45,45,46,46,47,47,48,48,49,49,50,50,51,51,52,52,53,53,54,54,55,55,56,56,57,57,58,58,59,59,60,60,61,61,62,62],"right_children":[2,4,6,8,10,12,14,16,18,20,22,24,26,28,30,32,34,36,38,40,42,44,46,48,50,52,54,56,58,60,62,64,66,68,70,72,74,76,78,80,82,84,86,88,90,92,94,96,98,100,102,104,106,108,110,112,114,116,118,120,122,124,126,-1,-1,-1,-1,-1,-1,-1,-1,-1,-1,-1,-1,-1,-1,-1,-1,-1,-1,-1,-1,-1,-1,-1,-1,-1,-1,-1,-1,-1,-1,-1,-1,-1,-1,-1,-1,-1,-1,-1,-1,-1,-1,-1,-1,-1,-1,-1,-1,-1,-1,-1,-1,-1,-1,-1,-1,-1,-1,-1,-1,-1,-1,-1,-1],"split_conditions":[1.571E2,1.0322E2,2.554E2,7.59E1,1.2136112E2,2.0145345E2,2.5417E2,5.891E1,8.743E1,1.6123E2,2.0172E2,1.4543E2,9.8E0,1E1,2.23E1,4.33E1,7.166E1,9.0082794E1,1.027E2,9.71E1,1E1,1.4573624E2,1E1,8.5E1,1.1E1,2.3838E2,5.4E1,1.7119E2,1.1E1,3.558E2,3.109E2,4.492E1,6.183E1,1.28E2,9.5E0,9.1E1,9E0,1.29E2,9E1,8.8E1,8.6E0,8.5E0,2.5598085E2,2.39E1,9.8E0,9.2E0,4.7E1,9.5E0,2.06E1,9.2E0,2.0321E2,2.1232683E2,3.03E1,2.0647E2,1E1,2.63E1,2.733E2,3.8E1,1.1517E1,3.443E2,3.0643E2,9.1E1,8E1,-4.536575E0,-3.8670156E0,-3.5694973E0,-3.1000652E0,-3.3562024E0,-2.973897E0,-2.5027835E0,-3.1578598E0,-2.4310586E0,-3.1094282E0,-2.1528254E0,-1.5632099E0,-2.0854776E0,-1.6174885E0,-9.86172E-1,-2.237976E0,-1.3131942E0,-2.209846E0,-3.4947017E-1,-9.4496983E-1,6.8150395E-1,-5.602726E-1,2.4022567E0,7.123675E0,8.477767E-1,1.5069629E-3,1.2364619E0,2.0324183E-1,2.2249348E0,1.0337251E0,3.0319903E0,6.499653E0,1.4338697E0,7.971226E-3,1.2201928E0,-1.5611553E0,2.5485122E0,1.2289575E0,2.8871646E0,6.078287E0,3.3825822E0,4.5042024E0,6.8016305E0,3.5042412E0,1.8643154E0,3.410067E0,-2.503658E-1,4.6423407E0,4.9647865E0,2.5634885E0,5.498961E0,7.106109E0,3.4172409E0,5.629627E-1,6.1232495E0,2.3132308E0,8.045862E0,9.434483E0,1.0157462E1,1.16886015E1,6.5608063E0,1.9548638E0,8.521846E0,6.110433E0],"split_indices":[0,6,0,0,0,3,6,5,6,6,6,6,12,12,10,0,6,0,0,0,23,3,23,15,23,6,15,6,23,0,3,6,6,13,12,15,23,13,15,15,12,12,3,10,12,12,11,12,10,12,6,0,10,6,23,10,3,11,21,7,6,15,15,0,0,0,0,0,0,0,0,0,0,0,0,0,0,0,0,0,0,0,0,0,0,0,0,0,0,0,0,0,0,0,0,0,0,0,0,0,0,0,0,0,0,0,0,0,0,0,0,0,0,0,0,0,0,0,0,0,0,0,0,0,0,0,0],"split_type":[0,0,0,0,0,0,0,0,0,0,0,0,0,0,0,0,0,0,0,0,0,0,0,0,0,0,0,0,0,0,0,0,0,0,0,0,0,0,0,0,0,0,0,0,0,0,0,0,0,0,0,0,0,0,0,0,0,0,0,0,0,0,0,0,0,0,0,0,0,0,0,0,0,0,0,0,0,0,0,0,0,0,0,0,0,0,0,0,0,0,0,0,0,0,0,0,0,0,0,0,0,0,0,0,0,0,0,0,0,0,0,0,0,0,0,0,0,0,0,0,0,0,0,0,0,0,0],"sum_hessian":[1.020489E6,7.29232E5,2.91257E5,3.87028E5,3.42204E5,2.08547E5,8.271E4,2.12054E5,1.74974E5,1.76151E5,1.66053E5,1.44695E5,6.3852E4,5.1933E4,3.0777E4,9.3199E4,1.18855E5,9.7455E4,7.7519E4,1.48081E5,2.807E4,1.52702E5,1.3351E4,4.8897E4,9.5798E4,4.8572E4,1.528E4,4.1863E4,1.007E4,1.4998E4,1.5779E4,3.6702E4,5.6497E4,5.6197E4,6.2658E4,5.6116E4,4.1339E4,4.2015E4,3.5504E4,6.2527E4,8.5554E4,2.5261E4,2.809E3,9.1204E4,6.1498E4,8.575E3,4.776E3,4.4909E4,3.988E3,8.7019E4,8.779E3,4.1641E4,6.931E3,1.291E4,2.37E3,8.964E3,3.2899E4,8.216E3,1.854E3,8.801E3,6.197E3,7.111E3,8.668E3,1.2748E4,2.3954E4,3.7815E4,1.8682E4,2.2652E4,3.3545E4,4.8758E4,1.39E4,5.0608E4,5.508E3,2.6762E4,1.4577E4,1.6244E4,2.5771E4,3.2505E4,2.999E3,5.4044E4,8.483E3,5.2237E4,3.3317E4,1.2927E4,1.2334E4,2.085E3,7.24E2,1.7264E4,7.394E4,4.4245E4,1.7253E4,4.577E3,3.998E3,2.575E3,2.201E3,3.5649E4,9.26E3,9.38E2,3.05E3,5.9805E4,2.7214E4,5.01E3,3.769E3,2.1239E4,2.0402E4,5.656E3,1.275E3,7.056E3,5.854E3,2.245E3,1.25E2,4.408E3,4.556E3,1.9405E4,1.3494E4,4.675E3,3.541E3,1.646E3,2.08E2,3.256E3,5.545E3,2.592E3,3.605E3,6.629E3,4.82E2,7.899E3,7.69E2],"tree_param":{"num_deleted":"0","num_feature":"30","num_nodes":"127","size_leaf_vector":"1"}},{"base_weights":[-1.7047945E-3,-2.629292E1,6.979508E1,-5.0024017E1,-2.3147847E-1,4.9520664E1,1.2521466E2,-6.239237E1,-3.737007E1,-1.2794293E1,1.4200294E1,3.3334766E1,6.7533325E1,1.0113892E2,1.6569719E2,-7.081751E1,-5.5819168E1,-4.306979E1,-2.6836262E1,-1.6284473E1,1.3602468E1,1.0655047E1,5.413183E1,7.938747E0,3.8590908E1,5.1874657E1,8.196669E1,1.09368E2,4.4474113E1,1.4215761E2,1.820404E2,-7.969029E1,-6.5522575E1,-5.2769474E1,-6.5398224E1,-4.7481663E1,-3.5894493E1,-2.2725967E1,-3.6985268E1,-2.6997538E1,-1.0019455E1,5.388321E0,7.904967E1,4.5852294E0,2.0107061E1,4.085691E1,1.082925E2,1.4979111E1,-1.4820031E1,4.5006153E1,1.446426E1,5.929033E1,3.1372112E1,6.739625E1,9.8670334E1,7.689396E1,1.2088216E2,5.8734745E1,-5.596053E-1,1.4774489E2,6.678636E1,1.6771431E2,2.1036407E2,-4.530862E0,-3.8398824E0,-3.4617321E0,-3.0948517E0,-2.8206902E0,-2.32874E0,-3.0132074E0,-3.7295563E0,-2.3052394E0,-2.9922185E0,-1.7236656E0,-2.418986E0,-1.3989891E0,-6.3095236E-1,-1.6339121E0,-2.3834667E0,-1.1082783E0,-1.760763E0,-2.2072947E-1,-7.830867E-1,8.9392537E-1,-3.5914788E-1,6.2081814E0,1.9772404E0,-1.3481294E-1,4.896023E-1,1.326384E0,3.4774807E-1,1.3484313E0,3.0847182E0,6.896171E0,2.7515204E0,2.4229379E-1,1.437199E0,-1.188844E0,9.7201025E-1,1.6816138E0,2.6878104E0,1.4477831E0,1.938328E-1,2.3424928E0,3.4382756E0,1.838809E0,-5.947585E-1,4.3894343E0,2.144371E0,4.108976E0,5.972517E0,4.8668724E-1,4.1766987E0,5.212909E0,6.692965E0,3.6921966E0,1.5014192E0,-3.1307605E-1,6.611843E0,7.76622E0,5.1483665E0,7.0513763E0,1.8877105E0,6.459869E0,8.939214E0,9.790389E0,1.1414433E1],"categories":[],"categories_nodes":[],"categories_segments":[],"categories_sizes":[],"default_left":[1,1,0,0,0,1,1,0,1,0,0,1,0,0,0,0,0,0,0,0,0,0,0,0,0,0,0,0,0,0,0,0,0,1,0,0,0,1,0,0,0,0,0,0,0,0,0,1,0,0,0,0,0,0,0,0,0,0,0,0,0,0,0,0,0,0,0,0,0,0,0,0,0,0,0,0,0,0,0,0,0,0,0,0,0,0,0,0,0,0,0,0,0,0,0,0,0,0,0,0,0,0,0,0,0,0,0,0,0,0,0,0,0,0,0,0,0,0,0,0,0,0,0,0,0,0,0],"id":3,"left_children":[1,3,5,7,9,11,13,15,17,19,21,23,25,27,29,31,33,35,37,39,41,43,45,47,49,51,53,55,57,59,61,63,65,67,69,71,73,75,77,79,81,83,85,87,89,91,93,95,97,99,101,103,105,107,109,111,113,115,117,119,121,123,125,-1,-1,-1,-1,-1,-1,-1,-1,-1,-1,-1,-1,-1,-1,-1,-1,-1,-1,-1,-1,-1,-1,-1,-1,-1,-1,-1,-1,-1,-1,-1,-1,-1,-1,-1,-1,-1,-1,-1,-1,-1,-1,-1,-1,-1,-1,-1,-1,-1,-1,-1,-1,-1,-1,-1,-1,-1,-1,-1,-1,-1,-1,-1,-1],"loss_changes":[1.8729615E9,4.5852742E8,3.137815E8,6.073011E7,6.406366E7,5.96112E7,7.288768E7,1.086368E7,1.1515136E7,1.740412E7,2.3279142E7,1.4375776E7,2.1867136E7,2.1868256E7,1.0705344E7,4.035072E6,3.21696E6,3.938352E6,2.808652E6,1.1198092E7,1.1859411E7,8.66509E6,9.63636E6,2.9595112E6,1.3810216E7,7.055696E6,1.2248768E7,1.5305728E7,3.821177E6,4.805632E6,6.643648E6,1.008784E6,7.20624E5,1.885184E6,1.25176E6,1.30912E6,8.3928E5,2.545146E6,8.91718E5,2.443908E6,3.32936E6,3.0779875E6,4.379352E6,3.4870705E6,4.98728E6,3.115424E6,4.157292E6,1.9674032E6,1.3396152E6,7.0132E6,2.8757648E6,4.014928E6,2.883898E6,1.3439704E7,8.028736E6,4.781508E6,6.508928E6,1.957808E6,1.08513E6,3.596832E6,1.6995815E6,4.639808E6,1.396864E6,0E0,0E0,0E0,0E0,0E0,0E0,0E0,0E0,0E0,0E0,0E0,0E0,0E0,0E0,0E0,0E0,0E0,0E0,0E0,0E0,0E0,0E0,0E0,0E0,0E0,0E0,0E0,0E0,0E0,0E0,0E0,0E0,0E0,0E0,0E0,0E0,0E0,0E0,0E0,0E0,0E0,0E0,0E0,0E0,0E0,0E0,0E0,0E0,0E0,0E0,0E0,0E0,0E0,0E0,0E0,0E0,0E0,0E0,0E0,0E0,0E0,0E0,0E0,0E0],"parents":[2147483647,0,0,1,1,2,2,3,3,4,4,5,5,6,6,7,7,8,8,9,9,10,10,11,11,12,12,13,13,14,14,15,15,16,16,17,17,18,18,19,19,20,20,21,21,22,22,23,23,24,24,25,25,26,26,27,27,28,28,29,29,30,30,31,31,32,32,33,33,34,34,35,35,36,36,37,37,38,38,39,39,40,40,41,41,42,42,43,43,44,44,45,45,46,46,47,47,48,48,49,49,50,50,51,51,52,52,53,53,54,54,55,55,56,56,57,57,58,58,59,59,60,60,61,61,62,62],"right_children":[2,4,6,8,10,12,14,16,18,20,22,24,26,28,30,32,34,36,38,40,42,44,46,48,50,52,54,56,58,60,62,64,66,68,70,72,74,76,78,80,82,84,86,88,90,92,94,96,98,100,102,104,106,108,110,112,114,116,118,120,122,124,126,-1,-1,-1,-1,-1,-1,-1,-1,-1,-1,-1,-1,-1,-1,-1,-1,-1,-1,-1,-1,-1,-1,-1,-1,-1,-1,-1,-1,-1,-1,-1,-1,-1,-1,-1,-1,-1,-1,-1,-1,-1,-1,-1,-1,-1,-1,-1,-1,-1,-1,-1,-1,-1,-1,-1,-1,-1,-1,-1,-1,-1,-1,-1,-1],"split_conditions":[1.6019064E2,1.0322E2,2.6349316E2,7.3173744E1,1.241E2,1.8538E2,2.5957E2,6.183E1,9.77E1,1.7119E2,2.0321E2,1.2511E2,2.142E2,1.09E1,1E0,4.4304176E1,9.5E0,8.51E1,8.1E1,9.59E1,1E1,1.492E2,1.1E1,7.8E1,1E1,1E1,1E1,1.8018E2,5.4E1,9.1E1,3.711E2,3.577E1,5.612454E1,7.847E1,8.5E1,9.1E1,9E1,1.0495113E2,9.1E1,8.5E0,7.8E0,8.5E0,1.3E1,2.02E2,9.3E0,2.3342654E2,9.6E0,1.36E2,2.83E2,2.04E2,3.4E1,1.7508739E2,5.7E1,8.8E0,2.465E2,1.2323E2,2.641562E2,5E0,1.1E1,8E0,3E0,4.1E1,3.901E2,-4.530862E0,-3.8398824E0,-3.4617321E0,-3.0948517E0,-2.8206902E0,-2.32874E0,-3.0132074E0,-3.7295563E0,-2.3052394E0,-2.9922185E0,-1.7236656E0,-2.418986E0,-1.3989891E0,-6.3095236E-1,-1.6339121E0,-2.3834667E0,-1.1082783E0,-1.760763E0,-2.2072947E-1,-7.830867E-1,8.9392537E-1,-3.5914788E-1,6.2081814E0,1.9772404E0,-1.3481294E-1,4.896023E-1,1.326384E0,3.4774807E-1,1.3484313E0,3.0847182E0,6.896171E0,2.7515204E0,2.4229379E-1,1.437199E0,-1.188844E0,9.7201025E-1,1.6816138E0,2.6878104E0,1.4477831E0,1.938328E-1,2.3424928E0,3.4382756E0,1.838809E0,-5.947585E-1,4.3894343E0,2.144371E0,4.108976E0,5.972517E0,4.8668724E-1,4.1766987E0,5.212909E0,6.692965E0,3.6921966E0,1.5014192E0,-3.1307605E-1,6.611843E0,7.76622E0,5.1483665E0,7.0513763E0,1.8877105E0,6.459869E0,8.939214E0,9.790389E0,1.1414433E1],"split_indices":[0,6,0,0,0,5,6,6,0,6,6,6,3,12,26,0,12,6,15,0,23,3,23,15,12,12,23,6,15,15,0,6,0,6,15,15,15,3,15,12,12,12,24,9,12,4,12,3,9,9,15,4,15,12,4,6,3,25,23,12,25,11,3,0,0,0,0,0,0,0,0,0,0,0,0,0,0,0,0,0,0,0,0,0,0,0,0,0,0,0,0,0,0,0,0,0,0,0,0,0,0,0,0,0,0,0,0,0,0,0,0,0,0,0,0,0,0,0,0,0,0,0,0,0,0,0,0],"split_type":[0,0,0,0,0,0,0,0,0,0,0,0,0,0,0,0,0,0,0,0,0,0,0,0,0,0,0,0,0,0,0,0,0,0,0,0,0,0,0,0,0,0,0,0,0,0,0,0,0,0,0,0,0,0,0,0,0,0,0,0,0,0,0,0,0,0,0,0,0,0,0,0,0,0,0,0,0,0,0,0,0,0,0,0,0,0,0,0,0,0,0,0,0,0,0,0,0,0,0,0,0,0,0,0,0,0,0,0,0,0,0,0,0,0,0,0,0,0,0,0,0,0,0,0,0,0,0],"sum_hessian":[1.020662E6,7.41393E5,2.79269E5,3.88045E5,3.53348E5,2.04469E5,7.48E4,1.96235E5,1.9181E5,1.88906E5,1.64442E5,1.07697E5,9.6772E4,4.6907E4,2.7893E4,8.5998E4,1.10237E5,1.24462E5,6.7348E4,1.66846E5,2.206E4,1.51034E5,1.3408E4,1.8468E4,8.9229E4,4.6418E4,5.0354E4,4.0958E4,5.949E3,1.1434E4,1.6459E4,3.2135E4,5.3863E4,8.3621E4,2.6616E4,7.7069E4,4.7393E4,4.7937E4,1.9411E4,6.1566E4,1.0528E5,1.9601E4,2.459E3,9.1973E4,5.9061E4,1.077E4,2.638E3,1.4105E4,4.363E3,7.0486E4,1.8743E4,3.4087E4,1.2331E4,2.6897E4,2.3457E4,1.0723E4,3.0235E4,4.518E3,1.431E3,1.0644E4,7.9E2,1.0935E4,5.524E3,6.72E3,2.5415E4,2.6605E4,2.7258E4,5.2643E4,3.0978E4,1.7083E4,9.533E3,6.935E4,7.719E3,4.2553E4,4.84E3,3.154E4,1.6397E4,1.3837E4,5.574E3,3.8772E4,2.2794E4,5.2816E4,5.2464E4,9.832E3,9.769E3,1.147E3,1.312E3,3.8347E4,5.3626E4,3.9686E4,1.9375E4,6.464E3,4.306E3,1.694E3,9.44E2,8.125E3,5.98E3,3.459E3,9.04E2,3.065E4,3.9836E4,7.912E3,1.0831E4,1.474E4,1.9347E4,1.0962E4,1.369E3,1.468E4,1.2217E4,1.3081E4,1.0376E4,9.65E2,9.758E3,1.3259E4,1.6976E4,2.959E3,1.559E3,1.373E3,5.8E1,9.101E3,1.543E3,2.21E2,5.69E2,2.444E3,8.491E3,3.055E3,2.469E3],"tree_param":{"num_deleted":"0","num_feature":"30","num_nodes":"127","size_leaf_vector":"1"}},{"base_weights":[-6.356716E-2,-2.841898E1,5.8214375E1,-4.9678047E1,-5.6743503E0,3.7042484E1,1.092095E2,-6.1500847E1,-3.9649475E1,-1.3740434E1,1.227903E1,2.2547106E1,5.310418E1,8.561989E1,1.4790907E2,-6.9418205E1,-5.598982E1,-4.5292595E1,-3.1131033E1,-2.5649307E1,-4.639466E0,8.299999E0,7.552604E1,3.008387E1,8.3589735E0,4.7683746E1,9.080141E1,9.864747E1,5.4952213E1,1.7073257E2,1.26176414E2,-7.926336E1,-6.543055E1,-5.2839825E1,-6.540257E1,-5.236197E1,-4.2245262E1,-1.2689672E1,-3.2760044E1,-3.405664E1,-2.110958E1,9.726047E-1,-1.0763252E1,6.944974E0,8.713236E1,9.982942E1,3.3993084E1,6.169543E0,3.6365532E1,-5.395409E0,1.4088296E1,5.772307E1,2.7942537E1,7.633031E1,1.264602E2,7.9008194E1,1.13766846E2,4.421496E1,9.9725044E1,1.5640334E2,2.0205685E2,1.1151031E2,1.4717694E2,-4.35523E0,-3.786448E0,-3.4571311E0,-3.0859113E0,-2.7894158E0,-2.3351026E0,-3.6165493E0,-3.0257556E0,-2.8728065E0,-2.4766464E0,-2.3061912E0,-1.9129423E0,-4.4903374E-1,-2.319964E0,-1.8115624E0,-1.1944293E0,-2.0025403E0,-1.324569E0,-3.194909E-1,-1.1574024E0,6.0611117E-1,-3.3944714E-1,-6.8899494E-1,2.4149819E-1,7.8728455E-1,-1.4078419E-1,1.9334687E0,5.8565764E0,4.5203204E0,8.778911E0,5.7812767E0,1.2230269E0,1.6856064E0,-2.163835E-1,1.4682398E0,2.5954132E0,-9.3024E-1,1.2999268E-2,4.654306E-1,1.3540187E0,3.409701E0,1.9016832E0,1.7477597E0,4.919215E-1,2.9763515E0,4.782012E0,4.1976314E0,7.821411E0,5.1937306E-1,4.145454E0,6.097985E0,4.361609E0,3.0862856E0,1.0221728E0,3.1406934E0,5.4927087E0,7.2069297E0,8.79153E0,8.657603E0,1.0564879E1,6.119733E0,4.5600266E0,7.6151137E0,2.8695228E0],"categories":[],"categories_nodes":[],"categories_segments":[],"categories_sizes":[],"default_left":[1,0,0,0,1,1,1,0,1,0,0,0,0,0,0,0,0,0,0,0,0,0,0,0,1,0,0,0,0,0,1,0,0,0,0,0,0,0,1,0,0,0,0,0,0,1,0,0,0,0,0,0,0,0,0,0,0,0,0,0,0,0,0,0,0,0,0,0,0,0,0,0,0,0,0,0,0,0,0,0,0,0,0,0,0,0,0,0,0,0,0,0,0,0,0,0,0,0,0,0,0,0,0,0,0,0,0,0,0,0,0,0,0,0,0,0,0,0,0,0,0,0,0,0,0,0,0],"id":4,"left_children":[1,3,5,7,9,11,13,15,17,19,21,23,25,27,29,31,33,35,37,39,41,43,45,47,49,51,53,55,57,59,61,63,65,67,69,71,73,75,77,79,81,83,85,87,89,91,93,95,97,99,101,103,105,107,109,111,113,115,117,119,121,123,125,-1,-1,-1,-1,-1,-1,-1,-1,-1,-1,-1,-1,-1,-1,-1,-1,-1,-1,-1,-1,-1,-1,-1,-1,-1,-1,-1,-1,-1,-1,-1,-1,-1,-1,-1,-1,-1,-1,-1,-1,-1,-1,-1,-1,-1,-1,-1,-1,-1,-1,-1,-1,-1,-1,-1,-1,-1,-1,-1,-1,-1,-1,-1,-1],"loss_changes":[1.6879346E9,3.3224403E8,3.6095232E8,4.210733E7,4.8073028E7,5.500096E7,8.952627E7,7.10816E6,9.236032E6,2.482538E7,2.5897892E7,1.327842E7,2.2894688E7,2.434128E7,1.8401984E7,2.620864E6,2.846176E6,2.487872E6,2.300048E6,3.786252E6,4.462066E6,1.0341688E7,6.144808E6,1.2182456E7,3.3950008E6,1.941688E7,7.259544E6,1.269056E7,8.731072E6,8.098912E6,5.844768E6,5.2768E5,6.51872E5,1.300656E6,8.11504E5,4.98864E5,1.247136E6,7.768876E5,2.16588E6,1.576532E6,1.933214E6,5.862965E6,2.920591E6,8.17651E6,2.373969E6,2.72648E6,1.7480438E6,4.878185E6,6.987056E6,9.464336E5,1.888336E6,1.3387728E7,4.193326E6,3.246472E6,5.165144E6,4.979888E6,5.242272E6,6.100232E6,1.306904E6,2.937088E6,1.481088E6,2.466688E6,3.590832E6,0E0,0E0,0E0,0E0,0E0,0E0,0E0,0E0,0E0,0E0,0E0,0E0,0E0,0E0,0E0,0E0,0E0,0E0,0E0,0E0,0E0,0E0,0E0,0E0,0E0,0E0,0E0,0E0,0E0,0E0,0E0,0E0,0E0,0E0,0E0,0E0,0E0,0E0,0E0,0E0,0E0,0E0,0E0,0E0,0E0,0E0,0E0,0E0,0E0,0E0,0E0,0E0,0E0,0E0,0E0,0E0,0E0,0E0,0E0,0E0,0E0,0E0,0E0,0E0],"parents":[2147483647,0,0,1,1,2,2,3,3,4,4,5,5,6,6,7,7,8,8,9,9,10,10,11,11,12,12,13,13,14,14,15,15,16,16,17,17,18,18,19,19,20,20,21,21,22,22,23,23,24,24,25,25,26,26,27,27,28,28,29,29,30,30,31,31,32,32,33,33,34,34,35,35,36,36,37,37,38,38,39,39,40,40,41,41,42,42,43,43,44,44,45,45,46,46,47,47,48,48,49,49,50,50,51,51,52,52,53,53,54,54,55,55,56,56,57,57,58,58,59,59,60,60,61,61,62,62],"right_children":[2,4,6,8,10,12,14,16,18,20,22,24,26,28,30,32,34,36,38,40,42,44,46,48,50,52,54,56,58,60,62,64,66,68,70,72,74,76,78,80,82,84,86,88,90,92,94,96,98,100,102,104,106,108,110,112,114,116,118,120,122,124,126,-1,-1,-1,-1,-1,-1,-1,-1,-1,-1,-1,-1,-1,-1,-1,-1,-1,-1,-1,-1,-1,-1,-1,-1,-1,-1,-1,-1,-1,-1,-1,-1,-1,-1,-1,-1,-1,-1,-1,-1,-1,-1,-1,-1,-1,-1,-1,-1,-1,-1,-1,-1,-1,-1,-1,-1,-1,-1,-1,-1,-1,-1,-1,-1],"split_conditions":[1.4687744E2,9.879E1,2.4156424E2,6.811799E1,1.4724E2,1.6557E2,2.4554E2,5.855E1,8.95E1,1.062E2,1.1E1,8.4E0,1.1E1,8.8E0,2.26E1,3.79E1,9.5E0,6.95E1,2.47E1,8.292246E1,7.6E0,2.4966E2,8.9E0,1.2066E2,1.3182E2,9.1E0,6E1,2.8453E2,1.1E1,3.0643E2,3.0895062E2,3.577E1,5.17E1,7.686E1,2.73E1,1.28E2,1.57E2,9.5E0,9.656148E1,1.65E2,2.18E1,6E0,3.73E1,8.5E0,2.5008029E2,2.8863516E2,2.06E1,2.42E1,1.894717E2,1.1534E2,1.9E1,3.07E1,4.3E1,2.2071E2,2.0321E2,1.2323E2,2.94E1,3.8E1,1.9889E2,3.345E2,1.1E1,2.79E1,1.26E1,-4.35523E0,-3.786448E0,-3.4571311E0,-3.0859113E0,-2.7894158E0,-2.3351026E0,-3.6165493E0,-3.0257556E0,-2.8728065E0,-2.4766464E0,-2.3061912E0,-1.9129423E0,-4.4903374E-1,-2.319964E0,-1.8115624E0,-1.1944293E0,-2.0025403E0,-1.324569E0,-3.194909E-1,-1.1574024E0,6.0611117E-1,-3.3944714E-1,-6.8899494E-1,2.4149819E-1,7.8728455E-1,-1.4078419E-1,1.9334687E0,5.8565764E0,4.5203204E0,8.778911E0,5.7812767E0,1.2230269E0,1.6856064E0,-2.163835E-1,1.4682398E0,2.5954132E0,-9.3024E-1,1.2999268E-2,4.654306E-1,1.3540187E0,3.409701E0,1.9016832E0,1.7477597E0,4.919215E-1,2.9763515E0,4.782012E0,4.1976314E0,7.821411E0,5.1937306E-1,4.145454E0,6.097985E0,4.361609E0,3.0862856E0,1.0221728E0,3.1406934E0,5.4927087E0,7.2069297E0,8.79153E0,8.657603E0,1.0564879E1,6.119733E0,4.5600266E0,7.6151137E0,2.8695228E0],"split_indices":[0,6,0,0,6,6,6,6,0,0,23,12,23,12,10,0,12,6,10,0,12,6,8,6,6,12,11,7,23,6,4,6,0,6,14,13,13,12,4,13,10,23,14,12,4,2,10,10,0,6,24,10,11,6,6,6,10,11,6,0,23,14,12,0,0,0,0,0,0,0,0,0,0,0,0,0,0,0,0,0,0,0,0,0,0,0,0,0,0,0,0,0,0,0,0,0,0,0,0,0,0,0,0,0,0,0,0,0,0,0,0,0,0,0,0,0,0,0,0,0,0,0,0,0,0,0,0],"split_type":[0,0,0,0,0,0,0,0,0,0,0,0,0,0,0,0,0,0,0,0,0,0,0,0,0,0,0,0,0,0,0,0,0,0,0,0,0,0,0,0,0,0,0,0,0,0,0,0,0,0,0,0,0,0,0,0,0,0,0,0,0,0,0,0,0,0,0,0,0,0,0,0,0,0,0,0,0,0,0,0,0,0,0,0,0,0,0,0,0,0,0,0,0,0,0,0,0,0,0,0,0,0,0,0,0,0,0,0,0,0,0,0,0,0,0,0,0,0,0,0,0,0,0,0,0,0,0],"sum_hessian":[1.021444E6,6.87122E5,3.34322E5,3.55159E5,3.31963E5,2.36242E5,9.808E4,1.62996E5,1.92163E5,2.29054E5,1.02909E5,1.24177E5,1.12065E5,6.0938E4,3.7142E4,6.6889E4,9.6107E4,1.15587E5,7.6576E4,9.922E4,1.29834E5,9.6819E4,6.09E3,8.1097E4,4.308E4,9.7979E4,1.4086E4,4.2768E4,1.817E4,1.8113E4,1.9029E4,1.9277E4,4.7612E4,7.2014E4,2.4093E4,3.4812E4,8.0775E4,6.216E3,7.036E4,3.4788E4,6.4432E4,6.7748E4,6.2086E4,9.5184E4,1.635E3,3.841E3,2.249E3,1.6871E4,6.4226E4,1.2668E4,3.0412E4,6.4948E4,3.3031E4,1.0022E4,4.064E3,1.8606E4,2.4162E4,1.4657E4,3.513E3,1.2432E4,5.681E3,1.1208E4,7.821E3,5.982E3,1.3295E4,2.3798E4,2.3814E4,4.864E4,2.3374E4,9.96E3,1.4133E4,1.2423E4,2.2389E4,4.0936E4,3.9839E4,5.601E3,6.15E2,5.057E4,1.979E4,1.9407E4,1.5381E4,7.838E3,5.6594E4,2.7805E4,3.9943E4,5.2022E4,1.0064E4,5.0053E4,4.5131E4,6.26E2,1.009E3,3.418E3,4.23E2,2.34E2,2.015E3,4.655E3,1.2216E4,4.4283E4,1.9943E4,3.797E3,8.871E3,2.2234E4,8.178E3,4.2398E4,2.255E4,2.3808E4,9.223E3,5.361E3,4.661E3,1.682E3,2.382E3,1.001E3,1.7605E4,1.8459E4,5.703E3,8.439E3,6.218E3,7.58E2,2.755E3,7.626E3,4.806E3,1.381E3,4.3E3,7.294E3,3.914E3,7.398E3,4.23E2],"tree_param":{"num_deleted":"0","num_feature":"30","num_nodes":"127","size_leaf_vector":"1"}},{"base_weights":[-2.6393684E-2,-2.9052965E1,5.129516E1,-4.8451534E1,-8.859089E0,3.8012707E1,1.2174622E2,-5.831714E1,-3.8495995E1,-2.098805E1,9.557161E-1,2.4809639E1,6.383771E1,1.4365907E2,8.8166435E1,-6.7353676E1,-5.43455E1,-4.2872707E1,-3.3062313E1,-1.7756096E1,-3.5088943E1,5.6879454E0,-1.0998185E1,1.3849623E1,3.6832104E1,7.989145E1,3.730478E1,1.3065604E2,1.8358714E2,6.547814E1,1.12515724E2,-7.684068E1,-6.372102E1,-5.13985E1,-6.073563E1,-4.1504116E1,-5.4147057E1,-1.2713179E1,-3.456479E1,-5.8401484E0,-2.1967823E1,-3.9925888E1,-1.9655428E1,2.0294182E1,-5.3978022E-2,-1.7579365E0,-1.763765E1,3.3725075E1,9.290438E0,4.6042904E1,1.9836674E1,6.413583E1,9.8211E1,4.4728077E1,5.77052E0,7.131189E1,1.3649347E2,1.5484016E2,1.9544708E2,5.1984406E1,8.049194E1,1.0478943E2,1.4811765E2,-4.0633025E0,-3.5881543E0,-3.0314786E0,-3.6907043E0,-2.7283642E0,-2.295759E0,-2.880018E0,-3.510444E0,-2.2537186E0,-1.8746849E0,-2.4263449E0,-2.8950243E0,-5.13266E-1,-3.2121925E0,-1.9322779E0,-1.3935511E0,1.3749151E-1,-9.8252535E-1,-1.4382217E0,-7.885546E-1,-1.921195E0,-3.0540888E0,-6.741466E-1,-1.7591696E0,1.1671463E0,-7.4526817E-1,3.2623002E-1,-8.31714E-1,-8.189872E-1,2.893064E-1,-9.5710003E-1,1.5850028E0,2.0068207E0,-6.057429E-1,6.707824E-1,-6.4792323E-1,1.8307877E0,2.9911065E0,7.278517E-1,2.8089793E0,3.6939797E0,2.5191462E0,4.2451935E0,5.673425E0,1.3865747E0,2.8448606E0,3.1107977E-2,4.072506E0,5.657863E0,9.752795E-1,7.1213884E0,3.467823E0,8.002484E0,3.1464467E0,1.000517E1,7.0464616E0,2.2685602E0,3.8117566E0,5.180467E0,2.7327378E0,6.306073E0,4.1569324E0,8.049192E0,3.867651E0],"categories":[],"categories_nodes":[],"categories_segments":[],"categories_sizes":[],"default_left":[1,0,1,0,0,1,0,0,1,0,0,0,0,0,0,0,0,0,0,0,0,0,0,0,0,0,0,0,0,0,0,0,0,0,0,0,0,0,1,0,0,0,0,0,0,0,0,0,0,0,0,0,0,0,0,0,0,0,0,0,0,0,0,0,0,0,0,0,0,0,0,0,0,0,0,0,0,0,0,0,0,0,0,0,0,0,0,0,0,0,0,0,0,0,0,0,0,0,0,0,0,0,0,0,0,0,0,0,0,0,0,0,0,0,0,0,0,0,0,0,0,0,0,0,0,0,0],"id":5,"left_children":[1,3,5,7,9,11,13,15,17,19,21,23,25,27,29,31,33,35,37,39,41,43,45,47,49,51,53,55,57,59,61,63,65,67,69,71,73,75,77,79,81,83,85,87,89,91,93,95,97,99,101,103,105,107,109,111,113,115,117,119,121,123,125,-1,-1,-1,-1,-1,-1,-1,-1,-1,-1,-1,-1,-1,-1,-1,-1,-1,-1,-1,-1,-1,-1,-1,-1,-1,-1,-1,-1,-1,-1,-1,-1,-1,-1,-1,-1,-1,-1,-1,-1,-1,-1,-1,-1,-1,-1,-1,-1,-1,-1,-1,-1,-1,-1,-1,-1,-1,-1,-1,-1,-1,-1,-1,-1],"loss_changes":[1.5196253E9,2.5524294E8,3.4484262E8,3.2638528E7,3.8004024E7,1.057207E8,4.300173E7,5.987008E6,3.932432E6,6.506764E6,9.981988E6,2.7034272E7,4.467648E7,1.8340672E7,1.2746352E7,1.751296E6,2.180608E6,1.41136E6,2.255968E6,5.829864E6,1.986726E6,1.0602077E7,3.0701835E6,9.725484E6,1.5315576E7,1.8856384E7,9.256292E6,9.234784E6,2.931456E6,2.4174E6,3.047104E6,3.11112E5,1.145472E6,1.376528E6,1.082832E6,1.168144E6,2.06322E5,6.3962606E5,1.876216E6,3.5990718E6,3.614384E6,6.4175E5,6.0862875E5,3.828468E6,9.897885E6,2.3082865E6,2.161929E6,5.886036E6,8.013148E6,8.240272E6,6.598042E6,4.7048E6,6.124992E6,6.618756E6,2.93617E6,5.183299E6,9.669472E6,1.207076E6,1.531984E6,1.006582E6,3.3726E6,4.216416E6,1.793016E6,0E0,0E0,0E0,0E0,0E0,0E0,0E0,0E0,0E0,0E0,0E0,0E0,0E0,0E0,0E0,0E0,0E0,0E0,0E0,0E0,0E0,0E0,0E0,0E0,0E0,0E0,0E0,0E0,0E0,0E0,0E0,0E0,0E0,0E0,0E0,0E0,0E0,0E0,0E0,0E0,0E0,0E0,0E0,0E0,0E0,0E0,0E0,0E0,0E0,0E0,0E0,0E0,0E0,0E0,0E0,0E0,0E0,0E0,0E0,0E0,0E0,0E0,0E0,0E0],"parents":[2147483647,0,0,1,1,2,2,3,3,4,4,5,5,6,6,7,7,8,8,9,9,10,10,11,11,12,12,13,13,14,14,15,15,16,16,17,17,18,18,19,19,20,20,21,21,22,22,23,23,24,24,25,25,26,26,27,27,28,28,29,29,30,30,31,31,32,32,33,33,34,34,35,35,36,36,37,37,38,38,39,39,40,40,41,41,42,42,43,43,44,44,45,45,46,46,47,47,48,48,49,49,50,50,51,51,52,52,53,53,54,54,55,55,56,56,57,57,58,58,59,59,60,60,61,61,62,62],"right_children":[2,4,6,8,10,12,14,16,18,20,22,24,26,28,30,32,34,36,38,40,42,44,46,48,50,52,54,56,58,60,62,64,66,68,70,72,74,76,78,80,82,84,86,88,90,92,94,96,98,100,102,104,106,108,110,112,114,116,118,120,122,124,126,-1,-1,-1,-1,-1,-1,-1,-1,-1,-1,-1,-1,-1,-1,-1,-1,-1,-1,-1,-1,-1,-1,-1,-1,-1,-1,-1,-1,-1,-1,-1,-1,-1,-1,-1,-1,-1,-1,-1,-1,-1,-1,-1,-1,-1,-1,-1,-1,-1,-1,-1,-1,-1,-1,-1,-1,-1,-1,-1,-1,-1,-1,-1,-1],"split_conditions":[1.4431E2,9.429E1,2.3838E2,7.041E1,1.1378E2,1.9583322E2,2.59E1,4.958E1,8.567E1,8.4E1,9.4E0,1.5696674E2,8.3E0,3.0643E2,2.687443E2,4.27E1,8.6E0,9.1E1,2.47E1,2.57E1,2.07E2,2.49E1,3.6E1,2.49E1,9.1E0,2.1047E2,5.7E1,4E0,1.1E1,2.366E2,1E0,3.384E1,1.01E1,6.797E1,8.9E1,7.78E1,6.1E0,9.3E1,8.75E1,8.2E0,1.068E2,1.16E1,9.3E1,9E1,6.6E1,4E0,1.1E1,1.06E1,5.5E1,1.8049E2,1.1E1,2.61E1,2.641562E2,1.8423E2,1.1E1,9.1E0,8.4E1,9.1E0,1.0104068E3,1.1E1,8.7E0,7.5E0,3.05E1,-4.0633025E0,-3.5881543E0,-3.0314786E0,-3.6907043E0,-2.7283642E0,-2.295759E0,-2.880018E0,-3.510444E0,-2.2537186E0,-1.8746849E0,-2.4263449E0,-2.8950243E0,-5.13266E-1,-3.2121925E0,-1.9322779E0,-1.3935511E0,1.3749151E-1,-9.8252535E-1,-1.4382217E0,-7.885546E-1,-1.921195E0,-3.0540888E0,-6.741466E-1,-1.7591696E0,1.1671463E0,-7.4526817E-1,3.2623002E-1,-8.31714E-1,-8.189872E-1,2.893064E-1,-9.5710003E-1,1.5850028E0,2.0068207E0,-6.057429E-1,6.707824E-1,-6.4792323E-1,1.8307877E0,2.9911065E0,7.278517E-1,2.8089793E0,3.6939797E0,2.5191462E0,4.2451935E0,5.673425E0,1.3865747E0,2.8448606E0,3.1107977E-2,4.072506E0,5.657863E0,9.752795E-1,7.1213884E0,3.467823E0,8.002484E0,3.1464467E0,1.000517E1,7.0464616E0,2.2685602E0,3.8117566E0,5.180467E0,2.7327378E0,6.306073E0,4.1569324E0,8.049192E0,3.867651E0],"split_indices":[5,6,6,5,5,3,10,5,5,15,12,4,12,6,3,6,12,15,10,10,13,10,15,10,12,5,15,23,23,4,29,5,12,6,15,4,12,15,4,12,4,12,15,15,15,23,23,12,15,5,23,10,3,6,23,12,15,12,2,23,8,12,10,0,0,0,0,0,0,0,0,0,0,0,0,0,0,0,0,0,0,0,0,0,0,0,0,0,0,0,0,0,0,0,0,0,0,0,0,0,0,0,0,0,0,0,0,0,0,0,0,0,0,0,0,0,0,0,0,0,0,0,0,0,0,0,0],"split_type":[0,0,0,0,0,0,0,0,0,0,0,0,0,0,0,0,0,0,0,0,0,0,0,0,0,0,0,0,0,0,0,0,0,0,0,0,0,0,0,0,0,0,0,0,0,0,0,0,0,0,0,0,0,0,0,0,0,0,0,0,0,0,0,0,0,0,0,0,0,0,0,0,0,0,0,0,0,0,0,0,0,0,0,0,0,0,0,0,0,0,0,0,0,0,0,0,0,0,0,0,0,0,0,0,0,0,0,0,0,0,0,0,0,0,0,0,0,0,0,0,0,0,0,0,0,0,0],"sum_hessian":[1.020094E6,6.51575E5,3.68519E5,3.32331E5,3.19244E5,3.10063E5,5.8456E4,1.66917E5,1.65414E5,1.42788E5,1.76456E5,2.05171E5,1.04892E5,3.5371E4,2.3085E4,5.0958E4,1.15959E5,9.1614E4,7.38E4,1.16165E5,2.6623E4,1.26413E5,5.0043E4,1.07329E5,9.7842E4,6.535E4,3.9542E4,2.6685E4,8.686E3,1.1952E4,1.1133E4,1.4104E4,3.6854E4,7.9366E4,3.6593E4,8.1701E4,9.913E3,5.075E3,6.8725E4,3.0337E4,8.5828E4,2.0269E4,6.354E3,3.5671E4,9.0742E4,2.0924E4,2.9119E4,2.0025E4,8.7304E4,6.3452E4,3.439E4,3.5136E4,3.0214E4,3.2007E4,7.535E3,2.391E3,2.4294E4,2.541E3,6.145E3,6.297E3,5.655E3,9.151E3,1.982E3,7.528E3,6.576E3,2.8218E4,8.636E3,5.0293E4,2.9073E4,2.7499E4,9.094E3,4.3217E4,3.8484E4,3.975E3,5.938E3,4.846E3,2.29E2,4.2693E4,2.6032E4,1.8704E4,1.1633E4,4.0931E4,4.4897E4,1.8928E4,1.341E3,4.548E3,1.806E3,3.2828E4,2.843E3,6.4966E4,2.5776E4,7.121E3,1.3803E4,2.8258E4,8.61E2,1.7568E4,2.457E3,7.3649E4,1.3655E4,3.7678E4,2.5774E4,3.0029E4,4.361E3,2.0563E4,1.4573E4,1.6142E4,1.4072E4,1.3356E4,1.8651E4,7.056E3,4.79E2,1.322E3,1.069E3,2.232E4,1.974E3,2.404E3,1.37E2,5.659E3,4.86E2,4.95E3,1.347E3,2.983E3,2.672E3,4.607E3,4.544E3,1.676E3,3.06E2],"tree_param":{"num_deleted":"0","num_feature":"30","num_nodes":"127","size_leaf_vector":"1"}},{"base_weights":[5.0831605E-2,-2.1789799E1,6.2667236E1,-4.146978E1,2.0808203E0,4.824588E1,1.1977791E2,-5.220162E1,-2.909667E1,-9.077329E0,1.4679569E1,3.4124065E1,7.069971E1,1.385979E2,8.875719E1,-6.1310562E1,-4.6848408E1,-3.5749405E1,-2.1297657E1,-1.1897369E1,1.5032296E1,1.0912289E1,4.319424E1,2.4873585E1,4.599019E1,7.923977E1,3.6383373E1,1.1871582E2,1.6075163E2,6.996249E1,1.1301302E2,-6.435332E1,-5.0627327E1,-5.139881E1,-4.211562E1,-4.0217865E1,-3.0905323E1,-2.6397316E1,-1.3199112E1,-2.0313879E1,-5.762577E0,7.014183E0,6.877195E1,1.5628846E1,8.221216E-1,2.857485E1,7.2614105E1,7.005101E0,2.987903E1,5.3237732E1,2.2799265E1,6.524835E1,9.6318245E1,2.9995264E1,7.467979E1,1.2345107E2,4.7303326E1,1.6582321E2,1.0670244E2,5.7976204E1,9.483105E1,1.0289535E2,1.5277107E2,-3.6542325E0,-3.0774057E0,-2.3245447E0,-3.129504E0,-2.5118344E0,-2.9530096E0,-1.970601E0,-2.431243E0,-2.3042026E0,-1.8873183E0,-1.4626014E0,-2.389713E0,-5.6777835E-1,-1.380049E0,-5.642938E-1,-2.0358655E0,-7.762348E-1,-1.3921801E0,-5.6809597E-3,-5.56657E-1,9.3131655E-1,-2.345976E-1,5.5703063E0,1.7613038E0,5.436061E-1,1.3825926E0,5.3921777E-1,-4.351413E-1,1.8825058E0,8.996281E-1,2.6228662E0,5.831334E0,1.2677581E0,-6.496549E-2,1.0391644E0,1.8429301E0,2.7383916E0,2.437613E-1,1.5003902E0,-6.1839896E-1,1.6393595E0,3.5649793E0,4.313172E0,5.740325E0,2.381167E0,3.174259E-1,2.2125015E0,4.486921E0,6.3108344E0,3.3797014E-1,1.1797794E0,4.274337E0,7.8940935E0,9.611808E0,3.636586E0,7.8872237E0,2.6109385E0,4.573076E0,5.4716372E0,2.2581363E0,4.148993E0,6.195537E0,6.659491E0,9.48679E0],"categories":[],"categories_nodes":[],"categories_segments":[],"categories_sizes":[],"default_left":[1,1,1,0,0,0,0,0,0,0,0,1,0,0,0,1,0,0,0,0,0,0,0,1,0,1,0,0,0,0,0,0,0,0,0,0,0,0,0,0,0,0,0,1,0,0,0,0,0,0,0,0,0,0,0,0,1,0,0,0,0,0,0,0,0,0,0,0,0,0,0,0,0,0,0,0,0,0,0,0,0,0,0,0,0,0,0,0,0,0,0,0,0,0,0,0,0,0,0,0,0,0,0,0,0,0,0,0,0,0,0,0,0,0,0,0,0,0,0,0,0,0,0,0,0,0,0],"id":6,"left_children":[1,3,5,7,9,11,13,15,17,19,21,23,25,27,29,31,33,35,37,39,41,43,45,47,49,51,53,55,57,59,61,63,65,67,69,71,73,75,77,79,81,83,85,87,89,91,93,95,97,99,101,103,105,107,109,111,113,115,117,119,121,123,125,-1,-1,-1,-1,-1,-1,-1,-1,-1,-1,-1,-1,-1,-1,-1,-1,-1,-1,-1,-1,-1,-1,-1,-1,-1,-1,-1,-1,-1,-1,-1,-1,-1,-1,-1,-1,-1,-1,-1,-1,-1,-1,-1,-1,-1,-1,-1,-1,-1,-1,-1,-1,-1,-1,-1,-1,-1,-1,-1,-1,-1,-1,-1,-1],"loss_changes":[1.3955706E9,3.5541795E8,2.1734003E8,5.506317E7,4.8062164E7,6.680563E7,3.1047552E7,1.0825792E7,9.993136E6,1.232747E7,1.7249264E7,1.4196832E7,2.3836992E7,1.4565056E7,9.151648E6,2.668672E6,3.010176E6,2.248736E6,3.661788E6,8.381246E6,8.180837E6,6.750274E6,8.05758E6,6.500804E6,9.522208E6,1.555808E7,3.963892E6,5.896336E6,4.2744E6,3.36968E6,3.512104E6,1.562368E6,8.98968E5,6.3192E5,1.204776E6,7.8212E5,1.3914E6,9.84776E5,1.8034985E6,2.467414E6,2.8484408E6,2.2461142E6,3.521521E6,5.527584E6,4.2874975E6,1.201708E6,5.511966E6,2.424044E6,3.603876E6,3.194232E6,3.420906E6,7.031232E6,5.4424E6,5.792196E6,1.057749E6,5.281488E6,9.8198125E5,2.97184E6,2.322403E6,1.468716E6,2.664672E6,2.916928E6,1.260948E6,0E0,0E0,0E0,0E0,0E0,0E0,0E0,0E0,0E0,0E0,0E0,0E0,0E0,0E0,0E0,0E0,0E0,0E0,0E0,0E0,0E0,0E0,0E0,0E0,0E0,0E0,0E0,0E0,0E0,0E0,0E0,0E0,0E0,0E0,0E0,0E0,0E0,0E0,0E0,0E0,0E0,0E0,0E0,0E0,0E0,0E0,0E0,0E0,0E0,0E0,0E0,0E0,0E0,0E0,0E0,0E0,0E0,0E0,0E0,0E0,0E0,0E0,0E0,0E0],"parents":[2147483647,0,0,1,1,2,2,3,3,4,4,5,5,6,6,7,7,8,8,9,9,10,10,11,11,12,12,13,13,14,14,15,15,16,16,17,17,18,18,19,19,20,20,21,21,22,22,23,23,24,24,25,25,26,26,27,27,28,28,29,29,30,30,31,31,32,32,33,33,34,34,35,35,36,36,37,37,38,38,39,39,40,40,41,41,42,42,43,43,44,44,45,45,46,46,47,47,48,48,49,49,50,50,51,51,52,52,53,53,54,54,55,55,56,56,57,57,58,58,59,59,60,60,61,61,62,62],"right_children":[2,4,6,8,10,12,14,16,18,20,22,24,26,28,30,32,34,36,38,40,42,44,46,48,50,52,54,56,58,60,62,64,66,68,70,72,74,76,78,80,82,84,86,88,90,92,94,96,98,100,102,104,106,108,110,112,114,116,118,120,122,124,126,-1,-1,-1,-1,-1,-1,-1,-1,-1,-1,-1,-1,-1,-1,-1,-1,-1,-1,-1,-1,-1,-1,-1,-1,-1,-1,-1,-1,-1,-1,-1,-1,-1,-1,-1,-1,-1,-1,-1,-1,-1,-1,-1,-1,-1,-1,-1,-1,-1,-1,-1,-1,-1,-1,-1,-1,-1,-1,-1,-1,-1,-1,-1,-1],"split_conditions":[1.644E2,1.0791E2,2.3838E2,7.7E1,1.26842064E2,2.2173106E2,2.59E1,5.25E1,8.982E1,1.7809E2,1.9624E2,1.7595761E2,1E1,2.8487E2,2.887657E2,7.059E1,7.059E1,8.298347E1,1.1042833E2,1.015E2,1E0,9.4E0,1E0,1.2955E2,9.8E0,2.2941782E2,1E0,8.5E1,8.5E1,5E0,5E0,3.2E1,9.5E0,9.1E1,8.6E0,6.844E1,9.1E1,2.22E1,9.1E1,8.5E0,7.8E0,8.5E0,1.3E1,1.5560243E2,3.3E1,9.2E0,5.4E1,2.42E1,2.02E2,8.8E1,5.4E1,1.4242E2,2.9243948E2,3.8E1,1.9889E2,1.23E1,2.782E2,3.947E2,7.9E1,1.9E1,1.03E1,3.033E2,1E0,-3.6542325E0,-3.0774057E0,-2.3245447E0,-3.129504E0,-2.5118344E0,-2.9530096E0,-1.970601E0,-2.431243E0,-2.3042026E0,-1.8873183E0,-1.4626014E0,-2.389713E0,-5.6777835E-1,-1.380049E0,-5.642938E-1,-2.0358655E0,-7.762348E-1,-1.3921801E0,-5.6809597E-3,-5.56657E-1,9.3131655E-1,-2.345976E-1,5.5703063E0,1.7613038E0,5.436061E-1,1.3825926E0,5.3921777E-1,-4.351413E-1,1.8825058E0,8.996281E-1,2.6228662E0,5.831334E0,1.2677581E0,-6.496549E-2,1.0391644E0,1.8429301E0,2.7383916E0,2.437613E-1,1.5003902E0,-6.1839896E-1,1.6393595E0,3.5649793E0,4.313172E0,5.740325E0,2.381167E0,3.174259E-1,2.2125015E0,4.486921E0,6.3108344E0,3.3797014E-1,1.1797794E0,4.274337E0,7.8940935E0,9.611808E0,3.636586E0,7.8872237E0,2.6109385E0,4.573076E0,5.4716372E0,2.2581363E0,4.148993E0,6.195537E0,6.659491E0,9.48679E0],"split_indices":[0,6,6,0,0,0,10,0,6,6,6,3,12,6,3,6,6,3,0,0,28,12,28,6,12,3,28,15,15,25,25,0,12,15,12,6,15,10,15,12,12,12,24,3,15,12,11,10,9,15,15,6,0,11,6,12,3,0,11,24,8,0,29,0,0,0,0,0,0,0,0,0,0,0,0,0,0,0,0,0,0,0,0,0,0,0,0,0,0,0,0,0,0,0,0,0,0,0,0,0,0,0,0,0,0,0,0,0,0,0,0,0,0,0,0,0,0,0,0,0,0,0,0,0,0,0,0],"split_type":[0,0,0,0,0,0,0,0,0,0,0,0,0,0,0,0,0,0,0,0,0,0,0,0,0,0,0,0,0,0,0,0,0,0,0,0,0,0,0,0,0,0,0,0,0,0,0,0,0,0,0,0,0,0,0,0,0,0,0,0,0,0,0,0,0,0,0,0,0,0,0,0,0,0,0,0,0,0,0,0,0,0,0,0,0,0,0,0,0,0,0,0,0,0,0,0,0,0,0,0,0,0,0,0,0,0,0,0,0,0,0,0,0,0,0,0,0,0,0,0,0,0,0,0,0,0,0],"sum_hessian":[1.020464E6,7.56572E5,2.63892E5,4.14686E5,3.41886E5,2.10691E5,5.3201E4,2.2207E5,1.92616E5,1.81309E5,1.60577E5,1.29345E5,8.1346E4,3.311E4,2.0091E4,8.2196E4,1.39874E5,1.03945E5,8.8671E4,1.62323E5,1.8986E4,1.41839E5,1.8738E4,7.2685E4,5.666E4,6.5135E4,1.6211E4,1.7453E4,1.5657E4,1.1322E4,8.769E3,6.3971E4,1.8225E4,7.1306E4,6.8568E4,5.4065E4,4.988E4,5.4408E4,3.4263E4,6.8434E4,9.3889E4,1.6522E4,2.464E3,9.6657E4,4.5182E4,1.2519E4,6.219E3,1.5906E4,5.6779E4,4.3168E4,1.3492E4,3.5806E4,2.9329E4,1.3895E4,2.316E3,1.6367E4,1.086E3,1.4312E4,1.345E3,7.642E3,3.68E3,6.993E3,1.776E3,1.5549E4,4.8422E4,1.3546E4,4.679E3,6.1921E4,9.385E3,4.8451E4,2.0117E4,1.6021E4,3.8044E4,4.5435E4,4.445E3,4.032E3,5.0376E4,3.2037E4,2.226E3,4.1831E4,2.6603E4,4.5759E4,4.813E4,8.294E3,8.228E3,1.084E3,1.38E3,6.9258E4,2.7399E4,2.2084E4,2.3098E4,6.738E3,5.781E3,4.267E3,1.952E3,4.955E3,1.0951E4,2.4654E4,3.2125E4,4.1844E4,1.324E3,1.1197E4,2.295E3,5.627E3,3.0179E4,1.9001E4,1.0328E4,7.96E3,5.935E3,7.68E2,1.548E3,1.5988E4,3.79E2,6.71E2,4.15E2,1.1009E4,3.303E3,8.09E2,5.36E2,6.523E3,1.119E3,2.843E3,8.37E2,3.593E3,3.4E3,1.164E3,6.12E2],"tree_param":{"num_deleted":"0","num_feature":"30","num_nodes":"127","size_leaf_vector":"1"}},{"base_weights":[-1.4721496E-2,-2.1137218E1,5.8391216E1,-4.1513985E1,-6.62646E-1,4.2065098E1,1.04741974E2,-5.1957397E1,-3.2451115E1,-1.2799987E1,9.942045E0,3.295957E1,6.450619E1,8.594275E1,1.3860567E2,-5.902145E1,-4.58974E1,-3.737896E1,-2.4315805E1,-2.1751797E1,-4.931622E0,7.5337543E0,5.9664925E1,1.57055435E1,3.9674603E1,5.1722637E1,8.2421715E1,9.2329506E1,3.474414E1,1.5635464E2,1.2120696E2,-6.873777E1,-5.6547802E1,-4.8175655E1,-3.778954E1,-4.03315E1,-3.046936E1,-1.2447297E1,-2.715942E1,-2.0233543E1,-4.2461082E1,-2.4714725E0,-2.8102842E1,-3.1991646E-1,1.701242E1,8.644819E1,2.6754229E1,1.8930838E1,-1.8763845E1,3.0804062E1,5.232373E1,6.506439E1,3.0714125E1,6.967269E1,1.0537756E2,6.257488E1,1.0180594E2,5.6238262E1,6.8084893E0,1.4119252E2,1.7371367E2,1.2533029E2,3.951126E1,-3.7634645E0,-3.2166462E0,-2.6684697E0,-3.2179322E0,-2.3048973E0,-2.6550221E0,-2.1100156E0,-1.4836555E0,-1.948964E0,-2.5786753E0,-1.7481066E0,-1.2057838E0,-2.448351E-1,-1.1213948E0,-1.4750943E0,-5.830627E-1,-8.10794E-1,-1.3806441E0,-1.1863458E0,-2.291327E0,-4.3161154E-1,2.651559E-1,-1.7472609E0,-5.8448684E-1,3.5559836E-1,-4.448385E-1,1.2972004E0,4.7983918E-1,2.3923118E0,5.168439E0,8.9036363E-1,4.2650723E0,1.2348622E0,-3.5872187E-2,-1.4362186E0,1.0803103E0,1.7765468E0,8.3525145E-1,2.9064894E0,1.6415339E0,3.7331185E0,1.9003289E0,2.006565E0,-3.2344222E-1,3.60659E0,1.4285825E0,3.986948E0,6.097685E0,4.091963E0,2.1751044E0,5.1986957E0,1.4096862E0,3.0260603E0,-8.7514555E-1,-1.0596504E-1,5.8583364E0,5.9473906E0,7.4121017E0,8.895965E0,6.4833765E0,7.0245905E0,5.2555623E0,1.1203502E0,6.9328523E0],"categories":[],"categories_nodes":[],"categories_segments":[],"categories_sizes":[],"default_left":[1,0,0,0,1,1,1,0,1,0,0,1,0,0,0,0,1,1,0,0,0,0,0,0,0,0,0,0,0,0,0,0,0,0,0,0,0,0,0,0,0,1,0,0,0,0,0,0,0,0,0,0,0,0,0,0,0,0,0,0,0,0,0,0,0,0,0,0,0,0,0,0,0,0,0,0,0,0,0,0,0,0,0,0,0,0,0,0,0,0,0,0,0,0,0,0,0,0,0,0,0,0,0,0,0,0,0,0,0,0,0,0,0,0,0,0,0,0,0,0,0,0,0,0,0,0,0],"id":7,"left_children":[1,3,5,7,9,11,13,15,17,19,21,23,25,27,29,31,33,35,37,39,41,43,45,47,49,51,53,55,57,59,61,63,65,67,69,71,73,75,77,79,81,83,85,87,89,91,93,95,97,99,101,103,105,107,109,111,113,115,117,119,121,123,125,-1,-1,-1,-1,-1,-1,-1,-1,-1,-1,-1,-1,-1,-1,-1,-1,-1,-1,-1,-1,-1,-1,-1,-1,-1,-1,-1,-1,-1,-1,-1,-1,-1,-1,-1,-1,-1,-1,-1,-1,-1,-1,-1,-1,-1,-1,-1,-1,-1,-1,-1,-1,-1,-1,-1,-1,-1,-1,-1,-1,-1,-1,-1,-1],"loss_changes":[1.2587302E9,3.1261878E8,2.0506131E8,3.554355E7,4.8108064E7,4.094803E7,4.4924544E7,7.46672E6,8.059872E6,1.2275988E7,2.3886236E7,1.65168E7,1.3243168E7,1.483968E7,7.761824E6,1.932448E6,1.733088E6,2.553344E6,2.55966E6,2.562604E6,5.287569E6,1.4163552E7,8.120304E6,4.440753E6,1.1513056E7,9.460328E6,7.041472E6,1.137296E7,3.023495E6,3.257312E6,4.282576E6,4.65384E5,1.590944E6,7.47744E5,7.36472E5,1.331584E6,1.069388E6,1.104886E6,2.221132E6,2.25168E6,3.4997E5,4.0165278E6,9.994395E5,6.6324995E6,5.709864E6,3.313148E6,2.1649982E6,4.138187E6,1.3750224E6,4.019596E6,4.785512E6,5.358936E6,4.592239E6,1.563336E6,3.644336E6,3.579208E6,4.881632E6,8.9991E5,2.1589425E6,1.026912E6,1.053008E6,3.699408E6,1.0364275E6,0E0,0E0,0E0,0E0,0E0,0E0,0E0,0E0,0E0,0E0,0E0,0E0,0E0,0E0,0E0,0E0,0E0,0E0,0E0,0E0,0E0,0E0,0E0,0E0,0E0,0E0,0E0,0E0,0E0,0E0,0E0,0E0,0E0,0E0,0E0,0E0,0E0,0E0,0E0,0E0,0E0,0E0,0E0,0E0,0E0,0E0,0E0,0E0,0E0,0E0,0E0,0E0,0E0,0E0,0E0,0E0,0E0,0E0,0E0,0E0,0E0,0E0,0E0,0E0],"parents":[2147483647,0,0,1,1,2,2,3,3,4,4,5,5,6,6,7,7,8,8,9,9,10,10,11,11,12,12,13,13,14,14,15,15,16,16,17,17,18,18,19,19,20,20,21,21,22,22,23,23,24,24,25,25,26,26,27,27,28,28,29,29,30,30,31,31,32,32,33,33,34,34,35,35,36,36,37,37,38,38,39,39,40,40,41,41,42,42,43,43,44,44,45,45,46,46,47,47,48,48,49,49,50,50,51,51,52,52,53,53,54,54,55,55,56,56,57,57,58,58,59,59,60,60,61,61,62,62],"right_children":[2,4,6,8,10,12,14,16,18,20,22,24,26,28,30,32,34,36,38,40,42,44,46,48,50,52,54,56,58,60,62,64,66,68,70,72,74,76,78,80,82,84,86,88,90,92,94,96,98,100,102,104,106,108,110,112,114,116,118,120,122,124,126,-1,-1,-1,-1,-1,-1,-1,-1,-1,-1,-1,-1,-1,-1,-1,-1,-1,-1,-1,-1,-1,-1,-1,-1,-1,-1,-1,-1,-1,-1,-1,-1,-1,-1,-1,-1,-1,-1,-1,-1,-1,-1,-1,-1,-1,-1,-1,-1,-1,-1,-1,-1,-1,-1,-1,-1,-1,-1,-1,-1,-1,-1,-1,-1],"split_conditions":[1.624E2,9.912E1,2.6769983E2,7.041E1,1.3123E2,2.0617668E2,2.6545E2,5.3976376E1,8.842518E1,1.123E2,1.1E1,1.4304E2,1E1,1.12E1,2.17E1,4.492E1,7.53E1,9.043E1,6E0,9E1,8.5E1,1.34E2,8.6E0,8.5E1,2.02E2,9.1E0,2.6163345E2,1.8018E2,3.7E1,3.558E2,9.1E1,2.98E1,9.5E0,8.6E0,1.7E2,9.1E1,1.61E2,8.5E0,1E1,8.6E0,2.17E1,1.2183179E2,1.86E2,8.5E0,7.6E0,1.6831E2,2.5965E2,9.2E0,2.5E2,1E1,1E1,5E0,5.4E1,8.4E1,3E0,2.65E1,8.5E1,5.1E1,1.1E1,1.1E1,1.0104068E3,2.63E1,9.7E1,-3.7634645E0,-3.2166462E0,-2.6684697E0,-3.2179322E0,-2.3048973E0,-2.6550221E0,-2.1100156E0,-1.4836555E0,-1.948964E0,-2.5786753E0,-1.7481066E0,-1.2057838E0,-2.448351E-1,-1.1213948E0,-1.4750943E0,-5.830627E-1,-8.10794E-1,-1.3806441E0,-1.1863458E0,-2.291327E0,-4.3161154E-1,2.651559E-1,-1.7472609E0,-5.8448684E-1,3.5559836E-1,-4.448385E-1,1.2972004E0,4.7983918E-1,2.3923118E0,5.168439E0,8.9036363E-1,4.2650723E0,1.2348622E0,-3.5872187E-2,-1.4362186E0,1.0803103E0,1.7765468E0,8.3525145E-1,2.9064894E0,1.6415339E0,3.7331185E0,1.9003289E0,2.006565E0,-3.2344222E-1,3.60659E0,1.4285825E0,3.986948E0,6.097685E0,4.091963E0,2.1751044E0,5.1986957E0,1.4096862E0,3.0260603E0,-8.7514555E-1,-1.0596504E-1,5.8583364E0,5.9473906E0,7.4121017E0,8.895965E0,6.4833765E0,7.0245905E0,5.2555623E0,1.1203502E0,6.9328523E0],"split_indices":[0,5,0,5,6,4,6,0,0,0,23,6,23,12,14,6,6,6,23,15,15,0,8,15,0,12,4,6,11,0,15,0,12,12,13,15,13,12,23,12,14,3,13,12,12,6,5,12,13,12,12,23,15,15,25,14,15,15,23,23,2,14,15,0,0,0,0,0,0,0,0,0,0,0,0,0,0,0,0,0,0,0,0,0,0,0,0,0,0,0,0,0,0,0,0,0,0,0,0,0,0,0,0,0,0,0,0,0,0,0,0,0,0,0,0,0,0,0,0,0,0,0,0,0,0,0,0],"split_type":[0,0,0,0,0,0,0,0,0,0,0,0,0,0,0,0,0,0,0,0,0,0,0,0,0,0,0,0,0,0,0,0,0,0,0,0,0,0,0,0,0,0,0,0,0,0,0,0,0,0,0,0,0,0,0,0,0,0,0,0,0,0,0,0,0,0,0,0,0,0,0,0,0,0,0,0,0,0,0,0,0,0,0,0,0,0,0,0,0,0,0,0,0,0,0,0,0,0,0,0,0,0,0,0,0,0,0,0,0,0,0,0,0,0,0,0,0,0,0,0,0,0,0,0,0,0,0],"sum_hessian":[1.020304E6,7.49315E5,2.70989E5,3.75554E5,3.73761E5,2.00403E5,7.0586E4,1.74485E5,2.01069E5,1.74286E5,1.99475E5,1.42561E5,5.7842E4,4.5391E4,2.5195E4,8.0564E4,9.3921E4,1.25217E5,7.5852E4,8.1529E4,9.2757E4,1.90261E5,9.214E3,3.994E4,1.02621E5,3.3758E4,2.4084E4,4.0356E4,5.035E3,1.2468E4,1.2727E4,1.6343E4,6.4221E4,7.3315E4,2.0606E4,8.7726E4,3.7491E4,1.4662E4,6.119E4,7.5962E4,5.567E3,8.3855E4,8.902E3,1.0405E5,8.6211E4,5.079E3,4.135E3,3.6523E4,3.417E3,6.0322E4,4.2299E4,2.0645E4,1.3113E4,1.5487E4,8.597E3,9.75E3,3.0606E4,2.845E3,2.19E3,6.66E3,5.808E3,1.2115E4,6.12E2,6.576E3,9.767E3,4.5652E4,1.8569E4,5.1569E4,2.1746E4,1.3348E4,7.258E3,7.8311E4,9.415E3,2.1959E4,1.5532E4,8.348E3,6.314E3,5.3155E4,8.035E3,4.9186E4,2.6776E4,8.49E2,4.718E3,4.6783E4,3.7072E4,6.282E3,2.62E3,5.5746E4,4.8304E4,3.9107E4,4.7104E4,1.549E3,3.53E3,3.588E3,5.47E2,2.8236E4,8.287E3,2.741E3,6.76E2,4.5175E4,1.5147E4,3.259E4,9.709E3,1.5238E4,5.407E3,1.0463E4,2.65E3,1.4612E4,8.75E2,3.378E3,5.219E3,4.849E3,4.901E3,2.973E4,8.76E2,2.689E3,1.56E2,2.027E3,1.63E2,1.607E3,5.053E3,5.299E3,5.09E2,6.92E3,5.195E3,5.23E2,8.9E1],"tree_param":{"num_deleted":"0","num_feature":"30","num_nodes":"127","size_leaf_vector":"1"}},{"base_weights":[5.0647384E-3,-2.0317759E1,5.4952362E1,-3.7059532E1,1.9292316E0,4.0123405E1,1.0103678E2,-4.6648838E1,-2.5323814E1,-7.8000755E0,1.2826308E1,2.5965307E1,5.4705456E1,8.0343124E1,1.2887062E2,-5.4533665E1,-4.1402176E1,-3.1889826E1,-1.8703024E1,-1.2877164E1,3.88779E0,1.0852031E1,6.1413475E1,1.4554878E1,3.448129E1,4.5860344E1,7.378309E1,9.2338295E1,5.21601E1,1.464847E2,1.1005377E2,-5.935825E1,-4.8907913E1,-4.485181E1,-3.6265594E1,-3.4255714E1,-2.3853086E1,-2.471223E1,-1.3462704E1,-2.0417614E1,-7.06219E0,2.3293748E0,9.3249664E1,5.8412476E0,1.9722366E1,8.631378E1,3.6986347E1,2.709892E1,-1.4338429E0,3.1182793E1,6.73781E1,5.5094387E1,2.6757685E1,6.311053E1,9.861992E1,5.75989E1,9.999706E1,4.0170784E1,9.449955E1,1.3168237E2,1.6394337E2,1.1606396E2,5.5925983E1,-3.3727386E0,-2.8298156E0,-2.2663944E0,-2.9219985E0,-2.394745E0,-2.074866E0,-1.9925495E0,-1.5557631E0,-2.0366218E0,-1.5431975E0,-1.3851649E0,-7.0511067E-1,-1.0985388E0,-1.5529459E0,7.519014E-3,-8.143919E-1,-1.1244075E0,-3.0715656E-1,3.5364148E-1,-4.4929036E-1,4.421941E-2,2.562201E0,6.9077883E0,1.3414778E0,4.9515915E-1,-1.1926105E-1,1.2449082E0,3.258704E-1,5.3479147E0,1.3856062E0,4.992833E0,1.6700518E0,1.6787109E0,6.221921E-1,-4.3456236E-1,1.0779828E0,1.9290651E0,1.0906168E0,3.68521E0,1.218721E0,2.1094213E0,3.22095E0,1.6429504E0,2.5975445E-1,3.8397965E0,2.043372E0,6.0476685E0,4.3162746E0,3.264426E0,-1.2069877E0,5.1176333E0,1.2700657E0,3.381728E0,9.728072E-1,5.36957E0,2.651881E0,5.978666E0,7.0205154E0,6.7375917E0,8.620898E0,6.623427E0,4.957273E0,1.5853919E0,4.157297E0],"categories":[],"categories_nodes":[],"categories_segments":[],"categories_sizes":[],"default_left":[1,1,0,0,0,0,1,0,0,0,0,0,1,0,0,1,1,0,0,0,0,0,0,0,1,0,0,0,0,0,0,0,0,0,0,0,1,0,0,0,0,0,0,0,0,0,0,0,0,0,0,0,0,0,0,0,0,0,0,0,0,0,0,0,0,0,0,0,0,0,0,0,0,0,0,0,0,0,0,0,0,0,0,0,0,0,0,0,0,0,0,0,0,0,0,0,0,0,0,0,0,0,0,0,0,0,0,0,0,0,0,0,0,0,0,0,0,0,0,0,0,0,0,0,0,0,0],"id":8,"left_children":[1,3,5,7,9,11,13,15,17,19,21,23,25,27,29,31,33,35,37,39,41,43,45,47,49,51,53,55,57,59,61,63,65,67,69,71,73,75,77,79,81,83,85,87,89,91,93,95,97,99,101,103,105,107,109,111,113,115,117,119,121,123,125,-1,-1,-1,-1,-1,-1,-1,-1,-1,-1,-1,-1,-1,-1,-1,-1,-1,-1,-1,-1,-1,-1,-1,-1,-1,-1,-1,-1,-1,-1,-1,-1,-1,-1,-1,-1,-1,-1,-1,-1,-1,-1,-1,-1,-1,-1,-1,-1,-1,-1,-1,-1,-1,-1,-1,-1,-1,-1,-1,-1,-1,-1,-1,-1],"loss_changes":[1.139268E9,2.7739082E8,1.882402E8,4.782304E7,3.3905936E7,4.302403E7,3.861395E7,9.672576E6,8.306808E6,1.0025895E7,1.4469456E7,1.0274352E7,1.7320384E7,1.2998672E7,9.461088E6,2.533184E6,2.486704E6,1.823464E6,2.996082E6,5.164612E6,7.1254475E6,6.442972E6,3.57936E6,9.06389E6,6.568072E6,1.2371728E7,8.613664E6,7.172576E6,5.826738E6,3.794368E6,4.492336E6,1.120912E6,1.469616E6,8.55536E5,1.040704E6,1.627E6,8.18945E5,7.70518E5,1.954902E6,1.515632E6,1.808359E6,3.5545735E6,2.6120925E6,3.0954238E6,3.576188E6,3.52482E6,6.6725825E5,2.402728E6,3.3157892E6,3.814456E6,1.49908E6,5.687824E6,3.007301E6,6.921472E6,2.672728E6,3.066333E6,3.881632E6,5.092063E6,1.348778E6,8.28288E5,1.651824E6,3.44112E6,9.097195E5,0E0,0E0,0E0,0E0,0E0,0E0,0E0,0E0,0E0,0E0,0E0,0E0,0E0,0E0,0E0,0E0,0E0,0E0,0E0,0E0,0E0,0E0,0E0,0E0,0E0,0E0,0E0,0E0,0E0,0E0,0E0,0E0,0E0,0E0,0E0,0E0,0E0,0E0,0E0,0E0,0E0,0E0,0E0,0E0,0E0,0E0,0E0,0E0,0E0,0E0,0E0,0E0,0E0,0E0,0E0,0E0,0E0,0E0,0E0,0E0,0E0,0E0,0E0,0E0],"parents":[2147483647,0,0,1,1,2,2,3,3,4,4,5,5,6,6,7,7,8,8,9,9,10,10,11,11,12,12,13,13,14,14,15,15,16,16,17,17,18,18,19,19,20,20,21,21,22,22,23,23,24,24,25,25,26,26,27,27,28,28,29,29,30,30,31,31,32,32,33,33,34,34,35,35,36,36,37,37,38,38,39,39,40,40,41,41,42,42,43,43,44,44,45,45,46,46,47,47,48,48,49,49,50,50,51,51,52,52,53,53,54,54,55,55,56,56,57,57,58,58,59,59,60,60,61,61,62,62],"right_children":[2,4,6,8,10,12,14,16,18,20,22,24,26,28,30,32,34,36,38,40,42,44,46,48,50,52,54,56,58,60,62,64,66,68,70,72,74,76,78,80,82,84,86,88,90,92,94,96,98,100,102,104,106,108,110,112,114,116,118,120,122,124,126,-1,-1,-1,-1,-1,-1,-1,-1,-1,-1,-1,-1,-1,-1,-1,-1,-1,-1,-1,-1,-1,-1,-1,-1,-1,-1,-1,-1,-1,-1,-1,-1,-1,-1,-1,-1,-1,-1,-1,-1,-1,-1,-1,-1,-1,-1,-1,-1,-1,-1,-1,-1,-1,-1,-1,-1,-1,-1,-1,-1,-1,-1,-1,-1],"split_conditions":[1.6119081E2,1.0993E2,2.723E2,7.8625336E1,1.261E2,1.8896931E2,2.5417E2,5.47E1,8.982E1,1.5499673E2,2.2868E2,2.18E2,2.102E2,8.8E0,2.25E1,5.923E1,7.53E1,2E1,1.03252075E2,1.02E2,2.5957E2,1.5560243E2,8E0,5.4E1,2.1493785E2,8.7E0,1.1E1,1.6831E2,1.1E1,3.8374E2,8E1,3.2E1,9.5E0,1.57E2,1.57E2,1.29E2,1.043E2,8.6E0,2.43E1,1E1,2.25E1,1.1E1,7.5E0,9.4E0,9.8E0,3E1,1.8E1,1E1,2.54E2,7.6E0,1.02E1,2.02E2,1.25E1,8E0,8.2E0,8.1E1,8.5E1,3.2E1,2.63E1,3.2E2,1.1E1,2.63E1,2.43E1,-3.3727386E0,-2.8298156E0,-2.2663944E0,-2.9219985E0,-2.394745E0,-2.074866E0,-1.9925495E0,-1.5557631E0,-2.0366218E0,-1.5431975E0,-1.3851649E0,-7.0511067E-1,-1.0985388E0,-1.5529459E0,7.519014E-3,-8.143919E-1,-1.1244075E0,-3.0715656E-1,3.5364148E-1,-4.4929036E-1,4.421941E-2,2.562201E0,6.9077883E0,1.3414778E0,4.9515915E-1,-1.1926105E-1,1.2449082E0,3.258704E-1,5.3479147E0,1.3856062E0,4.992833E0,1.6700518E0,1.6787109E0,6.221921E-1,-4.3456236E-1,1.0779828E0,1.9290651E0,1.0906168E0,3.68521E0,1.218721E0,2.1094213E0,3.22095E0,1.6429504E0,2.5975445E-1,3.8397965E0,2.043372E0,6.0476685E0,4.3162746E0,3.264426E0,-1.2069877E0,5.1176333E0,1.2700657E0,3.381728E0,9.728072E-1,5.36957E0,2.651881E0,5.978666E0,7.0205154E0,6.7375917E0,8.620898E0,6.623427E0,4.957273E0,1.5853919E0,4.157297E0],"split_indices":[0,6,0,0,0,3,6,0,6,4,6,9,6,12,10,6,6,24,0,0,6,3,8,15,4,12,23,6,23,7,15,0,12,13,13,13,0,12,10,23,10,23,12,12,12,10,14,12,13,12,12,0,12,12,8,15,15,15,10,0,23,14,10,0,0,0,0,0,0,0,0,0,0,0,0,0,0,0,0,0,0,0,0,0,0,0,0,0,0,0,0,0,0,0,0,0,0,0,0,0,0,0,0,0,0,0,0,0,0,0,0,0,0,0,0,0,0,0,0,0,0,0,0,0,0,0,0],"split_type":[0,0,0,0,0,0,0,0,0,0,0,0,0,0,0,0,0,0,0,0,0,0,0,0,0,0,0,0,0,0,0,0,0,0,0,0,0,0,0,0,0,0,0,0,0,0,0,0,0,0,0,0,0,0,0,0,0,0,0,0,0,0,0,0,0,0,0,0,0,0,0,0,0,0,0,0,0,0,0,0,0,0,0,0,0,0,0,0,0,0,0,0,0,0,0,0,0,0,0,0,0,0,0,0,0,0,0,0,0,0,0,0,0,0,0,0,0,0,0,0,0,0,0,0,0,0,0],"sum_hessian":[1.020222E6,7.44764E5,2.75458E5,4.24962E5,3.19802E5,2.08401E5,6.7057E4,2.33866E5,1.91096E5,1.68954E5,1.50848E5,1.05739E5,1.02662E5,3.8464E4,2.8593E4,9.3437E4,1.40429E5,9.5943E4,9.5153E4,1.17788E5,5.1166E4,1.44959E5,5.889E3,4.5191E4,6.0548E4,7.0144E4,3.2518E4,2.6979E4,1.1485E4,1.4765E4,1.3828E4,5.0295E4,4.3142E4,8.4005E4,5.6424E4,7.412E4,2.1823E4,4.4323E4,5.083E4,5.1284E4,6.6504E4,5.029E4,8.76E2,9.2633E4,5.2326E4,2.915E3,2.974E3,2.5323E4,1.9868E4,5.5032E4,5.516E3,4.7285E4,2.2859E4,2.2747E4,9.771E3,4.875E3,2.2104E4,8.952E3,2.533E3,7.995E3,6.77E3,1.2445E4,1.383E3,1.2787E4,3.7508E4,3.1367E4,1.1775E4,4.404E4,3.9965E4,3.3262E4,2.3162E4,2.5471E4,4.8649E4,1.5644E4,6.179E3,3.0956E4,1.3367E4,8.736E3,4.2094E4,4.4787E4,6.497E3,7.966E3,5.8538E4,4.8848E4,1.442E3,5.22E2,3.54E2,6.2013E4,3.062E4,3.7591E4,1.4735E4,2.155E3,7.6E2,1.59E2,2.815E3,1.7562E4,7.761E3,1.5102E4,4.766E3,3.075E4,2.4282E4,4.808E3,7.08E2,1.9836E4,2.7449E4,1.7817E4,5.042E3,1.4081E4,8.666E3,3.466E3,6.305E3,4.456E3,4.19E2,2.1427E4,6.77E2,3.848E3,5.104E3,1.931E3,6.02E2,3.355E3,4.64E3,1.527E3,5.243E3,6.315E3,6.13E3,7.33E2,6.5E2],"tree_param":{"num_deleted":"0","num_feature":"30","num_nodes":"127","size_leaf_vector":"1"}},{"base_weights":[3.3259287E-2,-1.8720404E1,5.3807575E1,-3.7518307E1,-1.985752E-1,4.126168E1,1.0366748E2,-4.6561886E1,-2.8920876E1,-1.0979933E1,9.872456E0,2.887864E1,6.0948605E1,1.2037922E2,7.6074E1,-5.3017147E1,-4.1282642E1,-3.4202103E1,-2.2335964E1,-1.92126E1,-3.8374228E0,7.5888596E0,5.5118042E1,2.0603804E1,3.9452328E1,4.9038063E1,7.431243E1,1.00762726E2,1.3815146E2,5.6972553E1,9.545808E1,-5.898876E1,-4.8990448E1,-4.4993507E1,-3.521361E1,-3.7442013E1,-2.9689798E1,-1.0612063E1,-2.5294832E1,-2.5899385E1,-1.5890807E1,-1.0037978E1,2.1227336E0,1.15057185E-1,1.5926727E1,7.954907E1,2.2811268E1,2.1136062E0,2.4569265E1,4.6977043E1,3.1402666E1,3.5032352E1,6.0391792E1,6.764342E1,9.308916E1,4.7754738E1,1.0540391E2,1.25025276E2,1.5482613E2,5.214186E1,9.181184E1,8.518058E1,1.1914596E2,-3.382771E0,-2.8385942E0,-2.5960517E0,-2.273802E0,-2.590181E0,-2.141386E0,-1.9092306E0,-1.2536172E0,-2.0681834E0,-1.7472241E0,-1.6187111E0,-1.1168017E0,-1.0593779E0,-2.3110302E-1,-1.4514111E0,-9.75691E-1,-1.5405587E0,-1.0157795E0,-8.6724156E-1,-2.3354848E-1,3.032877E-1,-6.356895E-1,5.418454E-1,-3.988524E-2,-2.56808E-1,4.6798047E-1,5.9534836E-1,1.4440678E0,2.172302E0,4.7478538E0,7.346156E-1,3.669957E0,9.5938414E-1,-2.9555696E-1,8.3542407E-1,1.5306925E0,1.9081E0,2.8931086E0,-1.949109E0,1.6187842E0,5.28061E-1,1.9935604E0,2.138734E0,3.3910885E0,3.7466438E0,2.7177427E0,5.094566E0,3.3765283E0,5.49271E-1,3.3282533E0,4.936507E0,6.025233E0,3.5158699E0,6.4726524E0,7.1618342E0,8.521425E0,1.3665643E0,3.0979693E0,5.469262E0,3.1439455E0,3.3645852E0,4.96196E0,5.3305697E0,6.8030105E0],"categories":[],"categories_nodes":[],"categories_segments":[],"categories_sizes":[],"default_left":[1,0,1,1,1,0,0,1,1,0,0,1,1,1,0,1,0,0,0,1,1,0,0,1,0,0,0,0,0,0,0,0,0,0,1,0,0,0,0,1,0,0,0,0,1,0,0,0,0,1,0,0,0,0,0,0,0,0,0,0,0,0,0,0,0,0,0,0,0,0,0,0,0,0,0,0,0,0,0,0,0,0,0,0,0,0,0,0,0,0,0,0,0,0,0,0,0,0,0,0,0,0,0,0,0,0,0,0,0,0,0,0,0,0,0,0,0,0,0,0,0,0,0,0,0,0,0],"id":9,"left_children":[1,3,5,7,9,11,13,15,17,19,21,23,25,27,29,31,33,35,37,39,41,43,45,47,49,51,53,55,57,59,61,63,65,67,69,71,73,75,77,79,81,83,85,87,89,91,93,95,97,99,101,103,105,107,109,111,113,115,117,119,121,123,125,-1,-1,-1,-1,-1,-1,-1,-1,-1,-1,-1,-1,-1,-1,-1,-1,-1,-1,-1,-1,-1,-1,-1,-1,-1,-1,-1,-1,-1,-1,-1,-1,-1,-1,-1,-1,-1,-1,-1,-1,-1,-1,-1,-1,-1,-1,-1,-1,-1,-1,-1,-1,-1,-1,-1,-1,-1,-1,-1,-1,-1,-1,-1,-1],"loss_changes":[1.02965325E9,2.6356794E8,1.6513997E8,2.9210144E7,4.140186E7,5.141984E7,2.4465152E7,6.237632E6,6.697344E6,1.082877E7,2.0369328E7,1.1328728E7,1.296E7,1.1509344E7,7.407984E6,1.977776E6,2.266976E6,1.561424E6,2.973488E6,1.899834E6,3.6442428E6,1.1695135E7,7.474316E6,5.32622E6,3.44176E6,6.846264E6,4.7996E6,3.861152E6,3.775712E6,1.692832E6,2.408792E6,6.33432E5,5.04392E5,9.1968E5,1.150752E6,6.07856E5,8.81168E5,1.0943522E6,1.476752E6,7.78064E5,9.32406E5,2.082644E6,1.2795948E6,4.804416E6,4.619186E6,2.995872E6,1.6746618E6,1.7578804E6,2.84156E6,2.816792E6,1.882426E6,2.28304E6,3.110296E6,2.739568E6,2.255424E6,8.755805E5,1.444256E6,2.34224E6,1.355824E6,2.156654E6,6.16991E5,1.736924E6,6.2238E5,0E0,0E0,0E0,0E0,0E0,0E0,0E0,0E0,0E0,0E0,0E0,0E0,0E0,0E0,0E0,0E0,0E0,0E0,0E0,0E0,0E0,0E0,0E0,0E0,0E0,0E0,0E0,0E0,0E0,0E0,0E0,0E0,0E0,0E0,0E0,0E0,0E0,0E0,0E0,0E0,0E0,0E0,0E0,0E0,0E0,0E0,0E0,0E0,0E0,0E0,0E0,0E0,0E0,0E0,0E0,0E0,0E0,0E0,0E0,0E0,0E0,0E0,0E0,0E0],"parents":[2147483647,0,0,1,1,2,2,3,3,4,4,5,5,6,6,7,7,8,8,9,9,10,10,11,11,12,12,13,13,14,14,15,15,16,16,17,17,18,18,19,19,20,20,21,21,22,22,23,23,24,24,25,25,26,26,27,27,28,28,29,29,30,30,31,31,32,32,33,33,34,34,35,35,36,36,37,37,38,38,39,39,40,40,41,41,42,42,43,43,44,44,45,45,46,46,47,47,48,48,49,49,50,50,51,51,52,52,53,53,54,54,55,55,56,56,57,57,58,58,59,59,60,60,61,61,62,62],"right_children":[2,4,6,8,10,12,14,16,18,20,22,24,26,28,30,32,34,36,38,40,42,44,46,48,50,52,54,56,58,60,62,64,66,68,70,72,74,76,78,80,82,84,86,88,90,92,94,96,98,100,102,104,106,108,110,112,114,116,118,120,122,124,126,-1,-1,-1,-1,-1,-1,-1,-1,-1,-1,-1,-1,-1,-1,-1,-1,-1,-1,-1,-1,-1,-1,-1,-1,-1,-1,-1,-1,-1,-1,-1,-1,-1,-1,-1,-1,-1,-1,-1,-1,-1,-1,-1,-1,-1,-1,-1,-1,-1,-1,-1,-1,-1,-1,-1,-1,-1,-1,-1,-1,-1,-1,-1,-1],"split_conditions":[1.644E2,9.912E1,2.3838E2,6.923972E1,1.3302E2,2.2173106E2,2.59E1,6.183E1,8.51E1,1.129E2,1.1E1,1.7595761E2,2.2391983E2,3.579E2,2.733E2,4.4304176E1,1.57E2,8.45E1,2.55E1,1.0135E2,1.178726E2,1.34E2,8.9E0,1.2511E2,2.74E1,2.29E2,3.033E2,5.1E1,3.0643E2,1.9E1,3.2661542E2,3.577E1,1.57E2,2.67E1,9.19E1,1.28E2,2E1,1.47E2,9.472092E1,8.691177E1,2E1,2.22E1,2.49E1,1.632153E2,1.7595761E2,1.6831E2,2.5965E2,2.42E1,2.02E2,2.4349E2,2.32E1,1.4242E2,1.485E2,2.74E1,2.93E1,2.641562E2,3.2E2,4E0,4.324E2,1.87E2,8.8E0,2E2,3.678E2,-3.382771E0,-2.8385942E0,-2.5960517E0,-2.273802E0,-2.590181E0,-2.141386E0,-1.9092306E0,-1.2536172E0,-2.0681834E0,-1.7472241E0,-1.6187111E0,-1.1168017E0,-1.0593779E0,-2.3110302E-1,-1.4514111E0,-9.75691E-1,-1.5405587E0,-1.0157795E0,-8.6724156E-1,-2.3354848E-1,3.032877E-1,-6.356895E-1,5.418454E-1,-3.988524E-2,-2.56808E-1,4.6798047E-1,5.9534836E-1,1.4440678E0,2.172302E0,4.7478538E0,7.346156E-1,3.669957E0,9.5938414E-1,-2.9555696E-1,8.3542407E-1,1.5306925E0,1.9081E0,2.8931086E0,-1.949109E0,1.6187842E0,5.28061E-1,1.9935604E0,2.138734E0,3.3910885E0,3.7466438E0,2.7177427E0,5.094566E0,3.3765283E0,5.49271E-1,3.3282533E0,4.936507E0,6.025233E0,3.5158699E0,6.4726524E0,7.1618342E0,8.521425E0,1.3665643E0,3.0979693E0,5.469262E0,3.1439455E0,3.3645852E0,4.96196E0,5.3305697E0,6.8030105E0],"split_indices":[0,5,6,0,6,0,10,6,6,0,23,3,3,7,3,0,13,0,10,6,3,0,8,6,10,9,0,9,6,24,0,6,13,14,4,13,24,9,0,4,24,10,10,4,3,6,5,10,9,7,14,6,4,10,10,3,0,23,7,9,8,9,3,0,0,0,0,0,0,0,0,0,0,0,0,0,0,0,0,0,0,0,0,0,0,0,0,0,0,0,0,0,0,0,0,0,0,0,0,0,0,0,0,0,0,0,0,0,0,0,0,0,0,0,0,0,0,0,0,0,0,0,0,0,0,0,0],"split_type":[0,0,0,0,0,0,0,0,0,0,0,0,0,0,0,0,0,0,0,0,0,0,0,0,0,0,0,0,0,0,0,0,0,0,0,0,0,0,0,0,0,0,0,0,0,0,0,0,0,0,0,0,0,0,0,0,0,0,0,0,0,0,0,0,0,0,0,0,0,0,0,0,0,0,0,0,0,0,0,0,0,0,0,0,0,0,0,0,0,0,0,0,0,0,0,0,0,0,0,0,0,0,0,0,0,0,0,0,0,0,0,0,0,0,0,0,0,0,0,0,0,0,0,0,0,0,0],"sum_hessian":[1.021008E6,7.57005E5,2.64003E5,3.75702E5,3.81303E5,2.1093E5,5.3073E4,1.83098E5,1.92604E5,1.84157E5,1.97146E5,1.29486E5,8.1444E4,3.3052E4,2.0021E4,8.237E4,1.00728E5,1.0688E5,8.5724E4,8.5549E4,9.8608E4,1.87675E5,9.471E3,7.2641E4,5.6845E4,4.3066E4,3.8378E4,1.5714E4,1.7338E4,1.0086E4,9.935E3,3.3168E4,4.9202E4,6.2504E4,3.8224E4,6.2207E4,4.4673E4,1.7276E4,6.8448E4,2.8391E4,5.7158E4,4.8329E4,5.0279E4,9.8966E4,8.8709E4,5.392E3,4.079E3,1.2828E4,5.9813E4,2.9378E4,2.7467E4,1.9283E4,2.3783E4,2.8323E4,1.0055E4,1.266E3,1.4448E4,9.706E3,7.632E3,8.86E3,1.226E3,6.932E3,3.003E3,6.75E3,2.6418E4,2.6822E4,2.238E4,1.5076E4,4.7428E4,2.9561E4,8.663E3,2.4197E4,3.801E4,3.2724E4,1.1949E4,6.246E3,1.103E4,4.1587E4,2.6861E4,1.5102E4,1.3289E4,5.06E4,6.558E3,6.886E3,4.1443E4,1.262E4,3.7659E4,6.3115E4,3.5851E4,6.7703E4,2.1006E4,1.614E3,3.778E3,3.516E3,5.63E2,4.101E3,8.727E3,2.6002E4,3.3811E4,1.6235E4,1.3143E4,3.74E2,2.7093E4,3.184E3,1.6099E4,7.057E3,1.6726E4,1.8287E4,1.0036E4,7.477E3,2.578E3,4.29E2,8.37E2,1.0025E4,4.423E3,7.28E2,8.978E3,4.385E3,3.247E3,2.513E3,6.347E3,7.61E2,4.65E2,3.053E3,3.879E3,1.729E3,1.274E3],"tree_param":{"num_deleted":"0","num_feature":"30","num_nodes":"127","size_leaf_vector":"1"}},{"base_weights":[2.8345594E-3,-2.1058048E1,4.3206177E1,-3.6479626E1,-4.1619935E0,2.684526E1,8.031852E1,-4.529382E1,-2.9201597E1,-8.769738E0,1.5583658E1,1.6017181E1,3.905442E1,6.338408E1,1.0941036E2,-5.1435482E1,-4.0388744E1,-3.3288002E1,-2.2806211E1,-1.6983282E1,-2.3949077E0,8.950805E0,5.102703E1,1.8188955E1,-1.7990713E1,3.4794384E1,6.931452E1,7.3708824E1,3.9284584E1,1.2856923E2,9.4138405E1,-5.9010128E1,-4.8830208E1,-4.2983154E1,-3.5013523E1,-3.5460194E1,-2.7229458E1,-7.7153053E0,-2.492592E1,-2.259587E1,-1.1516749E1,-5.387343E-1,-2.390977E1,1.7143932E1,1.2108381E0,3.799256E1,9.4308426E1,2.460374E1,5.489348E0,1.2448473E1,-2.9810484E1,4.5764065E1,2.3492558E1,4.6028717E1,8.769927E1,6.193576E1,8.983023E1,3.104017E1,7.418705E1,1.1344107E2,1.4695619E2,7.7087555E1,1.0858123E2,-3.3229406E0,-2.793009E0,-2.2935336E0,-2.8026252E0,-2.2218835E0,-1.8688964E0,-7.715195E-1,-1.8121756E0,-1.7108568E0,-2.2619684E0,-1.5371774E0,-9.9904805E-1,-1.8108262E-1,-1.5135844E0,-1.4287659E0,-1.0394642E0,-1.0539834E0,-2.0332165E0,-2.5615808E-1,-9.054427E-1,1.556091E-1,-4.694333E-1,-4.3431616E-1,-1.5127735E0,1.457416E0,1.4907245E-1,-4.4479513E-1,3.4535185E-1,1.1377085E0,3.4063866E0,5.1600127E0,1.475734E0,8.340133E-1,1.8458179E0,8.5417634E-1,-1.568484E-1,2.2153757E0,-5.945684E-1,-8.411665E-1,-2.0995822E0,1.976845E0,3.6964443E0,1.4251536E0,-2.954595E-1,1.837002E0,4.7273207E0,2.9978554E0,5.6388893E0,3.2502847E0,-1.9748598E-1,4.9082713E0,3.602549E0,2.767516E0,6.4669126E-1,4.2146935E0,2.3129632E0,5.054894E0,6.259837E0,7.579042E0,5.199148E0,4.1121354E0,1.3611144E0,5.5430136E0,2.5935602E0],"categories":[],"categories_nodes":[],"categories_segments":[],"categories_sizes":[],"default_left":[1,0,0,0,1,1,1,1,1,0,0,0,0,0,0,0,1,1,0,1,0,0,1,0,0,0,0,1,0,0,0,1,0,0,0,0,0,0,0,0,0,0,0,0,0,0,0,1,0,0,0,1,0,1,0,0,0,0,0,0,0,0,0,0,0,0,0,0,0,0,0,0,0,0,0,0,0,0,0,0,0,0,0,0,0,0,0,0,0,0,0,0,0,0,0,0,0,0,0,0,0,0,0,0,0,0,0,0,0,0,0,0,0,0,0,0,0,0,0,0,0,0,0,0,0,0,0],"id":10,"left_children":[1,3,5,7,9,11,13,15,17,19,21,23,25,27,29,31,33,35,37,39,41,43,45,47,49,51,53,55,57,59,61,63,65,67,69,71,73,75,77,79,81,83,85,87,89,91,93,95,97,99,101,103,105,107,109,111,113,115,117,119,121,123,125,-1,-1,-1,-1,-1,-1,-1,-1,-1,-1,-1,-1,-1,-1,-1,-1,-1,-1,-1,-1,-1,-1,-1,-1,-1,-1,-1,-1,-1,-1,-1,-1,-1,-1,-1,-1,-1,-1,-1,-1,-1,-1,-1,-1,-1,-1,-1,-1,-1,-1,-1,-1,-1,-1,-1,-1,-1,-1,-1,-1,-1,-1,-1,-1],"loss_changes":[9.284379E8,1.7873962E8,2.0304282E8,2.3005088E7,2.9782396E7,3.068168E7,5.039853E7,4.884192E6,5.132976E6,1.3896602E7,1.4559651E7,9.084942E6,1.4059776E7,1.6088864E7,1.1001984E7,1.418304E6,1.256128E6,1.576336E6,2.449668E6,3.558076E6,5.967521E6,3.3084422E6,5.504212E6,9.4188E6,2.6570178E6,1.1854392E7,5.758664E6,8.587344E6,5.579768E6,4.626944E6,5.150832E6,4.28612E5,1.142936E6,4.942E5,7.06708E5,1.070848E6,8.05186E5,8.710068E5,1.013164E6,1.56679E6,2.4762665E6,4.4447395E6,1.146227E6,4.3086965E6,1.544607E6,3.444833E6,1.298442E6,7.493548E6,3.880937E6,1.6025941E6,8.40752E5,8.507728E6,6.939132E6,2.673928E6,5.225844E6,5.293304E6,2.824336E6,6.907277E6,1.04216E6,1.316912E6,1.48112E6,2.468392E6,1.459872E6,0E0,0E0,0E0,0E0,0E0,0E0,0E0,0E0,0E0,0E0,0E0,0E0,0E0,0E0,0E0,0E0,0E0,0E0,0E0,0E0,0E0,0E0,0E0,0E0,0E0,0E0,0E0,0E0,0E0,0E0,0E0,0E0,0E0,0E0,0E0,0E0,0E0,0E0,0E0,0E0,0E0,0E0,0E0,0E0,0E0,0E0,0E0,0E0,0E0,0E0,0E0,0E0,0E0,0E0,0E0,0E0,0E0,0E0,0E0,0E0,0E0,0E0,0E0,0E0],"parents":[2147483647,0,0,1,1,2,2,3,3,4,4,5,5,6,6,7,7,8,8,9,9,10,10,11,11,12,12,13,13,14,14,15,15,16,16,17,17,18,18,19,19,20,20,21,21,22,22,23,23,24,24,25,25,26,26,27,27,28,28,29,29,30,30,31,31,32,32,33,33,34,34,35,35,36,36,37,37,38,38,39,39,40,40,41,41,42,42,43,43,44,44,45,45,46,46,47,47,48,48,49,49,50,50,51,51,52,52,53,53,54,54,55,55,56,56,57,57,58,58,59,59,60,60,61,61,62,62],"right_children":[2,4,6,8,10,12,14,16,18,20,22,24,26,28,30,32,34,36,38,40,42,44,46,48,50,52,54,56,58,60,62,64,66,68,70,72,74,76,78,80,82,84,86,88,90,92,94,96,98,100,102,104,106,108,110,112,114,116,118,120,122,124,126,-1,-1,-1,-1,-1,-1,-1,-1,-1,-1,-1,-1,-1,-1,-1,-1,-1,-1,-1,-1,-1,-1,-1,-1,-1,-1,-1,-1,-1,-1,-1,-1,-1,-1,-1,-1,-1,-1,-1,-1,-1,-1,-1,-1,-1,-1,-1,-1,-1,-1,-1,-1,-1,-1,-1,-1,-1,-1,-1,-1,-1,-1,-1,-1],"split_conditions":[1.4687744E2,9.665E1,2.3834805E2,6.878E1,1.6123E2,1.6557E2,2.4554E2,5.17E1,8.564679E1,1.1042833E2,1E1,8.5E1,1.1E1,8.8E0,2.2E1,4.647E1,6.896E1,9.043E1,2.49E1,1.1322E2,8.5E1,8.5E0,2.4494981E2,8.5E0,2.14E1,7.6E0,4.7E1,2.4848724E2,1.1E1,3.438099E2,3.056E2,2.7E1,9.5E0,2E1,2.22E1,9.1E1,2.05E2,9.5E0,8.947674E1,9E1,7.9E0,9.5E0,2.27E1,5E0,1.175E2,5.4E1,9.4E0,1.617E2,3.3E1,8.1E0,9.1E1,2.3523502E2,5.8E1,3.307E2,2.0321E2,8.5E1,6.6E0,3.2E1,2.63E1,3.443E2,1.0104068E3,7.8E1,1.24E1,-3.3229406E0,-2.793009E0,-2.2935336E0,-2.8026252E0,-2.2218835E0,-1.8688964E0,-7.715195E-1,-1.8121756E0,-1.7108568E0,-2.2619684E0,-1.5371774E0,-9.9904805E-1,-1.8108262E-1,-1.5135844E0,-1.4287659E0,-1.0394642E0,-1.0539834E0,-2.0332165E0,-2.5615808E-1,-9.054427E-1,1.556091E-1,-4.694333E-1,-4.3431616E-1,-1.5127735E0,1.457416E0,1.4907245E-1,-4.4479513E-1,3.4535185E-1,1.1377085E0,3.4063866E0,5.1600127E0,1.475734E0,8.340133E-1,1.8458179E0,8.5417634E-1,-1.568484E-1,2.2153757E0,-5.945684E-1,-8.411665E-1,-2.0995822E0,1.976845E0,3.6964443E0,1.4251536E0,-2.954595E-1,1.837002E0,4.7273207E0,2.9978554E0,5.6388893E0,3.2502847E0,-1.9748598E-1,4.9082713E0,3.602549E0,2.767516E0,6.4669126E-1,4.2146935E0,2.3129632E0,5.054894E0,6.259837E0,7.579042E0,5.199148E0,4.1121354E0,1.3611144E0,5.5430136E0,2.5935602E0],"split_indices":[0,5,0,5,6,6,6,0,0,0,23,15,23,12,10,6,6,6,10,6,15,12,3,12,10,12,11,3,23,0,3,0,12,24,10,15,13,12,3,15,12,12,10,23,0,11,12,3,15,12,15,3,15,2,6,15,12,15,10,7,2,15,12,0,0,0,0,0,0,0,0,0,0,0,0,0,0,0,0,0,0,0,0,0,0,0,0,0,0,0,0,0,0,0,0,0,0,0,0,0,0,0,0,0,0,0,0,0,0,0,0,0,0,0,0,0,0,0,0,0,0,0,0,0,0,0,0],"split_type":[0,0,0,0,0,0,0,0,0,0,0,0,0,0,0,0,0,0,0,0,0,0,0,0,0,0,0,0,0,0,0,0,0,0,0,0,0,0,0,0,0,0,0,0,0,0,0,0,0,0,0,0,0,0,0,0,0,0,0,0,0,0,0,0,0,0,0,0,0,0,0,0,0,0,0,0,0,0,0,0,0,0,0,0,0,0,0,0,0,0,0,0,0,0,0,0,0,0,0,0,0,0,0,0,0,0,0,0,0,0,0,0,0,0,0,0,0,0,0,0,0,0,0,0,0,0,0],"sum_hessian":[1.020371E6,6.85972E5,3.34399E5,3.58634E5,3.27338E5,2.32086E5,1.02313E5,1.62197E5,1.96437E5,2.65405E5,6.1933E4,1.23001E5,1.09085E5,6.4671E4,3.7642E4,7.2016E4,9.0181E4,1.19852E5,7.6585E4,1.15976E5,1.49429E5,5.2171E4,9.762E3,1.15618E5,7.383E3,9.5625E4,1.346E4,4.5273E4,1.9398E4,1.6693E4,2.0949E4,1.8425E4,5.3591E4,6.0819E4,2.9362E4,8.8218E4,3.1634E4,9.433E3,6.7152E4,5.7222E4,5.8754E4,1.37562E5,1.1867E4,2.5343E4,2.6828E4,7.504E3,2.258E3,7.6816E4,3.8802E4,2.065E3,5.318E3,4.8524E4,4.7101E4,5.94E3,7.52E3,2.6168E4,1.9105E4,1.5693E4,3.705E3,9.162E3,7.531E3,9.61E3,1.1339E4,5.47E3,1.2955E4,3.8019E4,1.5572E4,4.8283E4,1.2536E4,1.736E3,2.7626E4,7.8273E4,9.945E3,2.1303E4,1.0331E4,7.985E3,1.448E3,3.5674E4,3.1478E4,5.2794E4,4.428E3,2.9827E4,2.8927E4,9.7387E4,4.0175E4,3.492E3,8.375E3,1.3716E4,1.1627E4,9.67E3,1.7158E4,4.985E3,2.519E3,1.985E3,2.73E2,4.674E4,3.0076E4,1.6553E4,2.2249E4,8.94E2,1.171E3,2.575E3,2.743E3,3.974E4,8.784E3,4.0243E4,6.858E3,4.987E3,9.53E2,3.572E3,3.948E3,2.5003E4,1.165E3,1.3004E4,6.101E3,6.698E3,8.995E3,2.719E3,9.86E2,4.474E3,4.688E3,6.797E3,7.34E2,8.709E3,9.01E2,1.09E4,4.39E2],"tree_param":{"num_deleted":"0","num_feature":"30","num_nodes":"127","size_leaf_vector":"1"}},{"base_weights":[-2.6709149E-2,-1.628177E1,5.069895E1,-3.1630465E1,3.082639E0,3.9130276E1,9.38955E1,-3.974957E1,-2.103546E1,-5.8671875E0,1.2924343E1,2.8532116E1,5.6472633E1,7.5753006E1,1.13859474E2,-4.5723328E1,-3.432494E1,-2.678325E1,-1.549154E1,-7.6867313E0,2.0904768E1,9.998267E0,3.8387943E1,3.309667E1,1.2312864E1,6.622586E1,3.3986153E1,9.320486E1,5.8314728E1,9.698632E1,1.2675862E2,-5.1752804E1,-4.1954865E1,-3.1846441E1,-4.021493E1,-2.975034E1,-2.1459969E1,-1.4066154E1,-3.350846E1,-1.4629506E1,-2.2044694E0,1.0543942E1,6.6746025E1,1.3852119E1,1.13652624E-1,2.97247E1,7.563268E1,3.539575E1,-5.6925244E0,2.007473E1,-8.673632E0,4.4088577E1,7.358441E1,7.089285E1,2.8760641E1,5.504746E1,9.849947E1,4.4552166E1,7.229337E1,1.0296874E2,2.6532276E1,1.3003731E2,5.6642315E1,-2.4508452E0,-2.897979E0,-2.0058098E0,-2.3877816E0,-1.725304E0,-1.2931259E0,-1.8448521E0,-2.3130078E0,-1.6173311E0,-1.2017578E0,-9.95453E-1,-1.8344854E0,-8.849859E-1,-3.5612044E-1,-1.4882883E0,-2.3731856E0,-5.0131506E-1,-1.0737213E0,1.7286596E-1,-3.446183E-1,1.1576213E0,3.2541115E-2,9.9639386E-1,4.681741E0,1.1324328E0,4.4556555E-1,2.6733485E-1,-9.6114093E-1,1.321802E0,3.9933896E0,2.184916E0,5.4491897E0,1.5189883E0,2.55766E0,1.3764518E0,-1.2111104E0,4.8818335E-1,1.4325569E0,-7.206377E-1,2.10241E0,2.6345594E0,5.8282924E-1,3.2672493E0,4.547689E0,3.9807413E0,6.586162E-1,1.0091127E0,3.2215126E0,4.2311454E0,5.201106E-1,4.6171336E0,6.199823E0,1.3328099E0,2.8126132E0,4.2707477E0,2.4398298E0,6.2690535E0,4.2245E0,5.3206935E0,2.1615043E-1,6.10139E0,7.5881815E0,1.8742676E0,5.2269664E0],"categories":[],"categories_nodes":[],"categories_segments":[],"categories_sizes":[],"default_left":[1,1,1,0,0,0,0,0,0,0,0,0,0,0,0,0,0,1,0,0,0,0,0,0,0,0,0,0,0,0,0,0,0,0,0,0,0,0,0,0,0,0,0,0,0,0,0,1,0,0,0,0,0,0,0,0,0,0,0,0,0,0,0,0,0,0,0,0,0,0,0,0,0,0,0,0,0,0,0,0,0,0,0,0,0,0,0,0,0,0,0,0,0,0,0,0,0,0,0,0,0,0,0,0,0,0,0,0,0,0,0,0,0,0,0,0,0,0,0,0,0,0,0,0,0,0,0],"id":11,"left_children":[1,3,5,7,9,11,13,15,17,19,21,23,25,27,29,31,33,35,37,39,41,43,45,47,49,51,53,55,57,59,61,63,65,67,69,71,73,75,77,79,81,83,85,87,89,91,93,95,97,99,101,103,105,107,109,111,113,115,117,119,121,123,125,-1,-1,-1,-1,-1,-1,-1,-1,-1,-1,-1,-1,-1,-1,-1,-1,-1,-1,-1,-1,-1,-1,-1,-1,-1,-1,-1,-1,-1,-1,-1,-1,-1,-1,-1,-1,-1,-1,-1,-1,-1,-1,-1,-1,-1,-1,-1,-1,-1,-1,-1,-1,-1,-1,-1,-1,-1,-1,-1,-1,-1,-1,-1,-1],"loss_changes":[8.412459E8,2.2964675E8,1.2372723E8,3.707619E7,3.0091904E7,3.5893216E7,1.8934976E7,7.905984E6,5.95836E6,8.716138E6,1.212296E7,8.973944E6,1.6244E7,8.334416E6,5.406944E6,2.63648E6,1.865728E6,1.449476E6,2.44411E6,6.376894E6,5.407588E6,5.559491E6,5.408762E6,8.436304E6,4.337073E6,8.413056E6,4.32026E6,2.76136E6,2.634336E6,4.545944E6,3.235904E6,7.5556E5,7.60352E5,1.43176E6,7.57952E5,8.73916E5,7.75469E5,2.225536E6,3.6305E5,2.328993E6,2.4848212E6,1.1586688E6,2.640531E6,4.563438E6,4.1427642E6,2.241732E6,3.365044E6,7.05696E6,3.2595732E6,1.7184825E6,2.093315E6,3.596254E6,5.54328E6,1.398003E6,6.006461E6,2.2055135E6,1.87624E6,1.445558E6,2.092372E6,4.108976E6,1.5004382E6,2.32672E6,5.759801E5,0E0,0E0,0E0,0E0,0E0,0E0,0E0,0E0,0E0,0E0,0E0,0E0,0E0,0E0,0E0,0E0,0E0,0E0,0E0,0E0,0E0,0E0,0E0,0E0,0E0,0E0,0E0,0E0,0E0,0E0,0E0,0E0,0E0,0E0,0E0,0E0,0E0,0E0,0E0,0E0,0E0,0E0,0E0,0E0,0E0,0E0,0E0,0E0,0E0,0E0,0E0,0E0,0E0,0E0,0E0,0E0,0E0,0E0,0E0,0E0,0E0,0E0,0E0,0E0],"parents":[2147483647,0,0,1,1,2,2,3,3,4,4,5,5,6,6,7,7,8,8,9,9,10,10,11,11,12,12,13,13,14,14,15,15,16,16,17,17,18,18,19,19,20,20,21,21,22,22,23,23,24,24,25,25,26,26,27,27,28,28,29,29,30,30,31,31,32,32,33,33,34,34,35,35,36,36,37,37,38,38,39,39,40,40,41,41,42,42,43,43,44,44,45,45,46,46,47,47,48,48,49,49,50,50,51,51,52,52,53,53,54,54,55,55,56,56,57,57,58,58,59,59,60,60,61,61,62,62],"right_children":[2,4,6,8,10,12,14,16,18,20,22,24,26,28,30,32,34,36,38,40,42,44,46,48,50,52,54,56,58,60,62,64,66,68,70,72,74,76,78,80,82,84,86,88,90,92,94,96,98,100,102,104,106,108,110,112,114,116,118,120,122,124,126,-1,-1,-1,-1,-1,-1,-1,-1,-1,-1,-1,-1,-1,-1,-1,-1,-1,-1,-1,-1,-1,-1,-1,-1,-1,-1,-1,-1,-1,-1,-1,-1,-1,-1,-1,-1,-1,-1,-1,-1,-1,-1,-1,-1,-1,-1,-1,-1,-1,-1,-1,-1,-1,-1,-1,-1,-1,-1,-1,-1,-1,-1,-1,-1],"split_conditions":[1.69E2,1.1059E2,2.3838E2,8.0270424E1,1.2894075E2,2.267716E2,3.086E2,6.282E1,9.043E1,1.9358E2,2.0172E2,1E1,8.8E0,2.56E1,1E0,4.533638E1,8.6E0,8.42E1,9E1,1.043E2,1E1,9.8E0,1.1E1,8.4E1,5E1,1.6557E2,1.8E1,7E0,2.538E2,9.1E1,2.81E1,9.5E0,9.5E0,8.53E1,7.8E1,9E0,9E1,1.162E2,1E1,8.5E0,7.6E0,8.1E0,1.9652061E2,5E0,5E1,2.7149E2,4.7E1,2.0217577E2,2.19E1,3.18E1,1.1E1,6.9E1,2.9243948E2,1.21E1,1.1E1,9E0,7.9E1,2.41E2,9.2E0,5E0,3E0,3.947E2,1.24E1,-2.4508452E0,-2.897979E0,-2.0058098E0,-2.3877816E0,-1.725304E0,-1.2931259E0,-1.8448521E0,-2.3130078E0,-1.6173311E0,-1.2017578E0,-9.95453E-1,-1.8344854E0,-8.849859E-1,-3.5612044E-1,-1.4882883E0,-2.3731856E0,-5.0131506E-1,-1.0737213E0,1.7286596E-1,-3.446183E-1,1.1576213E0,3.2541115E-2,9.9639386E-1,4.681741E0,1.1324328E0,4.4556555E-1,2.6733485E-1,-9.6114093E-1,1.321802E0,3.9933896E0,2.184916E0,5.4491897E0,1.5189883E0,2.55766E0,1.3764518E0,-1.2111104E0,4.8818335E-1,1.4325569E0,-7.206377E-1,2.10241E0,2.6345594E0,5.8282924E-1,3.2672493E0,4.547689E0,3.9807413E0,6.586162E-1,1.0091127E0,3.2215126E0,4.2311454E0,5.201106E-1,4.6171336E0,6.199823E0,1.3328099E0,2.8126132E0,4.2707477E0,2.4398298E0,6.2690535E0,4.2245E0,5.3206935E0,2.1615043E-1,6.10139E0,7.5881815E0,1.8742676E0,5.2269664E0],"split_indices":[0,6,6,0,0,0,0,5,6,6,6,12,12,14,26,0,12,4,15,0,23,12,23,15,15,6,15,23,4,15,14,12,12,4,15,23,15,0,23,12,12,12,4,23,15,6,11,4,14,14,23,15,0,8,23,12,11,9,8,12,25,0,12,0,0,0,0,0,0,0,0,0,0,0,0,0,0,0,0,0,0,0,0,0,0,0,0,0,0,0,0,0,0,0,0,0,0,0,0,0,0,0,0,0,0,0,0,0,0,0,0,0,0,0,0,0,0,0,0,0,0,0,0,0,0,0,0],"split_type":[0,0,0,0,0,0,0,0,0,0,0,0,0,0,0,0,0,0,0,0,0,0,0,0,0,0,0,0,0,0,0,0,0,0,0,0,0,0,0,0,0,0,0,0,0,0,0,0,0,0,0,0,0,0,0,0,0,0,0,0,0,0,0,0,0,0,0,0,0,0,0,0,0,0,0,0,0,0,0,0,0,0,0,0,0,0,0,0,0,0,0,0,0,0,0,0,0,0,0,0,0,0,0,0,0,0,0,0,0,0,0,0,0,0,0,0,0,0,0,0,0,0,0,0,0,0,0],"sum_hessian":[1.020248E6,7.72652E5,2.47596E5,4.31017E5,3.41635E5,1.95295E5,5.2301E4,2.44019E5,1.86998E5,1.78925E5,1.6271E5,1.21219E5,7.4076E4,2.7403E4,2.4898E4,1.16128E5,1.27891E5,9.1809E4,9.5189E4,1.67539E5,1.1386E4,1.45941E5,1.6769E4,9.4596E4,2.6623E4,5.1665E4,2.2411E4,1.3694E4,1.3709E4,1.0791E4,1.4107E4,4.466E4,7.1468E4,9.0018E4,3.7873E4,5.8948E4,3.2861E4,8.8212E4,6.977E3,7.3922E4,9.3617E4,9.288E3,2.098E3,1.05002E5,4.0939E4,1.3606E4,3.163E3,8.9303E4,5.293E3,1.9435E4,7.188E3,1.2891E4,3.8774E4,2.778E3,1.9633E4,1.67E3,1.2024E4,6.91E3,6.799E3,9.946E3,8.45E2,1.3476E4,6.31E2,3.1003E4,1.3657E4,5.4273E4,1.7195E4,6.2316E4,2.7702E4,2.4457E4,1.3416E4,4.0531E4,1.8417E4,2.9826E4,3.035E3,5.7908E4,3.0304E4,5.504E3,1.473E3,4.42E4,2.9722E4,4.2404E4,5.1213E4,4.083E3,5.205E3,7.66E2,1.332E3,3.7764E4,6.7238E4,3.222E4,8.719E3,1.277E4,8.36E2,1.617E3,1.546E3,6.7742E4,2.1561E4,1.895E3,3.398E3,8.826E3,1.0609E4,6.458E3,7.3E2,1.0188E4,2.703E3,2.6302E4,1.2472E4,2.413E3,3.65E2,1.5828E4,3.805E3,1.004E3,6.66E2,9.689E3,2.335E3,2.733E3,4.177E3,4.361E3,2.438E3,4.492E3,5.454E3,1.83E2,6.62E2,9.851E3,3.625E3,4.52E2,1.79E2],"tree_param":{"num_deleted":"0","num_feature":"30","num_nodes":"127","size_leaf_vector":"1"}},{"base_weights":[-2.6578238E-4,-1.9208057E1,3.896507E1,-3.373185E1,-4.783613E0,2.2495422E1,7.071964E1,-4.26182E1,-2.7697989E1,-1.4196425E1,4.131931E0,1.3316416E1,3.5293484E1,5.8940216E1,1.05117195E2,-4.8675064E1,-3.949849E1,-3.1280445E1,-2.151509E1,-1.20379305E1,-2.803192E1,1.3127052E1,-6.9750214E-1,4.8737464E0,2.298077E1,3.1139013E1,5.3951817E1,4.5753418E1,6.9972626E1,1.23222244E2,8.864416E1,-5.5642265E1,-4.5964912E1,-3.753325E1,-4.6895393E1,-3.5653206E1,-2.9053064E1,-4.4468846E0,-2.3021523E1,-1.692984E1,-6.1133256E0,-1.4830059E1,-3.183075E1,9.614237E0,3.5586567E1,7.225926E0,-1.2047076E1,-7.7547045E0,9.387698E0,2.023141E1,7.017633E1,3.2479027E1,-8.0598545E0,4.2531837E1,7.106704E1,2.9443096E1,5.5671616E1,6.30096E1,8.7837326E1,1.1506217E2,1.5063524E2,7.2227104E1,1.03172325E2,-2.9774482E0,-2.585906E0,-2.4208162E0,-2.1330383E0,-1.947283E0,-1.5123638E0,-2.7216322E0,-2.1347392E0,-1.7260531E0,-2.1983097E0,-1.606819E0,-1.285314E0,-8.372807E-1,2.2886126E-1,-1.2840532E0,-7.9018134E-1,-9.350447E-1,-2.5139531E-1,-3.3576337E-1,2.4558768E0,-9.585782E-1,-2.0571738E-2,-1.7234297E0,-9.545683E-1,-6.7240946E-2,7.43622E-1,1.5014396E0,4.951655E0,3.1881526E-1,3.0291092E0,-3.4576878E-1,-1.4154061E0,-1.1332659E0,-2.5892317E-1,5.0683403E-1,-1.789558E0,9.174399E-1,2.2281837E0,5.6401756E-2,3.8609211E0,2.0128186E0,1.2938778E0,9.82296E-1,-1.2986635E0,2.4728072E0,1.3406368E0,2.6426182E0,4.2367206E0,1.6613511E0,-1.557114E0,3.3276927E0,2.2041817E0,2.6860552E0,3.7195497E0,3.4564652E0,4.735124E0,5.202693E0,6.205972E0,6.8363185E0,8.268059E0,2.9948807E0,4.4673495E0,4.786295E0,6.938081E0],"categories":[],"categories_nodes":[],"categories_segments":[],"categories_sizes":[],"default_left":[1,0,0,0,0,0,1,0,1,0,0,0,1,0,0,0,0,0,0,0,0,1,0,0,0,0,0,0,1,0,0,1,0,1,0,0,0,0,1,0,0,0,0,0,0,0,0,0,0,1,0,0,0,0,0,0,0,0,0,0,0,0,0,0,0,0,0,0,0,0,0,0,0,0,0,0,0,0,0,0,0,0,0,0,0,0,0,0,0,0,0,0,0,0,0,0,0,0,0,0,0,0,0,0,0,0,0,0,0,0,0,0,0,0,0,0,0,0,0,0,0,0,0,0,0,0,0],"id":12,"left_children":[1,3,5,7,9,11,13,15,17,19,21,23,25,27,29,31,33,35,37,39,41,43,45,47,49,51,53,55,57,59,61,63,65,67,69,71,73,75,77,79,81,83,85,87,89,91,93,95,97,99,101,103,105,107,109,111,113,115,117,119,121,123,125,-1,-1,-1,-1,-1,-1,-1,-1,-1,-1,-1,-1,-1,-1,-1,-1,-1,-1,-1,-1,-1,-1,-1,-1,-1,-1,-1,-1,-1,-1,-1,-1,-1,-1,-1,-1,-1,-1,-1,-1,-1,-1,-1,-1,-1,-1,-1,-1,-1,-1,-1,-1,-1,-1,-1,-1,-1,-1,-1,-1,-1,-1,-1,-1],"loss_changes":[7.6401894E8,1.4324616E8,1.7627469E8,1.8267168E7,2.8789348E7,2.6072312E7,4.6635264E7,2.601584E6,4.494112E6,4.983164E6,7.6535905E6,1.0545696E7,7.183864E6,1.2471904E7,8.746464E6,8.81824E5,1.320304E6,1.250328E6,1.914084E6,4.183684E6,1.128942E6,4.855479E6,1.030902E7,3.9325662E6,7.818296E6,3.9828E6,3.296264E6,6.317704E6,5.801968E6,3.111216E6,3.660344E6,1.97936E5,2.71104E5,7.38328E5,6.01988E5,4.06508E5,8.77608E5,6.703155E5,1.312792E6,1.666578E6,2.170879E6,3.1511312E5,5.86984E5,3.0670495E6,2.932248E6,3.0599258E6,3.932569E6,6.976991E5,1.7200525E6,2.607868E6,1.612786E6,3.762992E6,1.2447469E6,1.100936E6,1.676908E6,3.38798E6,3.060232E6,3.547736E6,1.674768E6,1.062112E6,6.3384E5,1.519276E6,2.14816E6,0E0,0E0,0E0,0E0,0E0,0E0,0E0,0E0,0E0,0E0,0E0,0E0,0E0,0E0,0E0,0E0,0E0,0E0,0E0,0E0,0E0,0E0,0E0,0E0,0E0,0E0,0E0,0E0,0E0,0E0,0E0,0E0,0E0,0E0,0E0,0E0,0E0,0E0,0E0,0E0,0E0,0E0,0E0,0E0,0E0,0E0,0E0,0E0,0E0,0E0,0E0,0E0,0E0,0E0,0E0,0E0,0E0,0E0,0E0,0E0,0E0,0E0,0E0,0E0],"parents":[2147483647,0,0,1,1,2,2,3,3,4,4,5,5,6,6,7,7,8,8,9,9,10,10,11,11,12,12,13,13,14,14,15,15,16,16,17,17,18,18,19,19,20,20,21,21,22,22,23,23,24,24,25,25,26,26,27,27,28,28,29,29,30,30,31,31,32,32,33,33,34,34,35,35,36,36,37,37,38,38,39,39,40,40,41,41,42,42,43,43,44,44,45,45,46,46,47,47,48,48,49,49,50,50,51,51,52,52,53,53,54,54,55,55,56,56,57,57,58,58,59,59,60,60,61,61,62,62],"right_children":[2,4,6,8,10,12,14,16,18,20,22,24,26,28,30,32,34,36,38,40,42,44,46,48,50,52,54,56,58,60,62,64,66,68,70,72,74,76,78,80,82,84,86,88,90,92,94,96,98,100,102,104,106,108,110,112,114,116,118,120,122,124,126,-1,-1,-1,-1,-1,-1,-1,-1,-1,-1,-1,-1,-1,-1,-1,-1,-1,-1,-1,-1,-1,-1,-1,-1,-1,-1,-1,-1,-1,-1,-1,-1,-1,-1,-1,-1,-1,-1,-1,-1,-1,-1,-1,-1,-1,-1,-1,-1,-1,-1,-1,-1,-1,-1,-1,-1,-1,-1,-1,-1,-1,-1,-1,-1],"split_conditions":[1.5036E2,9.557E1,2.297E2,6.394561E1,1.155E2,1.7652617E2,2.6545E2,5.409E1,8.842518E1,8.6E1,2.64E1,1.591E2,2.277E2,2.3523502E2,2.23E1,3.42E1,9.1E1,6.896E1,2.47E1,1.175E2,2.23E1,1.6648E2,5.2E1,1.2388152E2,1E0,8.5E1,1E1,2.11E2,3.086E2,3.947E2,3.0895062E2,3.19E1,1.57E2,8.37E1,2E0,9.1E1,1.57E2,2.78E2,9.536487E1,1E1,1E0,2.78E2,5E0,2.02E2,1.1E1,1E0,3.2E1,8.53E1,9E1,2.3838E2,3E0,2.74E1,2.26E1,5E0,3E0,8.5E1,2.63E1,1E1,1.33E2,3E0,3E0,3.169863E2,1E0,-2.9774482E0,-2.585906E0,-2.4208162E0,-2.1330383E0,-1.947283E0,-1.5123638E0,-2.7216322E0,-2.1347392E0,-1.7260531E0,-2.1983097E0,-1.606819E0,-1.285314E0,-8.372807E-1,2.2886126E-1,-1.2840532E0,-7.9018134E-1,-9.350447E-1,-2.5139531E-1,-3.3576337E-1,2.4558768E0,-9.585782E-1,-2.0571738E-2,-1.7234297E0,-9.545683E-1,-6.7240946E-2,7.43622E-1,1.5014396E0,4.951655E0,3.1881526E-1,3.0291092E0,-3.4576878E-1,-1.4154061E0,-1.1332659E0,-2.5892317E-1,5.0683403E-1,-1.789558E0,9.174399E-1,2.2281837E0,5.6401756E-2,3.8609211E0,2.0128186E0,1.2938778E0,9.82296E-1,-1.2986635E0,2.4728072E0,1.3406368E0,2.6426182E0,4.2367206E0,1.6613511E0,-1.557114E0,3.3276927E0,2.2041817E0,2.6860552E0,3.7195497E0,3.4564652E0,4.735124E0,5.202693E0,6.205972E0,6.8363185E0,8.268059E0,2.9948807E0,4.4673495E0,4.786295E0,6.938081E0],"split_indices":[5,6,0,0,0,0,6,6,0,15,10,4,4,3,10,0,15,6,10,4,10,6,15,3,29,15,23,9,0,0,4,4,13,4,25,15,13,9,4,23,29,9,25,9,23,29,10,4,15,6,25,10,10,23,25,15,10,23,13,25,25,3,29,0,0,0,0,0,0,0,0,0,0,0,0,0,0,0,0,0,0,0,0,0,0,0,0,0,0,0,0,0,0,0,0,0,0,0,0,0,0,0,0,0,0,0,0,0,0,0,0,0,0,0,0,0,0,0,0,0,0,0,0,0,0,0,0],"split_type":[0,0,0,0,0,0,0,0,0,0,0,0,0,0,0,0,0,0,0,0,0,0,0,0,0,0,0,0,0,0,0,0,0,0,0,0,0,0,0,0,0,0,0,0,0,0,0,0,0,0,0,0,0,0,0,0,0,0,0,0,0,0,0,0,0,0,0,0,0,0,0,0,0,0,0,0,0,0,0,0,0,0,0,0,0,0,0,0,0,0,0,0,0,0,0,0,0,0,0,0,0,0,0,0,0,0,0,0,0,0,0,0,0,0,0,0,0,0,0,0,0,0,0,0,0,0,0],"sum_hessian":[1.020816E6,6.8376E5,3.37056E5,3.40706E5,3.43054E5,2.21945E5,1.15111E5,1.37782E5,2.02924E5,1.66873E5,1.76181E5,1.29248E5,9.2697E4,8.5749E4,2.9362E4,4.6836E4,9.0946E4,1.28478E5,7.4446E4,1.44354E5,2.2519E4,6.1546E4,1.14635E5,6.8985E4,6.0263E4,7.5818E4,1.6879E4,3.9063E4,4.6686E4,1.3985E4,1.5377E4,1.3111E4,3.3725E4,7.186E4,1.9086E4,4.3353E4,8.5125E4,6.038E3,6.8408E4,7.9067E4,6.5287E4,5.033E3,1.7486E4,5.3223E4,8.323E3,6.7507E4,4.7128E4,1.8165E4,5.082E4,5.6947E4,3.316E3,7.3312E4,2.506E3,1.0126E4,6.753E3,1.4773E4,2.429E4,3.3596E4,1.309E4,1.0781E4,3.204E3,7.222E3,8.155E3,6.563E3,6.548E3,1.9353E4,1.4372E4,6.0188E4,1.1672E4,6.826E3,1.226E4,3.8161E4,5.192E3,4.4302E4,4.0823E4,2.555E3,3.483E3,4.9987E4,1.8421E4,6.8825E4,1.0242E4,6.4584E4,7.03E2,3.868E3,1.165E3,1.4485E4,3.001E3,1.7257E4,3.5966E4,7.654E3,6.69E2,6.645E4,1.057E3,3.5824E4,1.1304E4,2.675E3,1.549E4,4.9992E4,8.28E2,5.2859E4,4.088E3,3.07E2,3.009E3,3.3656E4,3.9656E4,9.84E2,1.522E3,7.028E3,3.098E3,2.897E3,3.856E3,1.3905E4,8.68E2,1.2524E4,1.1766E4,1.8502E4,1.5094E4,3.517E3,9.573E3,4.872E3,5.909E3,1.653E3,1.551E3,4.201E3,3.021E3,6.747E3,1.408E3],"tree_param":{"num_deleted":"0","num_feature":"30","num_nodes":"127","size_leaf_vector":"1"}},{"base_weights":[-3.6548803E-4,-1.7949099E1,3.7693832E1,-3.1590933E1,-3.7014062E0,2.18826E1,6.719483E1,-4.028617E1,-2.6045286E1,-1.0524588E1,6.076156E0,1.3097444E1,3.3776966E1,5.6068436E1,9.9608795E1,-4.5189228E1,-3.6340946E1,-2.9727083E1,-1.9862247E1,-1.7331589E1,-5.0410733E0,1.5002955E1,9.3556863E-1,2.3823223E1,5.6829267E0,3.897004E1,1.7135899E1,6.1586708E1,1.929997E1,1.1603179E2,8.3932274E1,-5.1573112E1,-4.271998E1,-3.3101093E1,-4.2887768E1,-3.151324E1,-2.411961E1,-4.7923684E0,-2.166987E1,-1.9194786E1,-6.3273716E0,-8.3264893E-1,-1.2806469E1,2.11901E1,-8.07108E0,-1.0870824E1,4.8754807E0,1.9019442E1,6.4160515E1,-5.761674E0,1.0179021E1,3.509742E1,6.1697884E1,1.2648249E1,4.6212933E1,5.4481655E1,8.2138855E1,1.3361026E1,6.0175304E1,1.06326805E2,1.347397E2,6.949288E1,9.873414E1,-2.7769265E0,-2.3980067E0,-2.0820901E0,-2.5158968E0,-1.7410635E0,-1.2154484E0,-2.3626163E0,-1.9775515E0,-1.7366337E0,-1.4512223E0,-1.3981502E0,-9.4132376E-1,7.882714E-2,-1.079483E0,-1.2156037E0,-7.139618E-1,-1.4722985E-1,-1.0186505E0,-2.6091966E-1,-1.4154146E0,2.3507094E-1,-6.71948E-1,-6.626804E-1,2.808068E0,8.77767E-1,2.3401833E0,-5.529294E-2,-1.445599E0,-7.349428E-1,-3.771042E-2,2.0558627E-1,3.3908513E0,1.7589241E0,6.6332567E-1,2.7784066E0,5.2084684E0,-5.8498394E-1,1.4205391E-2,4.524276E-1,2.5475583E0,1.9803444E0,1.2378895E0,3.4629052E0,1.7736048E0,1.1047143E0,-2.262069E-1,2.960544E0,7.8881186E-1,3.332363E0,2.1917481E0,4.5352173E0,3.4300988E0,1.5758995E0,-6.065925E-1,3.364249E0,-3.6170468E-1,4.752703E0,5.750309E0,6.962374E0,4.6503134E0,3.791045E0,1.9670771E0,4.573146E0,6.694472E0],"categories":[],"categories_nodes":[],"categories_segments":[],"categories_sizes":[],"default_left":[1,0,0,0,1,0,1,1,1,1,0,0,0,0,0,0,0,0,0,0,0,0,0,1,0,1,0,1,0,0,0,1,0,1,0,0,1,0,1,0,0,0,0,1,0,0,0,0,0,0,0,0,0,0,0,0,0,0,0,0,0,0,0,0,0,0,0,0,0,0,0,0,0,0,0,0,0,0,0,0,0,0,0,0,0,0,0,0,0,0,0,0,0,0,0,0,0,0,0,0,0,0,0,0,0,0,0,0,0,0,0,0,0,0,0,0,0,0,0,0,0,0,0,0,0,0,0],"id":13,"left_children":[1,3,5,7,9,11,13,15,17,19,21,23,25,27,29,31,33,35,37,39,41,43,45,47,49,51,53,55,57,59,61,63,65,67,69,71,73,75,77,79,81,83,85,87,89,91,93,95,97,99,101,103,105,107,109,111,113,115,117,119,121,123,125,-1,-1,-1,-1,-1,-1,-1,-1,-1,-1,-1,-1,-1,-1,-1,-1,-1,-1,-1,-1,-1,-1,-1,-1,-1,-1,-1,-1,-1,-1,-1,-1,-1,-1,-1,-1,-1,-1,-1,-1,-1,-1,-1,-1,-1,-1,-1,-1,-1,-1,-1,-1,-1,-1,-1,-1,-1,-1,-1,-1,-1,-1,-1,-1],"loss_changes":[6.9063494E8,1.3440694E8,1.535898E8,1.703392E7,2.2566102E7,2.2401176E7,4.1432416E7,2.659424E6,4.909856E6,7.436206E6,6.379794E6,9.806194E6,7.869784E6,1.7354528E7,7.549152E6,9.64624E5,1.615584E6,1.353336E6,2.193012E6,1.822288E6,3.60591E6,7.25307E6,4.1038935E6,9.764864E6,3.7517158E6,6.107224E6,2.8261675E6,1.0856224E7,2.7093278E6,2.588528E6,3.204432E6,2.42356E5,3.60264E5,7.70508E5,3.65624E5,8.20528E5,6.64E5,9.226335E5,1.403416E6,1.455334E6,3.1362497E5,4.992388E6,1.19668E6,3.728918E6,1.5594376E6,8.5488125E5,3.17968E6,4.186347E6,1.837858E6,7.3828444E5,2.412252E6,2.764376E6,2.000892E6,3.044476E6,1.1447655E6,7.15608E6,2.209E6,4.5129325E6,6.791175E5,9.1308E5,9.07552E5,1.448804E6,1.883696E6,0E0,0E0,0E0,0E0,0E0,0E0,0E0,0E0,0E0,0E0,0E0,0E0,0E0,0E0,0E0,0E0,0E0,0E0,0E0,0E0,0E0,0E0,0E0,0E0,0E0,0E0,0E0,0E0,0E0,0E0,0E0,0E0,0E0,0E0,0E0,0E0,0E0,0E0,0E0,0E0,0E0,0E0,0E0,0E0,0E0,0E0,0E0,0E0,0E0,0E0,0E0,0E0,0E0,0E0,0E0,0E0,0E0,0E0,0E0,0E0,0E0,0E0,0E0,0E0],"parents":[2147483647,0,0,1,1,2,2,3,3,4,4,5,5,6,6,7,7,8,8,9,9,10,10,11,11,12,12,13,13,14,14,15,15,16,16,17,17,18,18,19,19,20,20,21,21,22,22,23,23,24,24,25,25,26,26,27,27,28,28,29,29,30,30,31,31,32,32,33,33,34,34,35,35,36,36,37,37,38,38,39,39,40,40,41,41,42,42,43,43,44,44,45,45,46,46,47,47,48,48,49,49,50,50,51,51,52,52,53,53,54,54,55,55,56,56,57,57,58,58,59,59,60,60,61,61,62,62],"right_children":[2,4,6,8,10,12,14,16,18,20,22,24,26,28,30,32,34,36,38,40,42,44,46,48,50,52,54,56,58,60,62,64,66,68,70,72,74,76,78,80,82,84,86,88,90,92,94,96,98,100,102,104,106,108,110,112,114,116,118,120,122,124,126,-1,-1,-1,-1,-1,-1,-1,-1,-1,-1,-1,-1,-1,-1,-1,-1,-1,-1,-1,-1,-1,-1,-1,-1,-1,-1,-1,-1,-1,-1,-1,-1,-1,-1,-1,-1,-1,-1,-1,-1,-1,-1,-1,-1,-1,-1,-1,-1,-1,-1,-1,-1,-1,-1,-1,-1,-1,-1,-1,-1,-1,-1,-1,-1],"split_conditions":[1.5197E2,9.544E1,2.297E2,6.2703365E1,1.261E2,1.7652617E2,2.6545E2,5.855E1,8.457E1,1.1389E2,2.64E1,7.6E0,1E1,1.1E1,2.25E1,3.61E1,8.6E0,1.9E1,2.22E1,2E1,9.1E0,9.2E0,1.1534E2,2.224E2,1.2964577E2,2.366E2,1.1E1,2.663E2,1.1E1,3.711E2,3.147E2,3.4E1,1.16E1,9.25E1,2E0,7.26E1,8.292246E1,5E0,9.71E1,2.2E1,1.09E1,3.11E1,1E0,1.6739E2,1.23E1,2E1,1E0,2.5E1,2.5417E2,1.3112694E2,1E0,3.04E1,3.04E1,3.8E1,2.74E1,2.51E1,6.9E0,3.8E1,1.031E1,3E0,1.0104068E3,6.2E1,1E0,-2.7769265E0,-2.3980067E0,-2.0820901E0,-2.5158968E0,-1.7410635E0,-1.2154484E0,-2.3626163E0,-1.9775515E0,-1.7366337E0,-1.4512223E0,-1.3981502E0,-9.4132376E-1,7.882714E-2,-1.079483E0,